{"learner":{"attributes":{"scikit_learn":"{\"_estimator_type\": \"regressor\"}"},"feature_names":["Open","High","Low","Close","Volume","macd","macd_signal","macd_diff","rsi","bollinger_mavg","bollinger_hband","bollinger_lband","bollinger_width","bollinger_pband","sma_5","ema_5","close_sma_5_ratio","close_ema_5_ratio","sma_10","ema_10","close_sma_10_ratio","close_ema_10_ratio","sma_20","ema_20","close_sma_20_ratio","close_ema_20_ratio","sma_50","ema_50","close_sma_50_ratio","close_ema_50_ratio","sma_200","ema_200","close_sma_200_ratio","close_ema_200_ratio","stoch_k","stoch_d","atr","obv","vwap","open_lag_1","high_lag_1","low_lag_1","close_lag_1","volume_lag_1","return_1d","volume_change_1d","open_lag_2","high_lag_2","low_lag_2","close_lag_2","volume_lag_2","return_2d","volume_change_2d","open_lag_3","high_lag_3","low_lag_3","close_lag_3","volume_lag_3","return_3d","volume_change_3d","open_lag_4","high_lag_4","low_lag_4","close_lag_4","volume_lag_4","return_4d","volume_change_4d","open_lag_5","high_lag_5","low_lag_5","close_lag_5","volume_lag_5","return_5d","volume_change_5d","open_lag_6","high_lag_6","low_lag_6","close_lag_6","volume_lag_6","return_6d","volume_change_6d","open_lag_7","high_lag_7","low_lag_7","close_lag_7","volume_lag_7","return_7d","volume_change_7d","open_lag_8","high_lag_8","low_lag_8","close_lag_8","volume_lag_8","return_8d","volume_change_8d","open_lag_9","high_lag_9","low_lag_9","close_lag_9","volume_lag_9","return_9d","volume_change_9d","open_lag_10","high_lag_10","low_lag_10","close_lag_10","volume_lag_10","return_10d","volume_change_10d","open_lag_11","high_lag_11","low_lag_11","close_lag_11","volume_lag_11","open_lag_12","high_lag_12","low_lag_12","close_lag_12","volume_lag_12","open_lag_13","high_lag_13","low_lag_13","close_lag_13","volume_lag_13","open_lag_14","high_lag_14","low_lag_14","close_lag_14","volume_lag_14","open_lag_15","high_lag_15","low_lag_15","close_lag_15","volume_lag_15","open_lag_16","high_lag_16","low_lag_16","close_lag_16","volume_lag_16","open_lag_17","high_lag_17","low_lag_17","close_lag_17","volume_lag_17","open_lag_18","high_lag_18","low_lag_18","close_lag_18","volume_lag_18","open_lag_19","high_lag_19","low_lag_19","close_lag_19","volume_lag_19","open_lag_20","high_lag_20","low_lag_20","close_lag_20","volume_lag_20","open_lag_21","high_lag_21","low_lag_21","close_lag_21","volume_lag_21","open_lag_22","high_lag_22","low_lag_22","close_lag_22","volume_lag_22","open_lag_23","high_lag_23","low_lag_23","close_lag_23","volume_lag_23","open_lag_24","high_lag_24","low_lag_24","close_lag_24","volume_lag_24","open_lag_25","high_lag_25","low_lag_25","close_lag_25","volume_lag_25","open_lag_26","high_lag_26","low_lag_26","close_lag_26","volume_lag_26","open_lag_27","high_lag_27","low_lag_27","close_lag_27","volume_lag_27","open_lag_28","high_lag_28","low_lag_28","close_lag_28","volume_lag_28","open_lag_29","high_lag_29","low_lag_29","close_lag_29","volume_lag_29","open_lag_30","high_lag_30","low_lag_30","close_lag_30","volume_lag_30","gap_open","gap_close","day_range","close_position","volatility_5d","momentum_5d","volume_trend_5d","volatility_10d","momentum_10d","volume_trend_10d","volatility_20d","momentum_20d","volume_trend_20d","volatility_50d","momentum_50d","volume_trend_50d","high_low_ratio","close_open_ratio","day_of_week","month","quarter","year","day_sin","day_cos","month_sin","month_cos"],"feature_types":["float","float","float","float","float","float","float","float","float","float","float","float","float","float","float","float","float","float","float","float","float","float","float","float","float","float","float","float","float","float","float","float","float","float","float","float","float","float","float","float","float","float","float","float","float","float","float","float","float","float","float","float","float","float","float","float","float","float","float","float","float","float","float","float","float","float","float","float","float","float","float","float","float","float","float","float","float","float","float","float","float","float","float","float","float","float","float","float","float","float","float","float","float","float","float","float","float","float","float","float","float","float","float","float","float","float","float","float","float","float","float","float","float","float","float","float","float","float","float","float","float","float","float","float","float","float","float","float","float","float","float","float","float","float","float","float","float","float","float","float","float","float","float","float","float","float","float","float","float","float","float","float","float","float","float","float","float","float","float","float","float","float","float","float","float","float","float","float","float","float","float","float","float","float","float","float","float","float","float","float","float","float","float","float","float","float","float","float","float","float","float","float","float","float","float","float","float","float","float","float","float","float","float","float","float","float","float","float","float","float","float","float","float","float","float","float","float","float","float","float","float","float","float","float","float","float","float","float","float","float","float","float","float","float","float"],"gradient_booster":{"model":{"gbtree_model_param":{"num_parallel_tree":"1","num_trees":"787"},"iteration_indptr":[0,1,2,3,4,5,6,7,8,9,10,11,12,13,14,15,16,17,18,19,20,21,22,23,24,25,26,27,28,29,30,31,32,33,34,35,36,37,38,39,40,41,42,43,44,45,46,47,48,49,50,51,52,53,54,55,56,57,58,59,60,61,62,63,64,65,66,67,68,69,70,71,72,73,74,75,76,77,78,79,80,81,82,83,84,85,86,87,88,89,90,91,92,93,94,95,96,97,98,99,100,101,102,103,104,105,106,107,108,109,110,111,112,113,114,115,116,117,118,119,120,121,122,123,124,125,126,127,128,129,130,131,132,133,134,135,136,137,138,139,140,141,142,143,144,145,146,147,148,149,150,151,152,153,154,155,156,157,158,159,160,161,162,163,164,165,166,167,168,169,170,171,172,173,174,175,176,177,178,179,180,181,182,183,184,185,186,187,188,189,190,191,192,193,194,195,196,197,198,199,200,201,202,203,204,205,206,207,208,209,210,211,212,213,214,215,216,217,218,219,220,221,222,223,224,225,226,227,228,229,230,231,232,233,234,235,236,237,238,239,240,241,242,243,244,245,246,247,248,249,250,251,252,253,254,255,256,257,258,259,260,261,262,263,264,265,266,267,268,269,270,271,272,273,274,275,276,277,278,279,280,281,282,283,284,285,286,287,288,289,290,291,292,293,294,295,296,297,298,299,300,301,302,303,304,305,306,307,308,309,310,311,312,313,314,315,316,317,318,319,320,321,322,323,324,325,326,327,328,329,330,331,332,333,334,335,336,337,338,339,340,341,342,343,344,345,346,347,348,349,350,351,352,353,354,355,356,357,358,359,360,361,362,363,364,365,366,367,368,369,370,371,372,373,374,375,376,377,378,379,380,381,382,383,384,385,386,387,388,389,390,391,392,393,394,395,396,397,398,399,400,401,402,403,404,405,406,407,408,409,410,411,412,413,414,415,416,417,418,419,420,421,422,423,424,425,426,427,428,429,430,431,432,433,434,435,436,437,438,439,440,441,442,443,444,445,446,447,448,449,450,451,452,453,454,455,456,457,458,459,460,461,462,463,464,465,466,467,468,469,470,471,472,473,474,475,476,477,478,479,480,481,482,483,484,485,486,487,488,489,490,491,492,493,494,495,496,497,498,499,500,501,502,503,504,505,506,507,508,509,510,511,512,513,514,515,516,517,518,519,520,521,522,523,524,525,526,527,528,529,530,531,532,533,534,535,536,537,538,539,540,541,542,543,544,545,546,547,548,549,550,551,552,553,554,555,556,557,558,559,560,561,562,563,564,565,566,567,568,569,570,571,572,573,574,575,576,577,578,579,580,581,582,583,584,585,586,587,588,589,590,591,592,593,594,595,596,597,598,599,600,601,602,603,604,605,606,607,608,609,610,611,612,613,614,615,616,617,618,619,620,621,622,623,624,625,626,627,628,629,630,631,632,633,634,635,636,637,638,639,640,641,642,643,644,645,646,647,648,649,650,651,652,653,654,655,656,657,658,659,660,661,662,663,664,665,666,667,668,669,670,671,672,673,674,675,676,677,678,679,680,681,682,683,684,685,686,687,688,689,690,691,692,693,694,695,696,697,698,699,700,701,702,703,704,705,706,707,708,709,710,711,712,713,714,715,716,717,718,719,720,721,722,723,724,725,726,727,728,729,730,731,732,733,734,735,736,737,738,739,740,741,742,743,744,745,746,747,748,749,750,751,752,753,754,755,756,757,758,759,760,761,762,763,764,765,766,767,768,769,770,771,772,773,774,775,776,777,778,779,780,781,782,783,784,785,786,787],"tree_info":[0,0,0,0,0,0,0,0,0,0,0,0,0,0,0,0,0,0,0,0,0,0,0,0,0,0,0,0,0,0,0,0,0,0,0,0,0,0,0,0,0,0,0,0,0,0,0,0,0,0,0,0,0,0,0,0,0,0,0,0,0,0,0,0,0,0,0,0,0,0,0,0,0,0,0,0,0,0,0,0,0,0,0,0,0,0,0,0,0,0,0,0,0,0,0,0,0,0,0,0,0,0,0,0,0,0,0,0,0,0,0,0,0,0,0,0,0,0,0,0,0,0,0,0,0,0,0,0,0,0,0,0,0,0,0,0,0,0,0,0,0,0,0,0,0,0,0,0,0,0,0,0,0,0,0,0,0,0,0,0,0,0,0,0,0,0,0,0,0,0,0,0,0,0,0,0,0,0,0,0,0,0,0,0,0,0,0,0,0,0,0,0,0,0,0,0,0,0,0,0,0,0,0,0,0,0,0,0,0,0,0,0,0,0,0,0,0,0,0,0,0,0,0,0,0,0,0,0,0,0,0,0,0,0,0,0,0,0,0,0,0,0,0,0,0,0,0,0,0,0,0,0,0,0,0,0,0,0,0,0,0,0,0,0,0,0,0,0,0,0,0,0,0,0,0,0,0,0,0,0,0,0,0,0,0,0,0,0,0,0,0,0,0,0,0,0,0,0,0,0,0,0,0,0,0,0,0,0,0,0,0,0,0,0,0,0,0,0,0,0,0,0,0,0,0,0,0,0,0,0,0,0,0,0,0,0,0,0,0,0,0,0,0,0,0,0,0,0,0,0,0,0,0,0,0,0,0,0,0,0,0,0,0,0,0,0,0,0,0,0,0,0,0,0,0,0,0,0,0,0,0,0,0,0,0,0,0,0,0,0,0,0,0,0,0,0,0,0,0,0,0,0,0,0,0,0,0,0,0,0,0,0,0,0,0,0,0,0,0,0,0,0,0,0,0,0,0,0,0,0,0,0,0,0,0,0,0,0,0,0,0,0,0,0,0,0,0,0,0,0,0,0,0,0,0,0,0,0,0,0,0,0,0,0,0,0,0,0,0,0,0,0,0,0,0,0,0,0,0,0,0,0,0,0,0,0,0,0,0,0,0,0,0,0,0,0,0,0,0,0,0,0,0,0,0,0,0,0,0,0,0,0,0,0,0,0,0,0,0,0,0,0,0,0,0,0,0,0,0,0,0,0,0,0,0,0,0,0,0,0,0,0,0,0,0,0,0,0,0,0,0,0,0,0,0,0,0,0,0,0,0,0,0,0,0,0,0,0,0,0,0,0,0,0,0,0,0,0,0,0,0,0,0,0,0,0,0,0,0,0,0,0,0,0,0,0,0,0,0,0,0,0,0,0,0,0,0,0,0,0,0,0,0,0,0,0,0,0,0,0,0,0,0,0,0,0,0,0,0,0,0,0,0,0,0,0,0,0,0,0,0,0,0,0,0,0,0,0,0,0,0,0,0,0,0,0,0,0,0,0,0,0,0,0,0,0,0,0,0,0,0,0,0,0,0,0,0,0,0,0,0,0,0,0,0,0,0,0,0,0,0,0,0,0,0,0,0,0,0,0,0,0,0,0,0,0,0,0,0,0,0,0,0,0,0,0,0,0,0,0,0,0,0,0,0,0,0,0,0,0,0,0,0,0,0,0,0,0,0,0,0,0,0,0,0,0,0,0,0,0,0,0,0,0,0,0,0,0,0,0,0,0,0,0,0,0,0,0,0,0,0,0,0,0,0,0,0,0,0,0,0,0,0,0,0,0,0],"trees":[{"base_weights":[-1.397588E-1,-2.1310816E1,2.027422E1,-3.2577686E1,-1.4783239E1,1.3402347E1,5.453119E1,-3.8097042E1,-2.6330317E1,-1.9069893E1,-6.102598E0,6.661185E0,2.2548872E1,4.800264E1,1.7739864E1,-1.2206291E1,-1.0284429E1,-8.389241E0,-7.4373326E0,-2.0789932E1,-1.5677454E1,-8.175965E0,-3.1048372E0,3.2303193E0,9.235108E0,1.8381998E1,2.5906822E1,1.5412757E1,1.2573236E1,-2.1227196E1,-5.1770673E0,-4.208743E0,-1.7504353E1,-6.4031224E0,-1.01293955E1,-1.8066783E0,-1.5913591E0,1.5036603E0,4.3825316E0,6.561301E0,1.0639255E1,5.06824E0,6.0087075E0,2.3929764E1,8.345029E0,-7.1326647E0,-2.0664412E1,-4.419068E0,-5.5722027E0,-2.6808054E0,-5.1575255E0,-3.5056221E0,-2.3494623E0,-2.577511E-1,-8.4105104E-1,2.7471933E0,-1.4528161E-1,1.803113E0,3.677819E0,1.3202641E0,7.403297E0,2.09878E0,1.1173638E1,6.0374E0,7.4184175E0,-6.530729E0,-5.850117E0,-2.101973E0,-1.0420915E0,2.2233662E-1,1.1800709E0,3.004471E0,1.7423272E0,2.6009479E0,1.751476E0,1.23159E1,1.0025873E1,4.1978526E-1,3.6315932E0,4.4007106E0,3.4029675E0,2.4905164E0,3.4806943E0,1.4064255E0,8.3259183E-1],"categories":[],"categories_nodes":[],"categories_segments":[],"categories_sizes":[],"default_left":[0,0,0,0,0,0,0,0,0,0,0,0,0,0,0,0,0,0,0,0,0,0,0,0,0,0,0,0,0,0,0,0,0,0,0,0,0,0,0,0,0,0,0,0,0,0,0,0,0,0,0,0,0,0,0,0,0,0,0,0,0,0,0,0,0,0,0,0,0,0,0,0,0,0,0,0,0,0,0,0,0,0,0,0,0],"id":0,"left_children":[1,3,5,7,9,11,13,15,17,19,21,23,25,27,-1,-1,-1,-1,-1,29,31,33,35,37,39,41,43,-1,-1,45,-1,-1,47,49,51,-1,53,55,57,59,61,-1,-1,63,-1,-1,65,-1,-1,-1,67,-1,-1,-1,-1,69,-1,-1,71,-1,73,-1,75,-1,-1,-1,-1,-1,-1,-1,-1,77,-1,-1,-1,79,81,-1,83,-1,-1,-1,-1,-1,-1],"loss_changes":[2.1400436E5,1.7822312E4,5.9260117E4,2.9673594E3,5.715824E3,1.2931496E4,1.0194453E3,3.2951562E2,3.0945312E1,5.626289E2,3.1178406E2,1.0627891E3,1.1925469E3,1.6632812E2,0E0,0E0,0E0,0E0,0E0,6.1375E1,7.353027E1,9.3484375E1,9.017491E1,1.0118848E2,2.4804297E2,5.8148438E1,1.1757422E2,0E0,0E0,3.2189453E1,0E0,0E0,1.5081055E1,4.2677063E1,3.6779907E1,0E0,1.1149197E1,5.2974655E1,3.0928772E1,3.716272E1,7.514746E1,0E0,0E0,2.3344727E1,0E0,0E0,1.5876953E1,0E0,0E0,0E0,2.9214752E1,0E0,0E0,0E0,0E0,2.955017E1,0E0,0E0,2.7537262E1,0E0,2.5151184E1,0E0,3.379004E1,0E0,0E0,0E0,0E0,0E0,0E0,0E0,0E0,1.513945E1,0E0,0E0,0E0,2.1009521E1,4.037195E1,0E0,7.4744415E0,0E0,0E0,0E0,0E0,0E0,0E0],"parents":[2147483647,0,0,1,1,2,2,3,3,4,4,5,5,6,6,7,7,8,8,9,9,10,10,11,11,12,12,13,13,19,19,20,20,21,21,22,22,23,23,24,24,25,25,26,26,29,29,32,32,33,33,34,34,36,36,37,37,38,38,39,39,40,40,43,43,46,46,50,50,55,55,58,58,60,60,62,62,71,71,75,75,76,76,78,78],"right_children":[2,4,6,8,10,12,14,16,18,20,22,24,26,28,-1,-1,-1,-1,-1,30,32,34,36,38,40,42,44,-1,-1,46,-1,-1,48,50,52,-1,54,56,58,60,62,-1,-1,64,-1,-1,66,-1,-1,-1,68,-1,-1,-1,-1,70,-1,-1,72,-1,74,-1,76,-1,-1,-1,-1,-1,-1,-1,-1,78,-1,-1,-1,80,82,-1,84,-1,-1,-1,-1,-1,-1],"split_conditions":[-1.3587088E-2,-6.7275304E-1,9.440211E-1,-8.890843E-1,-3.603502E-1,4.5471647E-1,1.6114994E0,-1.0886877E0,-1.1402175E0,-4.776439E-1,-1.8230747E-1,1.8534032E-1,6.8512523E-1,1.5992267E-1,1.7739864E1,-1.2206291E1,-1.0284429E1,-8.389241E0,-7.4373326E0,1.1533885E0,-5.015192E-1,9.926705E-1,-7.1945304E-1,9.385779E-2,2.4326341E-1,5.701896E-1,7.908015E-1,1.5412757E1,1.2573236E1,-5.3115386E-1,-5.1770673E0,-4.208743E0,-3.2324043E-1,-1.10473E-1,3.5970384E-1,-1.8066783E0,-3.3430764E-1,-5.9987125E-3,-5.661582E-1,-3.7679005E-1,-7.5841725E-1,5.06824E0,6.0087075E0,-1.5643625E-2,8.345029E0,-7.1326647E0,-6.4488775E-1,-4.419068E0,-5.5722027E0,-2.6808054E0,-4.0146208E-1,-3.5056221E0,-2.3494623E0,-2.577511E-1,-8.4105104E-1,-3.067078E-1,-1.4528161E-1,1.803113E0,3.2315376E-1,1.3202641E0,4.5215565E-1,2.09878E0,-3.618934E-1,6.0374E0,7.4184175E0,-6.530729E0,-5.850117E0,-2.101973E0,-1.0420915E0,2.2233662E-1,1.1800709E0,2.0719637E-1,1.7423272E0,2.6009479E0,1.751476E0,-6.166071E-1,4.3963745E-2,4.1978526E-1,3.8332522E-1,4.4007106E0,3.4029675E0,2.4905164E0,3.4806943E0,1.4064255E0,8.3259183E-1],"split_indices":[3,3,3,1,3,3,3,1,33,3,41,3,0,108,0,0,0,0,0,203,26,211,16,3,126,3,3,0,0,25,0,0,107,99,173,0,174,178,153,224,29,0,0,8,0,0,120,0,0,0,95,0,0,0,0,87,0,0,7,0,87,0,64,0,0,0,0,0,0,0,0,98,0,0,0,163,108,0,175,0,0,0,0,0,0],"split_type":[0,0,0,0,0,0,0,0,0,0,0,0,0,0,0,0,0,0,0,0,0,0,0,0,0,0,0,0,0,0,0,0,0,0,0,0,0,0,0,0,0,0,0,0,0,0,0,0,0,0,0,0,0,0,0,0,0,0,0,0,0,0,0,0,0,0,0,0,0,0,0,0,0,0,0,0,0,0,0,0,0,0,0,0,0],"sum_hessian":[4.95E2,2.43E2,2.52E2,8.9E1,1.54E2,2.1E2,4.2E1,4.7E1,4.2E1,1.03E2,5.1E1,1.21E2,8.9E1,1.8E1,2.4E1,2.7E1,2E1,1.9E1,2.3E1,6.8E1,3.5E1,3E1,2.1E1,5.2E1,6.9E1,4E1,4.9E1,1.1E1,7E0,6E1,8E0,1.9E1,1.6E1,1.6E1,1.4E1,7E0,1.4E1,2.1E1,3.1E1,2.4E1,4.5E1,2.2E1,1.8E1,2.5E1,2.4E1,1E1,5E1,5E0,1.1E1,5E0,1.1E1,8E0,6E0,9E0,5E0,1.3E1,8E0,9E0,2.2E1,7E0,1.7E1,6E0,3.9E1,5E0,2E1,2.4E1,2.6E1,5E0,6E0,5E0,8E0,1.7E1,5E0,9E0,8E0,1.9E1,2E1,5E0,1.2E1,5E0,1.4E1,1E1,1E1,5E0,7E0],"tree_param":{"num_deleted":"0","num_feature":"235","num_nodes":"85","size_leaf_vector":"1"}},{"base_weights":[2.0371138E-1,-1.11410675E1,1.710995E1,-1.6428574E1,-1.3902233E0,1.1734951E1,3.741527E1,-2.6570923E1,-1.4020208E1,-5.5467305E0,6.0231435E-1,5.9795957E0,1.5639161E1,3.0172884E1,4.080391E1,-8.605296E0,-6.7973437E0,-1.6107967E1,-1.1285598E1,-7.4625487E0,-3.4729495E0,-7.9203343E-1,1.7598732E0,4.38967E0,7.204445E0,1.2768769E1,1.7712854E1,7.560879E0,9.769294E0,1.1277295E1,1.3462611E1,-5.5644293E0,-1.5294022E1,-9.813927E0,-1.2423739E1,-2.6203203E0,-1.8187165E0,-4.8821783E0,-2.4118945E-1,1.0775661E0,-1.741837E0,1.2902128E0,1.2922143E0,1.7309712E0,3.9128103E0,1.1028407E0,7.733816E0,1.3239582E1,3.0871987E0,4.1875815E0,1.821466E1,-1.5588138E1,-3.3760712E0,-3.73446E0,-9.124616E0,-3.2312586E0,-1.3191839E1,-1.721961E0,-1.1085619E0,-6.419632E-2,7.992963E-1,-2.3181615E0,4.8138615E-2,1.3191015E-1,2.0811994E0,9.288059E-1,1.5714897E0,5.7979403E0,8.850491E0,1.366809E1,3.3026733E0,4.956703E0,5.727725E0,-5.2008266E0,-1.4909059E1,-9.685686E0,-2.0052443E0,-4.0984616E0,-3.2557E0,-1.525953E0,-1.1013184E0,5.267322E-1,-3.1574345E-1,1.1725954E0,1.4304173E0,1.1975307E0,2.089319E0,2.2622826E0,2.9405193E0,4.316476E0,3.6506243E0,-1.5212613E1,-3.6204894E0,-3.0716093E0,-2.327893E0,-6.4401776E-1,-2.0692787E-1,6.1397886E-1,3.4479305E-2,-4.6673555E0,-3.6519363E0],"categories":[],"categories_nodes":[],"categories_segments":[],"categories_sizes":[],"default_left":[0,0,0,0,0,0,0,0,0,0,0,0,0,0,0,0,0,0,0,0,0,0,0,0,0,0,0,0,0,0,0,0,0,0,0,0,0,0,0,0,0,0,0,0,0,0,0,0,0,0,0,0,0,0,0,0,0,0,0,0,0,0,0,0,0,0,0,0,0,0,0,0,0,0,0,0,0,0,0,0,0,0,0,0,0,0,0,0,0,0,0,0,0,0,0,0,0,0,0,0,0],"id":1,"left_children":[1,3,5,7,9,11,13,15,17,19,21,23,25,27,29,-1,-1,31,33,35,37,39,41,43,45,47,49,-1,-1,-1,-1,-1,51,53,55,-1,-1,57,-1,59,61,63,-1,-1,65,-1,67,69,-1,-1,71,73,-1,-1,75,-1,77,-1,-1,-1,-1,79,-1,81,83,-1,-1,85,87,89,-1,-1,-1,-1,91,93,-1,-1,-1,95,-1,-1,-1,-1,97,-1,-1,-1,-1,-1,-1,99,-1,-1,-1,-1,-1,-1,-1,-1,-1],"loss_changes":[9.842599E4,1.5824906E4,2.2439793E4,4.818828E3,8.9700586E2,3.649787E3,9.3183594E2,2.4804688E2,8.9572266E2,1.3372864E2,1.18385284E2,1.2234741E2,5.4924414E2,8.245801E1,2.12125E2,0E0,0E0,1.4862695E2,1.00100586E2,2.3164124E1,6.2077652E1,5.911712E1,4.5837646E1,1.4289917E1,6.3119385E1,2.8682617E1,7.3447266E1,0E0,0E0,0E0,0E0,0E0,5.8461914E1,4.04834E1,2.9535645E1,0E0,0E0,6.5536804E0,0E0,2.3615555E1,2.4934708E1,3.0497578E1,0E0,0E0,1.9888428E1,0E0,6.039099E1,1.1834473E1,0E0,0E0,3.648242E1,4.538086E1,0E0,0E0,2.354126E1,0E0,9.543945E0,0E0,0E0,0E0,0E0,1.626146E1,0E0,2.7555017E1,2.1794228E1,0E0,0E0,1.9780243E1,1.3459106E1,7.7353516E0,0E0,0E0,0E0,0E0,1.6234375E1,9.4835205E0,0E0,0E0,0E0,4.746765E0,0E0,0E0,0E0,0E0,1.1580572E1,0E0,0E0,0E0,0E0,0E0,0E0,2.2398438E1,0E0,0E0,0E0,0E0,0E0,0E0,0E0,0E0,0E0],"parents":[2147483647,0,0,1,1,2,2,3,3,4,4,5,5,6,6,7,7,8,8,9,9,10,10,11,11,12,12,13,13,14,14,17,17,18,18,19,19,20,20,21,21,22,22,23,23,24,24,25,25,26,26,32,32,33,33,34,34,37,37,39,39,40,40,41,41,44,44,46,46,47,47,50,50,51,51,54,54,56,56,61,61,63,63,64,64,67,67,68,68,69,69,74,74,75,75,79,79,84,84,91,91],"right_children":[2,4,6,8,10,12,14,16,18,20,22,24,26,28,30,-1,-1,32,34,36,38,40,42,44,46,48,50,-1,-1,-1,-1,-1,52,54,56,-1,-1,58,-1,60,62,64,-1,-1,66,-1,68,70,-1,-1,72,74,-1,-1,76,-1,78,-1,-1,-1,-1,80,-1,82,84,-1,-1,86,88,90,-1,-1,-1,-1,92,94,-1,-1,-1,96,-1,-1,-1,-1,98,-1,-1,-1,-1,-1,-1,100,-1,-1,-1,-1,-1,-1,-1,-1,-1],"split_conditions":[1.5634732E-1,-3.1736785E-1,8.6535716E-1,-8.577386E-1,-7.254298E-2,4.1896322E-1,1.5062467E0,-1.057326E0,-5.410989E-1,-6.4899154E-2,4.4522595E-2,2.381957E-1,6.512591E-1,-5.397917E-1,3.9853975E-1,-8.605296E0,-6.7973437E0,-7.148466E-1,6.769997E-2,4.1423547E-1,4.634129E-1,6.703473E-3,3.0675215E-1,-2.9857746E-1,1.385167E-1,1.0719498E0,-5.140196E-1,7.560879E0,9.769294E0,1.1277295E1,1.3462611E1,-5.5644293E0,-5.1541317E-1,-5.1647586E-1,-6.636656E-1,-2.6203203E0,-1.8187165E0,-6.45778E-2,-2.4118945E-1,-1.2578729E-1,8.210113E-2,6.0263555E-2,1.2922143E0,1.7309712E0,2.113921E-1,1.1028407E0,-2.2710058E-1,7.65004E-1,3.0871987E0,4.1875815E0,5.2666E-1,-4.1480651E-1,-3.3760712E0,-3.73446E0,6.0913473E-1,-3.2312586E0,1.5995442E0,-1.721961E0,-1.1085619E0,-6.419632E-2,7.992963E-1,2.6809633E-1,4.8138615E-2,-5.708838E-1,1.1658657E-1,9.288059E-1,1.5714897E0,-7.0809925E-1,-4.7385785E-1,6.92857E-1,3.3026733E0,4.956703E0,5.727725E0,-5.2008266E0,-3.7107387E-1,1.1148937E0,-2.0052443E0,-4.0984616E0,-3.2557E0,-6.719728E-2,-1.1013184E0,5.267322E-1,-3.1574345E-1,1.1725954E0,7.6443356E-1,1.1975307E0,2.089319E0,2.2622826E0,2.9405193E0,4.316476E0,3.6506243E0,1.1964915E0,-3.6204894E0,-3.0716093E0,-2.327893E0,-6.4401776E-1,-2.0692787E-1,6.1397886E-1,3.4479305E-2,-4.6673555E0,-3.6519363E0],"split_indices":[3,3,40,3,3,3,3,42,3,33,3,3,0,153,35,0,0,3,153,173,99,173,134,219,96,30,65,0,0,0,0,0,39,42,187,0,0,143,0,173,69,113,0,0,4,0,72,72,0,0,139,44,0,0,193,0,163,0,0,0,0,148,0,57,41,0,0,128,57,9,0,0,0,0,124,80,0,0,0,158,0,0,0,0,219,0,0,0,0,0,0,208,0,0,0,0,0,0,0,0,0],"split_type":[0,0,0,0,0,0,0,0,0,0,0,0,0,0,0,0,0,0,0,0,0,0,0,0,0,0,0,0,0,0,0,0,0,0,0,0,0,0,0,0,0,0,0,0,0,0,0,0,0,0,0,0,0,0,0,0,0,0,0,0,0,0,0,0,0,0,0,0,0,0,0,0,0,0,0,0,0,0,0,0,0,0,0,0,0,0,0,0,0,0,0,0,0,0,0,0,0,0,0,0,0],"sum_hessian":[5.13E2,3.07E2,2.06E2,1.99E2,1.08E2,1.63E2,4.3E1,3.8E1,1.61E2,3.5E1,7.3E1,6.6E1,9.7E1,1.4E1,2.9E1,2.4E1,1.4E1,9.1E1,7E1,1.8E1,1.7E1,3.3E1,4E1,2.9E1,3.7E1,4.1E1,5.6E1,5E0,9E0,1.7E1,1.2E1,2.2E1,6.9E1,3.1E1,3.9E1,9E0,9E0,1.1E1,6E0,1.1E1,2.2E1,3.4E1,6E0,7E0,2.2E1,5E0,3.2E1,3.4E1,7E0,7E0,4.9E1,6.4E1,5E0,6E0,2.5E1,1.3E1,2.6E1,6E0,5E0,6E0,5E0,1.7E1,5E0,1.4E1,2E1,1.4E1,8E0,1.2E1,2E1,2.8E1,6E0,1.8E1,3.1E1,1.7E1,4.7E1,2E1,5E0,2.1E1,5E0,1.1E1,6E0,6E0,8E0,5E0,1.5E1,5E0,7E0,9E0,1.1E1,1.8E1,1E1,4.2E1,5E0,1.5E1,5E0,6E0,5E0,1E1,5E0,3.7E1,5E0],"tree_param":{"num_deleted":"0","num_feature":"235","num_nodes":"101","size_leaf_vector":"1"}},{"base_weights":[-2.3813844E-1,-9.452097E0,9.046062E0,-1.2728467E1,-5.0449476E0,6.2167716E0,2.7005863E1,-1.9128222E1,-1.1100115E1,-7.701734E0,-2.6041107E0,3.1366723E0,1.1111926E1,7.0656114E0,8.734955E0,-6.122131E0,-4.88897E0,-1.2670396E1,-1.0226653E1,-8.067976E0,-1.5523733E0,-1.3968898E0,-3.7132254E0,1.0693936E0,4.176224E0,8.366596E0,1.248879E1,-1.3074258E1,-2.8312836E0,-4.2422633E0,-9.932676E0,-8.52961E0,-6.517106E0,-1.4107739E0,-6.4829165E-1,-2.5213046E0,-6.024756E0,6.1935735E-1,8.570806E-1,3.516251E0,5.797367E0,8.822423E0,1.7990528E0,4.6729608E0,1.1872264E1,-3.7262752E0,-4.5453377E0,-1.061739E1,-8.750465E0,-2.7727318E0,-2.3057115E0,-2.346929E0,-1.5792737E0,-1.92428E0,5.0014776E-1,-3.2966125E0,-3.492161E-2,-1.3091651E0,-2.2512395E0,7.9296833E-1,2.864195E-1,2.965044E0,4.9175053E0,2.0501835E0,4.8412127E0,2.252843E0,2.8184416E0,2.57019E0,1.2316817E1,-3.3966813E0,-9.8063545E0,-1.7385488E0,-2.8096414E0,-8.1897736E-1,-2.5765988E-1,-1.2652546E-1,3.5983834E-1,-4.180716E0,-4.2707163E-1,-2.8758368E-1,7.1711123E-1,1.3956825E0,2.599975E0,2.041292E0,4.1242094E0,1.0318489E0,1.6600894E0,3.3561392E0,3.878657E0,-3.16034E0,-2.4134085E0,-1.5787507E0,-8.861356E-1,1.0547125E0,-1.4951003E-1,2.9853997E0,3.786995E-1,8.453939E-1,1.6564307E0,1.3591163E-1,5.4756486E-1,7.578987E-1,1.0590098E0],"categories":[],"categories_nodes":[],"categories_segments":[],"categories_sizes":[],"default_left":[0,0,0,0,0,0,0,0,0,0,0,0,0,0,0,0,0,0,0,0,0,0,0,0,0,0,0,0,0,0,0,0,0,0,0,0,0,0,0,0,0,0,0,0,0,0,0,0,0,0,0,0,0,0,0,0,0,0,0,0,0,0,0,0,0,0,0,0,0,0,0,0,0,0,0,0,0,0,0,0,0,0,0,0,0,0,0,0,0,0,0,0,0,0,0,0,0,0,0,0,0,0,0],"id":2,"left_children":[1,3,5,7,9,11,13,15,17,19,21,23,25,-1,-1,-1,-1,27,29,31,-1,33,35,37,39,41,43,45,-1,-1,47,49,51,-1,53,55,57,59,-1,61,63,65,-1,-1,67,-1,-1,69,71,-1,-1,-1,-1,73,75,77,-1,-1,-1,-1,79,81,83,-1,85,-1,-1,-1,87,-1,89,-1,-1,-1,-1,-1,-1,91,-1,-1,93,-1,95,-1,97,-1,-1,-1,-1,-1,-1,-1,-1,99,-1,101,-1,-1,-1,-1,-1,-1,-1],"loss_changes":[4.4326344E4,3.7444238E3,1.3089492E4,1.5262129E3,7.1538574E2,3.3560928E3,1.8431836E2,7.11416E1,1.4519531E2,4.1239014E1,7.570526E1,2.9254993E2,3.1000195E2,0E0,0E0,0E0,0E0,3.715918E1,6.978076E1,2.3543213E1,0E0,6.7693565E1,7.888641E1,3.591054E1,9.277356E1,2.212085E1,8.532715E1,2.4729004E1,0E0,0E0,4.4402344E1,9.863281E0,1.054895E1,0E0,3.4361782E1,3.6321182E1,1.8333618E1,2.4041315E1,0E0,4.653363E1,1.9633606E1,7.09375E0,0E0,0E0,5.483789E1,0E0,0E0,1.0415039E1,4.0904053E1,0E0,0E0,0E0,0E0,8.209427E0,8.10949E0,2.2657501E1,0E0,0E0,0E0,0E0,1.7205809E1,2.5802917E1,2.1386719E1,0E0,9.32782E0,0E0,0E0,0E0,9.783691E0,0E0,1.5739014E1,0E0,0E0,0E0,0E0,0E0,0E0,9.50621E0,0E0,0E0,1.011074E1,0E0,1.8445679E1,0E0,1.997705E1,0E0,0E0,0E0,0E0,0E0,0E0,0E0,0E0,8.072416E0,0E0,4.847992E0,0E0,0E0,0E0,0E0,0E0,0E0,0E0],"parents":[2147483647,0,0,1,1,2,2,3,3,4,4,5,5,6,6,7,7,8,8,9,9,10,10,11,11,12,12,17,17,18,18,19,19,21,21,22,22,23,23,24,24,25,25,26,26,27,27,30,30,31,31,32,32,34,34,35,35,36,36,37,37,39,39,40,40,41,41,44,44,47,47,48,48,53,53,54,54,55,55,60,60,61,61,62,62,64,64,68,68,70,70,77,77,80,80,82,82,84,84,93,93,95,95],"right_children":[2,4,6,8,10,12,14,16,18,20,22,24,26,-1,-1,-1,-1,28,30,32,-1,34,36,38,40,42,44,46,-1,-1,48,50,52,-1,54,56,58,60,-1,62,64,66,-1,-1,68,-1,-1,70,72,-1,-1,-1,-1,74,76,78,-1,-1,-1,-1,80,82,84,-1,86,-1,-1,-1,88,-1,90,-1,-1,-1,-1,-1,-1,92,-1,-1,94,-1,96,-1,98,-1,-1,-1,-1,-1,-1,-1,-1,100,-1,102,-1,-1,-1,-1,-1,-1,-1],"split_conditions":[1.0104765E-3,-5.0390327E-1,9.188448E-1,-9.811198E-1,-3.1736785E-1,4.2363116E-1,1.6114994E0,3.4282878E-1,-7.0137894E-1,-3.2357743E-1,2.7546284E-1,1.5634732E-1,6.372584E-1,7.0656114E0,8.734955E0,-6.122131E0,-4.88897E0,-5.397942E-1,-2.0493195E0,6.9303125E-2,-1.5523733E0,-3.984243E-1,3.657057E-2,2.8690824E-1,3.0798244E-1,8.748997E-1,-7.9317087E-1,-6.476889E-1,-2.8312836E0,-4.2422633E0,-5.775038E-1,-3.6443524E-2,-5.8851224E-1,-1.4107739E0,2.3985304E-1,6.6307867E-1,-5.593681E-1,-2.0143302E-1,8.570806E-1,7.3380953E-1,-5.0684613E-1,-3.3525777E-1,1.7990528E0,4.6729608E0,-1.4649126E-1,-3.7262752E0,-4.5453377E0,3.590564E-2,-3.3250332E-1,-2.7727318E0,-2.3057115E0,-2.346929E0,-1.5792737E0,-3.145445E-1,3.5156673E-1,4.5542645E-1,-3.492161E-2,-1.3091651E0,-2.2512395E0,7.9296833E-1,-2.3676805E-1,-6.448427E-1,-4.200255E-1,2.0501835E0,-1.1387234E-1,2.252843E0,2.8184416E0,2.57019E0,-6.356981E-1,-3.3966813E0,-7.895913E-1,-1.7385488E0,-2.8096414E0,-8.1897736E-1,-2.5765988E-1,-1.2652546E-1,3.5983834E-1,8.180444E-1,-4.2707163E-1,-2.8758368E-1,2.0575413E-1,1.3956825E0,1.6269739E-1,2.041292E0,1.0497695E0,1.0318489E0,1.6600894E0,3.3561392E0,3.878657E0,-3.16034E0,-2.4134085E0,-1.5787507E0,-8.861356E-1,1.9287512E-1,-1.4951003E-1,4.380863E-1,3.786995E-1,8.453939E-1,1.6564307E0,1.3591163E-1,5.4756486E-1,7.578987E-1,1.0590098E0],"split_indices":[3,3,14,40,3,1,3,79,1,76,218,3,3,0,0,0,0,76,44,37,0,10,30,135,3,175,106,69,0,0,14,215,91,0,216,143,37,117,0,128,183,12,0,0,8,0,0,20,8,0,0,0,0,73,57,72,0,0,0,0,172,143,168,0,58,0,0,0,50,0,116,0,0,0,0,0,0,168,0,0,55,0,50,0,106,0,0,0,0,0,0,0,0,89,0,161,0,0,0,0,0,0,0],"split_type":[0,0,0,0,0,0,0,0,0,0,0,0,0,0,0,0,0,0,0,0,0,0,0,0,0,0,0,0,0,0,0,0,0,0,0,0,0,0,0,0,0,0,0,0,0,0,0,0,0,0,0,0,0,0,0,0,0,0,0,0,0,0,0,0,0,0,0,0,0,0,0,0,0,0,0,0,0,0,0,0,0,0,0,0,0,0,0,0,0,0,0,0,0,0,0,0,0,0,0,0,0,0,0],"sum_hessian":[5.18E2,2.6E2,2.58E2,1.49E2,1.11E2,2.23E2,3.5E1,3E1,1.19E2,5.3E1,5.8E1,1.37E2,8.6E1,1.4E1,2.1E1,2E1,1E1,4.2E1,7.7E1,4.6E1,7E0,2.8E1,3E1,4.6E1,9.1E1,2.9E1,5.7E1,3.7E1,5E0,5E0,7.2E1,3.5E1,1.1E1,5E0,2.3E1,2E1,1E1,3.7E1,9E0,6.5E1,2.6E1,2.4E1,5E0,9E0,4.8E1,2.9E1,8E0,4.5E1,2.7E1,1.8E1,1.7E1,5E0,6E0,1.1E1,1.2E1,1.5E1,5E0,5E0,5E0,5E0,3.2E1,4.7E1,1.8E1,1.2E1,1.4E1,8E0,1.6E1,6E0,4.2E1,2.3E1,2.2E1,5E0,2.2E1,6E0,5E0,5E0,7E0,1E1,5E0,8E0,2.4E1,8E0,3.9E1,5E0,1.3E1,5E0,9E0,1.6E1,2.6E1,1.5E1,7E0,5E0,5E0,1.9E1,5E0,3E1,9E0,7E0,6E0,1.1E1,8E0,1.7E1,1.3E1],"tree_param":{"num_deleted":"0","num_feature":"235","num_nodes":"103","size_leaf_vector":"1"}},{"base_weights":[-4.363625E-1,-7.4663877E0,5.5422173E0,-1.0949731E1,-5.317477E0,4.0507374E0,1.8442823E1,-1.3998872E1,-9.2731E0,-6.453197E0,-2.3386567E0,1.7859963E0,7.6018076E0,5.8252344E0,4.504974E0,-3.3807E0,-1.4452789E1,-9.719904E0,-1.7471275E0,-7.6158237E0,-5.98832E0,-3.8328831E0,-1.3600383E0,7.058012E-1,2.7045355E0,5.6386843E0,8.497205E0,-3.6546047E0,-4.54364E0,-1.1315208E1,-8.686018E0,-3.014416E0,-6.8229513E0,-6.943094E0,-5.484762E0,-2.984045E0,-1.6645741E0,-1.0598435E0,-6.4283514E-1,-1.9533025E-1,1.3719968E0,1.6368551E0,3.1828442E0,6.1347466E0,1.1502502E0,1.6525996E0,8.724587E0,-9.642036E0,-4.0911846E0,-3.0980303E0,-2.448797E0,-2.2479255E0,-1.6972237E0,-2.3658009E0,-1.8832278E0,-5.76526E0,-4.513157E0,-5.241954E-1,-1.3024586E0,-6.674012E-1,2.6463002E-1,-1.177058E0,1.0633731E0,1.7551028E0,-1.325201E-1,3.8452172E-1,2.5268414E0,2.5009725E0,3.7772627E0,5.587922E0,2.4031818E0,3.2799811E0,2.521582E0,-2.5381417E0,-3.3088138E0,-4.611267E0,-1.8720624E0,-1.1111796E0,-1.6458354E0,3.751069E-1,-3.1547055E-1,-2.3281538E-1,-8.472059E-1,3.7543979E-3,5.0128436E-1,1.0488458E0,1.3601028E0,-6.325203E-2,3.4560663E-1,1.1653881E0,5.3505456E-1,1.3423253E0,2.0210633E0,6.938483E-1,4.119849E0,1.2727703E0,1.8015676E0,-9.7234905E-1,-1.6446363E0,-4.4117147E-1,2.2588862E-1,9.084849E-1,7.916404E-1,8.1476223E-1,2.8754056E-1,1.4096448E0,1.0085338E0,3.6911112E-1,-2.0503547E-2],"categories":[],"categories_nodes":[],"categories_segments":[],"categories_sizes":[],"default_left":[0,0,0,0,0,0,0,0,0,0,0,0,0,0,0,0,0,0,0,0,0,0,0,0,0,0,0,0,0,0,0,0,0,0,0,0,0,0,0,0,0,0,0,0,0,0,0,0,0,0,0,0,0,0,0,0,0,0,0,0,0,0,0,0,0,0,0,0,0,0,0,0,0,0,0,0,0,0,0,0,0,0,0,0,0,0,0,0,0,0,0,0,0,0,0,0,0,0,0,0,0,0,0,0,0,0,0,0,0],"id":3,"left_children":[1,3,5,7,9,11,13,15,17,19,21,23,25,-1,-1,-1,27,29,-1,31,33,35,37,39,41,43,45,-1,-1,47,49,-1,51,53,55,57,-1,-1,59,61,63,65,67,69,-1,-1,71,73,-1,-1,-1,-1,-1,-1,-1,75,77,-1,-1,-1,79,81,83,85,-1,87,89,91,93,95,-1,-1,-1,-1,-1,97,-1,-1,-1,-1,-1,99,-1,-1,-1,-1,101,-1,-1,-1,-1,-1,103,-1,105,-1,-1,-1,-1,-1,-1,107,-1,-1,-1,-1,-1,-1,-1],"loss_changes":[2.1862959E4,1.7795742E3,5.3949023E3,4.4736816E2,4.969131E2,2.023188E3,6.4140625E1,1.7634766E1,8.109961E1,4.972168E1,5.79814E1,1.5163315E2,1.6389062E2,0E0,0E0,0E0,1.9544434E1,7.130615E1,0E0,4.728125E1,2.9909912E1,1.9435074E1,3.766786E1,4.3071785E1,4.045453E1,2.2572205E1,3.6876953E1,0E0,0E0,6.0343506E1,1.4137939E1,0E0,1.0455933E1,7.6588135E0,8.465454E0,1.6078407E1,0E0,0E0,2.813399E1,3.731521E1,2.9042587E1,2.8060585E1,2.034253E1,1.6785767E1,0E0,0E0,2.832959E1,5.774292E0,0E0,0E0,0E0,0E0,0E0,0E0,0E0,1.6010498E1,4.8866425E0,0E0,0E0,0E0,1.5904859E1,2.560973E1,7.851055E0,2.1566887E1,0E0,5.4015656E0,1.2840691E1,2.2912735E1,1.2200104E1,5.498047E0,0E0,0E0,0E0,0E0,0E0,1.0230743E1,0E0,0E0,0E0,0E0,0E0,1.3889762E1,0E0,0E0,0E0,0E0,1.493821E1,0E0,0E0,0E0,0E0,0E0,1.4991669E1,0E0,6.7308655E0,0E0,0E0,0E0,0E0,0E0,0E0,7.050823E0,0E0,0E0,0E0,0E0,0E0,0E0,0E0],"parents":[2147483647,0,0,1,1,2,2,3,3,4,4,5,5,6,6,7,7,8,8,9,9,10,10,11,11,12,12,16,16,17,17,19,19,20,20,21,21,22,22,23,23,24,24,25,25,26,26,29,29,30,30,32,32,33,33,34,34,35,35,38,38,39,39,40,40,41,41,42,42,43,43,46,46,47,47,55,55,56,56,60,60,61,61,62,62,63,63,65,65,66,66,67,67,68,68,69,69,75,75,81,81,86,86,92,92,94,94,101,101],"right_children":[2,4,6,8,10,12,14,16,18,20,22,24,26,-1,-1,-1,28,30,-1,32,34,36,38,40,42,44,46,-1,-1,48,50,-1,52,54,56,58,-1,-1,60,62,64,66,68,70,-1,-1,72,74,-1,-1,-1,-1,-1,-1,-1,76,78,-1,-1,-1,80,82,84,86,-1,88,90,92,94,96,-1,-1,-1,-1,-1,98,-1,-1,-1,-1,-1,100,-1,-1,-1,-1,102,-1,-1,-1,-1,-1,104,-1,106,-1,-1,-1,-1,-1,-1,108,-1,-1,-1,-1,-1,-1,-1],"split_conditions":[-7.254298E-2,-6.5395176E-1,9.188448E-1,-9.771685E-1,-3.6896816E-1,3.7515372E-1,-9.395873E-2,-9.3180674E-1,1.3873166E0,-1.5832594E-1,-3.8716266E-1,1.5634732E-1,5.7331455E-1,5.8252344E0,4.504974E0,-3.3807E0,-1.1971868E0,-4.4436276E-1,-1.7471275E0,-4.9973646E-1,-7.1972036E-1,-5.907096E-1,-3.602466E-1,2.4530888E-2,-4E-1,-1.6004318E-1,-3.0408412E-1,-3.6546047E0,-4.54364E0,7.0139253E-1,-9.2666674E-1,-3.014416E0,-2.3170269E-1,-2.7312323E-1,1.5951466E-2,9.0505856E-1,-1.6645741E0,-1.0598435E0,-7.9089326E-1,1.1067683E-2,3.8168216E-1,4.693543E-2,-6.28289E-2,8.8295954E-1,1.1502502E0,1.6525996E0,-7.8348106E-1,4.634129E-1,-4.0911846E0,-3.0980303E0,-2.448797E0,-2.2479255E0,-1.6972237E0,-2.3658009E0,-1.8832278E0,-7.158163E-1,-5.0129163E-1,-5.241954E-1,-1.3024586E0,-6.674012E-1,2.9502878E-1,3.7631515E-1,-1.3071315E-2,-4.8870823E-1,-1.325201E-1,-5.1816866E-2,-2.156467E-1,-7.568087E-1,1.818651E-1,4.1164172E-1,2.4031818E0,3.2799811E0,2.521582E0,-2.5381417E0,-3.3088138E0,-6.6734767E-1,-1.8720624E0,-1.1111796E0,-1.6458354E0,3.751069E-1,-3.1547055E-1,-7.078515E-2,-8.472059E-1,3.7543979E-3,5.0128436E-1,1.0488458E0,1.1087035E0,-6.325203E-2,3.4560663E-1,1.1653881E0,5.3505456E-1,1.3423253E0,-3.275966E-1,6.938483E-1,-2.7843526E-1,1.2727703E0,1.8015676E0,-9.7234905E-1,-1.6446363E0,-4.4117147E-1,2.2588862E-1,1.8730182E-2,7.916404E-1,8.1476223E-1,2.8754056E-1,1.4096448E0,1.0085338E0,3.6911112E-1,-2.0503547E-2],"split_indices":[3,3,14,3,14,2,203,35,57,72,209,3,2,0,0,0,160,226,0,37,10,107,123,42,228,123,25,0,0,203,41,0,225,37,37,66,0,0,65,52,103,12,101,189,0,0,106,99,0,0,0,0,0,0,0,88,199,0,0,0,72,51,193,153,0,45,216,108,0,63,0,0,0,0,0,70,0,0,0,0,0,1,0,0,0,0,153,0,0,0,0,0,57,0,183,0,0,0,0,0,0,87,0,0,0,0,0,0,0],"split_type":[0,0,0,0,0,0,0,0,0,0,0,0,0,0,0,0,0,0,0,0,0,0,0,0,0,0,0,0,0,0,0,0,0,0,0,0,0,0,0,0,0,0,0,0,0,0,0,0,0,0,0,0,0,0,0,0,0,0,0,0,0,0,0,0,0,0,0,0,0,0,0,0,0,0,0,0,0,0,0,0,0,0,0,0,0,0,0,0,0,0,0,0,0,0,0,0,0,0,0,0,0,0,0,0,0,0,0,0,0],"sum_hessian":[5.2E2,2.39E2,2.81E2,9.1E1,1.48E2,2.52E2,2.9E1,3.2E1,5.9E1,1.07E2,4.1E1,1.54E2,9.8E1,2.2E1,7E0,5E0,2.7E1,5.2E1,7E0,3E1,7.7E1,1.6E1,2.5E1,7.1E1,8.3E1,3.1E1,6.7E1,7E0,2E1,2E1,3.2E1,7E0,2.3E1,2.6E1,5.1E1,1.1E1,5E0,6E0,1.9E1,3E1,4.1E1,2.6E1,5.7E1,2.4E1,7E0,5E0,6.2E1,1.2E1,8E0,7E0,2.5E1,1.4E1,9E0,1E1,1.6E1,3.9E1,1.2E1,6E0,5E0,7E0,1.2E1,1.7E1,1.3E1,3.4E1,7E0,1.1E1,1.5E1,2.7E1,3E1,1.9E1,5E0,7E0,5.5E1,7E0,5E0,1.2E1,2.7E1,7E0,5E0,7E0,5E0,1.1E1,6E0,5E0,8E0,6E0,2.8E1,6E0,5E0,5E0,1E1,5E0,2.2E1,6E0,2.4E1,5E0,1.4E1,5E0,7E0,5E0,6E0,2.1E1,7E0,1.3E1,9E0,1.3E1,1.1E1,1.6E1,5E0],"tree_param":{"num_deleted":"0","num_feature":"235","num_nodes":"109","size_leaf_vector":"1"}},{"base_weights":[-6.665382E-2,-4.4475856E0,5.000659E0,-6.6609454E0,-2.4113119E0,3.3106067E0,1.43273E1,-9.810925E0,-5.8187943E0,-3.3512933E0,-6.5149665E-1,1.8306031E0,5.711729E0,1.3445145E1,5.8692417E0,-2.2075844E0,-3.084576E0,-6.5161185E0,-5.1062965E0,-3.6013925E0,-1.7456302E-1,-1.5030776E0,9.597203E-2,1.2963424E0,2.7928543E0,5.2740884E0,6.9377675E0,3.2276947E0,1.4012183E1,-8.504729E0,-5.9102025E0,-2.1654303E0,-4.5919237E0,-3.0195336E0,-4.7421126E0,-2.0422938E0,2.0335658E-2,-4.0758267E-1,6.253067E-1,9.3587357E-1,2.4655151E0,3.453734E0,2.0117226E0,5.7689815E0,4.1350937E0,1.804856E0,2.4527168E0,3.67349E0,4.4059067E0,-1.9870998E0,-2.9056125E0,-6.3129144E0,-8.6609155E-1,-1.772127E0,-4.3123407E0,-3.2736843E0,-4.1156712E-1,-3.8476968E0,-1.7812715E0,-3.3673766E-1,-8.704549E-1,3.171349E-2,5.291293E-1,8.387379E-1,7.658409E-1,5.1431096E-1,1.1945695E0,8.5262245E-1,1.2702448E0,1.8943974E-1,2.4173427E0,5.248353E0,1.9995828E0,1.7400286E0,3.2369797E0,-7.419754E0,-5.4809E0,-9.2301214E-1,-1.3593247E0,-2.4528506E0,-3.6796224E0,-1.3176663E0,-8.900446E-1,5.6742305E-1,4.7146142E-1,3.0775077E0,3.7061015E-1,1.4495356E0,2.0347545E0,6.2787354E-1,1.1897106E0,-1.6790544E0,-2.555068E0,-1.995484E0,-1.4470042E0,-9.355341E-1,-2.2621846E-1,-7.6439893E-1,-3.9617631E0,9.5894814E-1,-0E0,1.1835693E0,6.259165E-1,-1.4167342E0,-1.004517E0,-0E0,3.632757E-1],"categories":[],"categories_nodes":[],"categories_segments":[],"categories_sizes":[],"default_left":[0,0,0,0,0,0,0,0,0,0,0,0,0,0,0,0,0,0,0,0,0,0,0,0,0,0,0,0,0,0,0,0,0,0,0,0,0,0,0,0,0,0,0,0,0,0,0,0,0,0,0,0,0,0,0,0,0,0,0,0,0,0,0,0,0,0,0,0,0,0,0,0,0,0,0,0,0,0,0,0,0,0,0,0,0,0,0,0,0,0,0,0,0,0,0,0,0,0,0,0,0,0,0,0,0,0,0],"id":4,"left_children":[1,3,5,7,9,11,13,15,17,19,21,23,25,27,-1,-1,-1,29,31,33,-1,35,37,39,41,43,45,-1,47,49,51,-1,53,55,57,59,-1,-1,61,63,65,67,69,71,73,-1,-1,-1,-1,-1,-1,75,-1,-1,77,79,-1,81,-1,-1,-1,-1,-1,-1,83,-1,-1,-1,-1,-1,85,87,-1,-1,89,91,93,-1,-1,95,97,-1,-1,99,-1,101,-1,-1,-1,-1,-1,-1,-1,-1,-1,-1,-1,-1,103,105,-1,-1,-1,-1,-1,-1,-1],"loss_changes":[1.1591702E4,1.2580991E3,3.8062485E3,3.459297E2,2.4018939E2,7.255166E2,1.398125E2,2.1458496E1,4.6214844E1,6.4322876E1,3.29777E1,6.3724213E1,3.4939697E1,2.8011719E1,0E0,0E0,0E0,5.5158936E1,5.1439453E1,5.4125366E1,0E0,2.1043274E1,2.0721655E1,3.3314926E1,2.094754E1,2.758435E1,1.4250122E1,0E0,8.140137E0,1.6447449E1,4.547461E1,0E0,1.0561035E1,2.2428589E1,2.6312927E1,1.2782722E1,0E0,0E0,1.1292893E1,1.868142E1,1.9354042E1,8.237793E0,1.0693001E1,1.2199097E1,2.2737E1,0E0,0E0,0E0,0E0,0E0,0E0,2.5711914E1,0E0,0E0,6.4434814E0,1.3975525E1,0E0,4.810959E0,0E0,0E0,0E0,0E0,0E0,0E0,8.5568695E0,0E0,0E0,0E0,0E0,0E0,1.0831909E1,1.000647E1,0E0,0E0,7.50016E0,2.1888855E1,9.82373E0,0E0,0E0,1.8016098E1,7.598175E0,0E0,0E0,1.0665665E1,0E0,6.0872574E0,0E0,0E0,0E0,0E0,0E0,0E0,0E0,0E0,0E0,0E0,0E0,0E0,8.276703E0,6.663931E0,0E0,0E0,0E0,0E0,0E0,0E0,0E0],"parents":[2147483647,0,0,1,1,2,2,3,3,4,4,5,5,6,6,7,7,8,8,9,9,10,10,11,11,12,12,13,13,17,17,18,18,19,19,21,21,22,22,23,23,24,24,25,25,26,26,28,28,29,29,30,30,32,32,33,33,34,34,35,35,38,38,39,39,40,40,41,41,42,42,43,43,44,44,51,51,54,54,55,55,57,57,64,64,70,70,71,71,74,74,75,75,76,76,79,79,80,80,83,83,85,85,98,98,99,99],"right_children":[2,4,6,8,10,12,14,16,18,20,22,24,26,28,-1,-1,-1,30,32,34,-1,36,38,40,42,44,46,-1,48,50,52,-1,54,56,58,60,-1,-1,62,64,66,68,70,72,74,-1,-1,-1,-1,-1,-1,76,-1,-1,78,80,-1,82,-1,-1,-1,-1,-1,-1,84,-1,-1,-1,-1,-1,86,88,-1,-1,90,92,94,-1,-1,96,98,-1,-1,100,-1,102,-1,-1,-1,-1,-1,-1,-1,-1,-1,-1,-1,-1,104,106,-1,-1,-1,-1,-1,-1,-1],"split_conditions":[9.385779E-2,-5.4311967E-1,1.2840472E0,-1.0225885E0,-1.7951392E-1,4.947429E-1,1.112844E0,-1.1676764E0,-2.479456E-1,4.07966E-2,-2.945159E-1,2.9095563E-1,-1.9592528E-1,8.7876725E-1,5.8692417E0,-2.2075844E0,-3.084576E0,-6.012773E-1,-9.934592E-1,5.042228E-1,-1.7456302E-1,1.4579788E-1,-3.40236E-1,4.093509E-1,-2.1756151E-1,-2.6508397E-1,3.141369E-1,3.2276947E0,1.1029184E-1,6.5887314E-1,1.284079E0,-2.1654303E0,-1.29798E-1,3.763927E-1,-4.9345642E-1,-8.003165E-2,2.0335658E-2,-4.0758267E-1,6.5545326E-1,-3.797543E-2,9.2154026E-2,2.605546E-1,2.9961628E-1,6.9551855E-1,-5.7735586E-1,1.804856E0,2.4527168E0,3.67349E0,4.4059067E0,-1.9870998E0,-2.9056125E0,-6.463327E-1,-8.6609155E-1,-1.772127E0,-1.0595402E0,-9.551172E-2,-4.1156712E-1,-5.407676E-1,-1.7812715E0,-3.3673766E-1,-8.704549E-1,3.171349E-2,5.291293E-1,8.387379E-1,3.63019E-1,5.1431096E-1,1.1945695E0,8.5262245E-1,1.2702448E0,1.8943974E-1,4.9441966E-1,-6.387669E-2,1.9995828E0,1.7400286E0,-4.338909E-1,-7.144767E-1,-3.0047836E-2,-9.2301214E-1,-1.3593247E0,1.7797654E-2,-2.1577002E-1,-1.3176663E0,-8.900446E-1,-1.5105657E-1,4.7146142E-1,5.59748E-1,3.7061015E-1,1.4495356E0,2.0347545E0,6.2787354E-1,1.1897106E0,-1.6790544E0,-2.555068E0,-1.995484E0,-1.4470042E0,-9.355341E-1,-2.2621846E-1,-7.6439893E-1,-1.6851367E-2,-5.5965215E-1,-0E0,1.1835693E0,6.259165E-1,-1.4167342E0,-1.004517E0,-0E0,3.632757E-1],"split_indices":[3,2,3,1,2,3,32,171,24,88,210,3,178,141,0,0,0,114,74,208,0,18,221,17,213,203,79,0,28,198,153,0,168,208,26,164,0,0,188,98,23,107,39,40,57,0,0,0,0,0,0,60,0,0,157,138,0,27,0,0,0,0,0,0,212,0,0,0,0,0,9,168,0,0,153,68,178,0,0,153,148,0,0,158,0,37,0,0,0,0,0,0,0,0,0,0,0,0,113,71,0,0,0,0,0,0,0],"split_type":[0,0,0,0,0,0,0,0,0,0,0,0,0,0,0,0,0,0,0,0,0,0,0,0,0,0,0,0,0,0,0,0,0,0,0,0,0,0,0,0,0,0,0,0,0,0,0,0,0,0,0,0,0,0,0,0,0,0,0,0,0,0,0,0,0,0,0,0,0,0,0,0,0,0,0,0,0,0,0,0,0,0,0,0,0,0,0,0,0,0,0,0,0,0,0,0,0,0,0,0,0,0,0,0,0,0,0],"sum_hessian":[5.22E2,2.8E2,2.42E2,1.34E2,1.46E2,2.05E2,3.7E1,2.8E1,1.06E2,9.5E1,5.1E1,1.27E2,7.8E1,3.2E1,5E0,5E0,2.3E1,5.3E1,5.3E1,8.7E1,8E0,2.4E1,2.7E1,8.2E1,4.5E1,5.8E1,2E1,6E0,2.6E1,1.2E1,4.1E1,1E1,4.3E1,5.8E1,2.9E1,1.8E1,6E0,7E0,2E1,6.3E1,1.9E1,2.4E1,2.1E1,4E1,1.8E1,1.2E1,8E0,8E0,1.8E1,5E0,7E0,3.6E1,5E0,7E0,3.6E1,5E1,8E0,1.7E1,1.2E1,9E0,9E0,1.4E1,6E0,5E0,5.8E1,1.3E1,6E0,1.4E1,1E1,5E0,1.6E1,2.6E1,1.4E1,6E0,1.2E1,1.5E1,2.1E1,6E0,3E1,1.7E1,3.3E1,1E1,7E0,4.7E1,1.1E1,1E1,6E0,2.1E1,5E0,5E0,7E0,6E0,9E0,7E0,1.4E1,1.2E1,5E0,7E0,2.6E1,2.8E1,1.9E1,5E0,5E0,1.1E1,1.5E1,6E0,2.2E1],"tree_param":{"num_deleted":"0","num_feature":"235","num_nodes":"107","size_leaf_vector":"1"}},{"base_weights":[-2.0920244E-1,-3.8322012E0,2.9436862E0,-5.1092114E0,-2.651402E0,1.9400952E0,9.25561E0,-6.4172373E0,-4.2989206E0,-3.140115E0,-1.5068532E0,9.015127E-1,3.7602832E0,1.0087251E1,1.6328999E0,-6.8554616E0,-1.3044136E0,-3.935113E0,-5.751165E0,-3.2954857E0,-1.4566594E-1,-0E0,-2.0487146E0,-7.0839524E-2,1.2032632E0,4.9136493E-2,3.9752839E0,9.015108E0,3.7635267E0,-2.3364363E0,-1.6829922E0,-4.165634E0,-4.1944188E-1,-2.0967762E0,-1.0065871E0,-3.049411E0,-1.568487E0,-2.3081501E-1,2.395847E-1,-2.4104748E0,-9.270263E-2,1.2095031E-1,-1.1733781E0,1.630723E0,7.3020655E-1,4.1315503E0,5.732056E-1,2.0811043E0,9.730109E0,-9.9692297E-1,-4.543436E0,-1.3620747E0,-2.9070938E0,-9.291185E-1,-4.3766928E-1,-5.401174E-2,-5.794107E-1,1.7819082E0,-3.517067E-4,1.9493343E0,4.5519465E-1,3.386864E0,4.5289183E0,3.1181843E0,2.4027648E0,-4.768396E0,-9.076206E-1,-3.284382E0,-2.4107852E0,8.460946E-1,1.5707278E0,8.305023E-1,3.087515E-1,3.1606503E-2,1.6710104E0,1.3803345E0,2.7397964E0,9.213346E-1,1.413014E0,-1.098061E0,-5.1232533E0,-3.766742E0,-2.585159E0,-1.8890395E0,-9.429878E-1,1.268661E0,6.733787E-1,2.1959108E-1,7.5431424E-1,1.0118744E0,2.9593903E-1,-1.6547376E0,-1.159806E0,-8.591879E-1,-1.2690475E0,-4.713298E-1,-9.411284E-1,-8.1640136E-1,-4.2776653E-1,1.7121582E-1,4.9356773E-1],"categories":[],"categories_nodes":[],"categories_segments":[],"categories_sizes":[],"default_left":[0,0,0,0,0,0,0,0,0,0,0,0,0,0,0,0,0,0,0,0,0,0,0,0,0,0,0,0,0,0,0,0,0,0,0,0,0,0,0,0,0,0,0,0,0,0,0,0,0,0,0,0,0,0,0,0,0,0,0,0,0,0,0,0,0,0,0,0,0,0,0,0,0,0,0,0,0,0,0,0,0,0,0,0,0,0,0,0,0,0,0,0,0,0,0,0,0,0,0,0,0],"id":5,"left_children":[1,3,5,7,9,11,13,15,17,19,21,23,25,27,-1,29,-1,31,33,35,-1,37,39,41,43,-1,45,47,-1,-1,-1,49,-1,-1,-1,51,-1,-1,-1,53,-1,-1,55,57,59,61,-1,-1,63,-1,65,-1,67,-1,-1,-1,-1,69,-1,71,73,75,77,-1,-1,79,-1,81,83,-1,85,-1,-1,-1,87,-1,89,-1,-1,-1,91,93,95,97,-1,99,-1,-1,-1,-1,-1,-1,-1,-1,-1,-1,-1,-1,-1,-1,-1],"loss_changes":[5.9420947E3,3.614253E2,1.7564695E3,1.1730737E2,6.8645935E1,4.5208545E2,1.1090918E2,3.375952E1,3.310022E1,3.497638E1,3.1400368E1,4.5284706E1,6.5955444E1,6.624658E1,0E0,3.4229614E1,0E0,3.1672546E1,3.6793915E1,3.571216E1,0E0,6.272147E0,1.6738228E1,1.916962E1,2.282219E1,0E0,2.3850464E1,2.1656006E1,0E0,0E0,0E0,1.3009399E1,0E0,0E0,0E0,1.2312317E1,0E0,0E0,0E0,1.3319229E1,0E0,0E0,7.6733074E0,1.5639389E1,1.7961237E1,1.8704468E1,0E0,0E0,5.840332E0,0E0,8.583679E0,0E0,1.0268188E1,0E0,0E0,0E0,0E0,1.0579285E1,0E0,6.173786E0,1.9009243E1,1.80112E1,9.769897E0,0E0,0E0,7.7802734E0,0E0,1.0002411E1,9.473297E0,0E0,8.275276E0,0E0,0E0,0E0,6.821945E0,0E0,1.855867E1,0E0,0E0,0E0,6.809021E0,6.044403E0,7.143936E0,5.320793E0,0E0,7.9584427E0,0E0,0E0,0E0,0E0,0E0,0E0,0E0,0E0,0E0,0E0,0E0,0E0,0E0,0E0,0E0],"parents":[2147483647,0,0,1,1,2,2,3,3,4,4,5,5,6,6,7,7,8,8,9,9,10,10,11,11,12,12,13,13,15,15,17,17,18,18,19,19,21,21,22,22,23,23,24,24,26,26,27,27,31,31,35,35,39,39,42,42,43,43,44,44,45,45,48,48,50,50,52,52,57,57,59,59,60,60,61,61,62,62,65,65,67,67,68,68,70,70,74,74,76,76,80,80,81,81,82,82,83,83,85,85],"right_children":[2,4,6,8,10,12,14,16,18,20,22,24,26,28,-1,30,-1,32,34,36,-1,38,40,42,44,-1,46,48,-1,-1,-1,50,-1,-1,-1,52,-1,-1,-1,54,-1,-1,56,58,60,62,-1,-1,64,-1,66,-1,68,-1,-1,-1,-1,70,-1,72,74,76,78,-1,-1,80,-1,82,84,-1,86,-1,-1,-1,88,-1,90,-1,-1,-1,92,94,96,98,-1,100,-1,-1,-1,-1,-1,-1,-1,-1,-1,-1,-1,-1,-1,-1,-1],"split_conditions":[-9.644793E-2,-5.925532E-1,9.201374E-1,-8.9365315E-1,-3.0756742E-1,4.397454E-1,-5.814999E-2,9.3189394E-1,-5.869078E-1,2.2047721E-1,-4.9807426E-1,8.501516E-2,-8.452677E-1,-1.523464E-1,1.6328999E0,-2.766184E-1,-1.3044136E0,-5.2173185E-1,4.6670908E-1,2.8700497E-2,-1.4566594E-1,-4.9430776E-1,1.1493751E0,3.8879864E-2,-2.7689937E-1,4.9136493E-2,1.0736303E0,-7.63014E-1,3.7635267E0,-2.3364363E0,-1.6829922E0,2.6444266E-2,-4.1944188E-1,-2.0967762E0,-1.0065871E0,-8.880539E-1,-1.568487E0,-2.3081501E-1,2.395847E-1,1.5901676E-1,-9.270263E-2,1.2095031E-1,-7.8298725E-2,1.0379609E0,-1.1921202E-1,-1.2871447E-1,5.732056E-1,2.0811043E0,2.1005969E-1,-9.9692297E-1,9.1822547E-1,-1.3620747E0,2.2678101E-1,-9.291185E-1,-4.3766928E-1,-5.401174E-2,-5.794107E-1,-7.037591E-1,-3.517067E-4,0E0,8.198863E-1,-3.6664137E-1,3.373083E-1,3.1181843E0,2.4027648E0,-6.062018E-1,-9.076206E-1,-4.3852618E-1,2.5190568E-1,8.460946E-1,4.2561194E-1,8.305023E-1,3.087515E-1,3.1606503E-2,2.8893295E-1,1.3803345E0,7.327657E-1,9.213346E-1,1.413014E0,-1.098061E0,1E0,-2.7322394E-1,-5.9225583E-1,-6.581574E-2,-9.429878E-1,4.2752525E-1,6.733787E-1,2.1959108E-1,7.5431424E-1,1.0118744E0,2.9593903E-1,-1.6547376E0,-1.159806E0,-8.591879E-1,-1.2690475E0,-4.713298E-1,-9.411284E-1,-8.1640136E-1,-4.2776653E-1,1.7121582E-1,4.9356773E-1],"split_indices":[2,3,0,2,3,1,85,12,39,170,111,3,58,143,0,8,0,74,73,31,0,97,45,1,208,0,86,123,0,0,0,64,0,0,0,59,0,0,0,51,0,0,128,31,102,58,0,0,51,0,50,0,163,0,0,0,0,99,0,227,203,72,26,0,0,205,0,46,4,0,58,0,0,0,119,0,18,0,0,0,227,57,112,86,0,179,0,0,0,0,0,0,0,0,0,0,0,0,0,0,0],"split_type":[0,0,0,0,0,0,0,0,0,0,0,0,0,0,0,0,0,0,0,0,0,0,0,0,0,0,0,0,0,0,0,0,0,0,0,0,0,0,0,0,0,0,0,0,0,0,0,0,0,0,0,0,0,0,0,0,0,0,0,0,0,0,0,0,0,0,0,0,0,0,0,0,0,0,0,0,0,0,0,0,0,0,0,0,0,0,0,0,0,0,0,0,0,0,0,0,0,0,0,0,0],"sum_hessian":[5.2E2,2.42E2,2.78E2,1.16E2,1.26E2,2.4E2,3.8E1,4.4E1,7.2E1,8.8E1,3.8E1,1.53E2,8.7E1,3.1E1,7E0,3.6E1,8E0,5.8E1,1.4E1,8.3E1,5E0,1E1,2.8E1,3.6E1,1.17E2,5E0,8.2E1,2.2E1,9E0,2E1,1.6E1,5.3E1,5E0,9E0,5E0,7.4E1,9E0,5E0,5E0,2.3E1,5E0,2.5E1,1.1E1,6.1E1,5.6E1,7.6E1,6E0,6E0,1.6E1,1.7E1,3.6E1,6E0,6.8E1,1.3E1,1E1,5E0,6E0,5.6E1,5E0,1E1,4.6E1,2.7E1,4.9E1,1.1E1,5E0,3.1E1,5E0,3.8E1,3E1,9E0,4.7E1,5E0,5E0,3.6E1,1E1,9E0,1.8E1,6E0,4.3E1,8E0,2.3E1,2.2E1,1.6E1,1.8E1,1.2E1,3.3E1,1.4E1,5E0,5E0,1.3E1,5E0,1.7E1,6E0,8E0,1.4E1,6E0,1E1,6E0,1.2E1,1.2E1,2.1E1],"tree_param":{"num_deleted":"0","num_feature":"235","num_nodes":"101","size_leaf_vector":"1"}},{"base_weights":[-2.4372488E-2,-2.4538887E0,2.3167944E0,-3.7480392E0,-1.6563704E0,1.5103716E0,6.550694E0,-4.879951E0,-3.189366E0,-2.2221873E0,-5.499293E-1,8.1191015E-1,2.8239431E0,7.101513E0,7.72358E-1,-1.7877382E0,-4.3762655E0,-3.773183E0,-2.1755064E0,-2.0899172E0,-1.3689805E0,-8.74404E-1,7.001562E-1,7.094313E-1,1.023873E0,2.1311781E0,3.1737864E0,6.6063175E0,2.9508524E0,-1.4524056E0,-9.256594E-1,-2.9090264E0,-4.7456083E0,-6.3030445E-3,-8.246665E-1,-8.957455E-1,-2.276515E0,-5.812963E-1,-6.0733724E-1,7.203327E-1,6.1116385E-1,1.5119033E0,8.605319E-1,3.4219873E0,6.5244234E-1,5.499172E0,7.2036824E0,-1.0010538E0,-6.403566E-1,-1.843273E0,-3.9770913E0,-6.312877E-2,-5.7127017E-1,-2.0173542E0,-1.0117713E0,5.1088366E-3,-1.2865332E0,1.1672361E0,3.3830407E-1,1.9644132E-1,6.90355E-1,8.5537946E-1,3.956269E0,1.2007402E0,1.9816055E0,2.409993E0,1.8469006E0,-1.4422245E0,-9.08002E-1,-2.3903263E0,-9.986514E-1,-4.064147E-1,2.4266951E-1,-5.55023E-1,-1.2569939E-1,1.8881831E0,5.8438843E-1,-5.8999076E-2,7.519664E-1,7.031876E-1,1.3449798E0,-2.1708028E0,-1.0752941E0,-0E0,-4.1393295E-1,7.248526E-2,-3.005836E-1,8.735304E-1,3.044256E-1,-8.419243E-3,2.9909903E-1,-3.7852532E-1,1.7326784E-1,-0E0,3.125267E-1,-5.628071E-1,-8.737401E-1,-0E0,-4.143396E-1,2.6340976E-1,-2.5091547E-1],"categories":[],"categories_nodes":[],"categories_segments":[],"categories_sizes":[],"default_left":[0,0,0,0,0,0,0,0,0,0,0,0,0,0,0,0,0,0,0,0,0,0,0,0,0,0,0,0,0,0,0,0,0,0,0,0,0,0,0,0,0,0,0,0,0,0,0,0,0,0,0,0,0,0,0,0,0,0,0,0,0,0,0,0,0,0,0,0,0,0,0,0,0,0,0,0,0,0,0,0,0,0,0,0,0,0,0,0,0,0,0,0,0,0,0,0,0,0,0,0,0],"id":6,"left_children":[1,3,5,7,9,11,13,15,17,19,21,23,25,27,-1,-1,29,31,33,35,-1,37,-1,39,-1,41,43,45,-1,-1,-1,47,49,-1,-1,51,53,55,-1,-1,57,59,-1,61,-1,63,65,-1,-1,-1,67,-1,-1,69,-1,71,73,75,77,-1,-1,-1,79,-1,-1,-1,-1,-1,-1,81,83,85,-1,-1,-1,87,89,91,93,-1,-1,95,-1,-1,-1,-1,-1,-1,-1,-1,-1,97,-1,99,-1,-1,-1,-1,-1,-1,-1],"loss_changes":[2.80513E3,2.476117E2,8.538766E2,5.435315E1,9.297119E1,1.9231189E2,8.3072876E1,1.1015564E1,3.416205E1,2.7855377E1,4.7567062E1,3.536474E1,1.5453003E1,3.7098877E1,0E0,0E0,9.035736E0,2.9244751E1,2.7851265E1,1.9780975E1,0E0,1.4647747E1,0E0,2.1089203E1,0E0,9.76265E0,9.467651E0,1.2529785E1,0E0,0E0,0E0,4.696533E0,1.429834E1,0E0,0E0,8.355998E0,2.0856995E1,1.5745912E1,0E0,0E0,1.8616753E1,8.489269E0,0E0,8.39682E0,0E0,1.2839996E1,7.9990845E0,0E0,0E0,0E0,5.8505096E0,0E0,0E0,2.3826416E1,0E0,6.8107667E0,7.5998173E0,1.6381458E1,1.420847E1,0E0,0E0,0E0,1.3338898E1,0E0,0E0,0E0,0E0,0E0,0E0,1.0174591E1,6.95603E0,5.3299875E0,0E0,0E0,0E0,1.4708298E1,6.169422E0,8.730656E0,8.960302E0,0E0,0E0,6.9551544E0,0E0,0E0,0E0,0E0,0E0,0E0,0E0,0E0,0E0,1.1303559E1,0E0,8.9753895E0,0E0,0E0,0E0,0E0,0E0,0E0,0E0],"parents":[2147483647,0,0,1,1,2,2,3,3,4,4,5,5,6,6,7,7,8,8,9,9,10,10,11,11,12,12,13,13,16,16,17,17,18,18,19,19,21,21,23,23,25,25,26,26,27,27,31,31,32,32,35,35,36,36,37,37,40,40,41,41,43,43,45,45,46,46,50,50,53,53,55,55,56,56,57,57,58,58,62,62,69,69,70,70,71,71,75,75,76,76,77,77,78,78,81,81,91,91,93,93],"right_children":[2,4,6,8,10,12,14,16,18,20,22,24,26,28,-1,-1,30,32,34,36,-1,38,-1,40,-1,42,44,46,-1,-1,-1,48,50,-1,-1,52,54,56,-1,-1,58,60,-1,62,-1,64,66,-1,-1,-1,68,-1,-1,70,-1,72,74,76,78,-1,-1,-1,80,-1,-1,-1,-1,-1,-1,82,84,86,-1,-1,-1,88,90,92,94,-1,-1,96,-1,-1,-1,-1,-1,-1,-1,-1,-1,98,-1,100,-1,-1,-1,-1,-1,-1,-1],"split_conditions":[-2.0351836E-2,-6.298881E-1,8.690469E-1,-9.8409367E-1,-3.0756742E-1,5.2120805E-1,1.9816573E0,-5.016272E-1,5.8420444E-1,2.4516329E-1,1.6935315E0,9.211628E-1,-6.072288E-1,5.2719456E-1,7.72358E-1,-1.7877382E0,-9.916598E-1,-3.1892064E-1,-7.0162225E-1,-6.829209E-1,-1.3689805E0,1.878339E-1,7.001562E-1,-8.117576E-1,1.023873E0,8.1837916E-1,6.1748636E-1,-5.8924186E-1,2.9508524E0,-1.4524056E0,-9.256594E-1,5E-1,3.9201894E-1,-6.3030445E-3,-8.246665E-1,1.1026405E0,5.4899406E-1,9.4514236E-2,-6.0733724E-1,7.203327E-1,-3.2815197E-1,-3.9096954E-1,8.605319E-1,5.6785893E-1,6.5244234E-1,1.6950874E0,1.2287729E0,-1.0010538E0,-6.403566E-1,-1.843273E0,5.6989497E-1,-6.312877E-2,-5.7127017E-1,1.997901E-1,-1.0117713E0,-2.3661155E-1,6.0922325E-1,2.0475304E-1,1.260659E-3,1.9644132E-1,6.90355E-1,8.5537946E-1,-4.4722903E-1,1.2007402E0,1.9816055E0,2.409993E0,1.8469006E0,-1.4422245E0,-9.08002E-1,-4.2042777E-1,-2.0447862E-1,-1.34441E-1,2.4266951E-1,-5.55023E-1,-1.2569939E-1,1.8890017E-1,-4.9567682E-1,2.8415224E-1,8.210113E-2,7.031876E-1,1.3449798E0,-5.924495E-1,-1.0752941E0,-0E0,-4.1393295E-1,7.248526E-2,-3.005836E-1,8.735304E-1,3.044256E-1,-8.419243E-3,2.9909903E-1,6.9002044E-1,1.7326784E-1,-7.5888904E-3,3.125267E-1,-5.628071E-1,-8.737401E-1,-0E0,-4.143396E-1,2.6340976E-1,-2.5091547E-1],"split_indices":[3,3,1,48,3,3,124,17,148,204,57,151,168,153,0,0,141,30,129,5,0,157,0,148,0,169,10,99,0,0,0,227,133,0,0,57,4,94,0,0,213,148,0,140,0,18,6,0,0,0,50,0,0,59,0,108,94,81,209,0,0,0,59,0,0,0,0,0,0,82,118,211,0,0,0,33,148,57,69,0,0,182,0,0,0,0,0,0,0,0,0,163,0,38,0,0,0,0,0,0,0],"split_type":[0,0,0,0,0,0,0,0,0,0,0,0,0,0,0,0,0,0,0,0,0,0,0,0,0,0,0,0,0,0,0,0,0,0,0,0,0,0,0,0,0,0,0,0,0,0,0,0,0,0,0,0,0,0,0,0,0,0,0,0,0,0,0,0,0,0,0,0,0,0,0,0,0,0,0,0,0,0,0,0,0,0,0,0,0,0,0,0,0,0,0,0,0,0,0,0,0,0,0,0,0],"sum_hessian":[4.93E2,2.42E2,2.51E2,9.2E1,1.5E2,2.11E2,4E1,3E1,6.2E1,9.9E1,5.1E1,1.38E2,7.3E1,3.5E1,5E0,9E0,2.1E1,3.9E1,2.3E1,9.4E1,5E0,4.6E1,5E0,1.33E2,5E0,2.5E1,4.8E1,3E1,5E0,1.5E1,6E0,2.1E1,1.8E1,5E0,1.8E1,1.3E1,8.1E1,3.7E1,9E0,7E0,1.26E2,1.4E1,1.1E1,3.8E1,1E1,1.1E1,1.9E1,1.3E1,8E0,6E0,1.2E1,8E0,5E0,6.6E1,1.5E1,2E1,1.7E1,4.1E1,8.5E1,7E0,7E0,1.9E1,1.9E1,5E0,6E0,1E1,9E0,6E0,6E0,4.8E1,1.8E1,1.3E1,7E0,1E1,7E0,1.8E1,2.3E1,4.3E1,4.2E1,5E0,1.4E1,4.1E1,7E0,5E0,1.3E1,6E0,7E0,8E0,1E1,9E0,1.4E1,2.9E1,1.4E1,1.2E1,3E1,3E1,1.1E1,2.1E1,8E0,6E0,6E0],"tree_param":{"num_deleted":"0","num_feature":"235","num_nodes":"101","size_leaf_vector":"1"}},{"base_weights":[-4.299767E-2,-1.6974704E0,1.749151E0,-2.5658586E0,-9.6134895E-1,1.266609E0,5.4563127E0,-3.2377598E0,-2.2499995E0,-1.0902545E0,4.0092203E-1,8.023217E-1,1.864483E0,4.8575225E0,2.4734256E0,-1.3906457E0,-2.9283695E0,-3.3540478E0,-1.9216934E0,-1.396425E0,-7.3308516E-1,1.8745484E-2,9.839562E-1,1.7500945E0,1.1779668E0,1.104873E0,1.6389973E0,-1.1497164E0,-2.523788E0,-2.4928415E0,-1.4556125E0,-1.1601263E0,-1.7593743E0,-1.2603309E0,-9.785404E-1,-4.893198E-1,-1.7302785E0,2.7774787E-1,-5.8528E-2,8.307606E-1,1.8170319E0,2.055338E0,9.120894E-1,-5.387661E-1,-8.761072E-1,-1.0937788E0,-5.087431E-1,-1.9562677E0,-1.5395942E-1,-1.4690802E0,5.654725E-2,-6.650885E-1,1.4975469E-1,-2.0341301E-1,-8.61944E-1,4.259119E-1,1.177005E0,9.7488E-1,2.7038196E-1,2.9004604E-1,2.2509215E0,1.3356658E0,-2.3864886E-1,-1.6250768E-1,-2.0901172E0,-1.0108978E0,-1.8862001E0,-8.667419E-1,4.5319226E-2,3.7496746E-1,8.231536E-2,1.5299288E0,3.7522388E-1,2.0731716E0,1.0441409E0,1.7152871E-1,5.6113064E-1,-9.867653E-1,-1.9433368E0,-1.2563464E-4,-1.347258E0,-1.4906431E0,-9.1487134E-1,-6.1650395E-1,-6.717888E-1,8.899582E-2,-2.1467744E-1,2.8258598E-1,5.9730905E-1,-1.4577033E-2,3.811825E-1,2.3960326E0,1.3182037E0,-4.0211818E-1,-7.203391E-1,-7.655236E-2,-5.1236683E-1,-3.1999284E-1,-6.5572983E-1,-1.2391096E-1,-4.2713076E-1,8.867803E-1,6.026947E-1,6.6312635E-1,1.7140342E-1],"categories":[],"categories_nodes":[],"categories_segments":[],"categories_sizes":[],"default_left":[0,0,0,0,0,0,0,0,0,0,0,0,0,0,0,0,0,0,0,0,0,0,0,0,0,0,0,0,0,0,0,0,0,0,0,0,0,0,0,0,0,0,0,0,0,0,0,0,0,0,0,0,0,0,0,0,0,0,0,0,0,0,0,0,0,0,0,0,0,0,0,0,0,0,0,0,0,0,0,0,0,0,0,0,0,0,0,0,0,0,0,0,0,0,0,0,0,0,0,0,0,0,0,0,0],"id":7,"left_children":[1,3,5,7,9,11,13,15,17,19,-1,21,23,25,-1,-1,27,29,31,33,35,37,39,41,-1,-1,-1,-1,43,45,-1,-1,47,49,-1,51,53,-1,-1,55,57,59,61,-1,-1,-1,-1,63,-1,65,-1,67,-1,-1,-1,69,71,-1,-1,-1,73,75,-1,-1,77,79,81,83,-1,-1,85,87,89,91,-1,-1,-1,-1,93,-1,95,97,-1,-1,99,-1,-1,-1,-1,-1,-1,101,103,-1,-1,-1,-1,-1,-1,-1,-1,-1,-1,-1,-1],"loss_changes":[1.6194025E3,1.8026471E2,4.6610632E2,2.5245667E1,4.572513E1,6.3446167E1,4.2935974E1,1.4309692E1,3.0066193E1,1.52092285E1,0E0,1.8334572E1,2.152835E1,1.3409058E1,0E0,0E0,9.712067E0,2.2687805E1,1.951825E1,1.8090118E1,1.5770145E1,5.129953E0,1.2566933E1,2.3473297E1,0E0,0E0,0E0,0E0,5.0596313E0,9.817551E0,0E0,0E0,1.4840027E1,2.254029E1,0E0,9.659154E0,1.44830475E1,0E0,0E0,1.2073753E1,1.9571064E1,1.3688202E1,1.9141613E1,0E0,0E0,0E0,0E0,9.487244E0,0E0,1.1162796E1,0E0,7.9908504E0,0E0,0E0,0E0,1.1509704E1,1.29496E1,0E0,0E0,0E0,1.0593872E1,7.7810783E0,0E0,0E0,6.6470947E0,1.013431E1,1.3458336E1,7.8600407E0,0E0,0E0,5.048142E0,7.9141235E0,6.1345377E0,1.1245148E1,0E0,0E0,0E0,0E0,1.103923E1,0E0,8.494419E0,6.164509E0,0E0,0E0,5.8034487E0,0E0,0E0,0E0,0E0,0E0,0E0,5.73407E0,9.751953E0,0E0,0E0,0E0,0E0,0E0,0E0,0E0,0E0,0E0,0E0,0E0,0E0],"parents":[2147483647,0,0,1,1,2,2,3,3,4,4,5,5,6,6,7,7,8,8,9,9,11,11,12,12,13,13,16,16,17,17,18,18,19,19,20,20,21,21,22,22,23,23,28,28,29,29,32,32,33,33,35,35,36,36,39,39,40,40,41,41,42,42,47,47,49,49,51,51,55,55,56,56,60,60,61,61,64,64,65,65,66,66,67,67,70,70,71,71,72,72,73,73,78,78,80,80,81,81,84,84,91,91,92,92],"right_children":[2,4,6,8,10,12,14,16,18,20,-1,22,24,26,-1,-1,28,30,32,34,36,38,40,42,-1,-1,-1,-1,44,46,-1,-1,48,50,-1,52,54,-1,-1,56,58,60,62,-1,-1,-1,-1,64,-1,66,-1,68,-1,-1,-1,70,72,-1,-1,-1,74,76,-1,-1,78,80,82,84,-1,-1,86,88,90,92,-1,-1,-1,-1,94,-1,96,98,-1,-1,100,-1,-1,-1,-1,-1,-1,102,104,-1,-1,-1,-1,-1,-1,-1,-1,-1,-1,-1,-1],"split_conditions":[2.7495574E-2,-5.944222E-1,1.3173472E0,-9.149934E-1,1.6223043E0,4.2345032E-1,1.7991307E0,-6.499012E-1,4.7979508E-2,-3.6075243E-1,4.0092203E-1,-6.420397E-1,5.132896E-1,-3.531952E-1,2.4734256E0,-1.3906457E0,8.113496E-2,3.2448807E-1,-1.8470212E0,1.6416187E0,5.8478028E-2,-2.9220715E-1,5.288567E-1,-2.8447732E-1,1.1779668E0,1.104873E0,1.6389973E0,-1.1497164E0,2.6963577E-1,-6.815876E-1,-1.4556125E0,-1.1601263E0,7.712037E-1,1.163384E0,-9.785404E-1,7.221273E-1,2.9106706E-1,2.7774787E-1,-5.8528E-2,2.320889E-1,2.7512246E-1,-5.2489394E-1,9.212731E-1,-5.387661E-1,-8.761072E-1,-1.0937788E0,-5.087431E-1,-7.7749836E-1,-1.5395942E-1,5.1986612E-2,5.654725E-2,5.409034E-1,1.4975469E-1,-2.0341301E-1,-8.61944E-1,-1.7851605E-1,3.7553263E-1,9.7488E-1,2.7038196E-1,2.9004604E-1,2.8394806E-1,6.2119804E-2,-2.3864886E-1,-1.6250768E-1,-1.8184462E-1,-5.635544E-1,-4.030095E-1,-2.355089E-1,4.5319226E-2,3.7496746E-1,2.055814E-1,-3.1488863E-1,5.061588E-1,-4.2844048E-1,1.0441409E0,1.7152871E-1,5.6113064E-1,-9.867653E-1,4.6289062E-1,-1.2563464E-4,-4.876531E-1,-4.8217022E-1,-9.1487134E-1,-6.1650395E-1,1.1722609E0,8.899582E-2,-2.1467744E-1,2.8258598E-1,5.9730905E-1,-1.4577033E-2,3.811825E-1,-5.5563927E-1,-5.3112173E-1,-4.0211818E-1,-7.203391E-1,-7.655236E-2,-5.1236683E-1,-3.1999284E-1,-6.5572983E-1,-1.2391096E-1,-4.2713076E-1,8.867803E-1,6.026947E-1,6.6312635E-1,1.7140342E-1],"split_indices":[41,14,1,47,208,2,1,51,153,42,0,210,225,79,0,0,133,73,17,173,30,213,215,173,0,0,0,0,198,73,0,0,215,163,0,85,193,0,0,110,210,13,11,0,0,0,0,212,0,158,0,34,0,0,0,124,74,0,0,0,64,72,0,0,43,33,74,36,0,0,61,198,18,50,0,0,0,0,85,0,12,41,0,0,203,0,0,0,0,0,0,128,85,0,0,0,0,0,0,0,0,0,0,0,0],"split_type":[0,0,0,0,0,0,0,0,0,0,0,0,0,0,0,0,0,0,0,0,0,0,0,0,0,0,0,0,0,0,0,0,0,0,0,0,0,0,0,0,0,0,0,0,0,0,0,0,0,0,0,0,0,0,0,0,0,0,0,0,0,0,0,0,0,0,0,0,0,0,0,0,0,0,0,0,0,0,0,0,0,0,0,0,0,0,0,0,0,0,0,0,0,0,0,0,0,0,0,0,0,0,0,0,0],"sum_hessian":[5.46E2,2.84E2,2.62E2,1.3E2,1.54E2,2.32E2,3E1,4.1E1,8.9E1,1.46E2,8E0,1.31E2,1.01E2,2.5E1,5E0,7E0,3.4E1,2E1,6.9E1,7.8E1,6.8E1,2.5E1,1.06E2,9.6E1,5E0,9E0,1.6E1,1E1,2.4E1,1.3E1,7E0,5E0,6.4E1,7.3E1,5E0,5.5E1,1.3E1,5E0,2E1,9E1,1.6E1,7E1,2.6E1,9E0,1.5E1,5E0,8E0,5.5E1,9E0,6.4E1,9E0,4.7E1,8E0,7E0,6E0,4.2E1,4.8E1,6E0,1E1,1.1E1,5.9E1,2.1E1,5E0,5E0,5E1,3.1E1,3.3E1,3.8E1,9E0,1.2E1,3E1,3.3E1,1.5E1,5.2E1,7E0,9E0,1.2E1,5E0,4.5E1,8E0,2.3E1,2.5E1,8E0,5E0,3.3E1,2.4E1,6E0,1.5E1,1.8E1,1E1,5E0,3.6E1,1.6E1,2E1,2.5E1,6E0,1.7E1,1.6E1,9E0,2.5E1,8E0,1.4E1,2.2E1,7E0,9E0],"tree_param":{"num_deleted":"0","num_feature":"235","num_nodes":"105","size_leaf_vector":"1"}},{"base_weights":[2.9594831E-2,-1.3096714E0,1.0760653E0,-1.8462143E0,-8.655466E-1,6.7693114E-1,3.3278027E0,-1.2102203E0,-2.2226558E0,-9.530362E-1,1.04663126E-1,4.056036E-1,1.2492296E0,2.5086296E0,4.9770374E0,-1.6042407E0,-1.2659161E-1,-2.4799204E0,-3.8641435E-1,-1.0258505E0,1.7268789E-1,4.634893E-1,-4.1106054E-1,1.6397005E-1,1.4845802E0,3.8018646E0,1.6867448E0,1.0466634E0,1.7975332E0,-5.983904E-1,-2.5674388E-1,-2.2502005E0,-1.0729129E0,-1.2235725E0,-4.335169E-1,-4.8983714E-1,5.3576183E-1,6.1825746E-1,1.190185E0,1.4132702E0,7.725288E-1,2.1358974E0,1.3184391E-1,-1.019297E0,-1.9531226E0,-1.1368629E0,-7.3541474E-1,-0E0,-3.6979496E-1,-4.1333953E-1,6.2384374E-2,2.4117486E-1,8.414893E-1,9.7408646E-1,5.898229E-1,3.5800824E-1,7.9841906E-1,-4.0703708E-1,-6.8008924E-1,-7.5701165E-1,-1.4436848E0,1.1297523E-1,-2.7454117E-1,2.4722525E-1,1.0535164E-1,-1.795553E-1,9.5274204E-1,-0E0,3.452793E-1,-3.152091E-1,-2.4125885E-2,-9.858389E-1,-6.964715E-1,-7.102512E-2,5.1740694E-1,6.428106E-1,8.293639E-1,-3.89897E-1,-4.5257345E-2,1.0385274E-2,2.8275958E-1,1.3226776E-1,3.3472848E-1],"categories":[],"categories_nodes":[],"categories_segments":[],"categories_sizes":[],"default_left":[0,0,0,0,0,0,0,0,0,0,0,0,0,0,0,0,0,0,0,0,0,0,0,0,0,0,0,0,0,0,0,0,0,0,0,0,0,0,0,0,0,0,0,0,0,0,0,0,0,0,0,0,0,0,0,0,0,0,0,0,0,0,0,0,0,0,0,0,0,0,0,0,0,0,0,0,0,0,0,0,0,0,0],"id":8,"left_children":[1,3,5,7,9,11,13,15,17,19,-1,21,23,25,27,29,-1,31,-1,33,-1,35,-1,-1,37,39,41,-1,-1,-1,-1,43,-1,45,47,49,51,-1,53,-1,-1,55,-1,-1,57,59,-1,61,-1,-1,-1,63,65,67,-1,-1,-1,-1,-1,69,71,-1,-1,-1,73,-1,75,-1,-1,-1,-1,77,-1,-1,79,-1,81,-1,-1,-1,-1,-1,-1],"loss_changes":[7.16328E2,5.2397675E1,2.565477E2,2.287967E1,1.3304382E1,3.7330475E1,5.477231E1,1.1113663E1,1.3661804E1,1.3010689E1,0E0,1.685698E1,1.2179245E1,2.862381E1,1.6606903E1,6.3219604E0,0E0,9.893524E0,0E0,1.2319084E1,0E0,1.1135139E1,0E0,0E0,8.667725E0,9.075073E0,9.223343E0,0E0,0E0,0E0,0E0,1.1807312E1,0E0,7.387169E0,1.0094065E1,7.2867727E0,1.3154255E1,0E0,5.480213E0,0E0,0E0,5.0215034E0,0E0,0E0,4.8250275E0,8.189613E0,0E0,6.133061E0,0E0,0E0,0E0,5.81263E0,1.187693E1,5.1724987E0,0E0,0E0,0E0,0E0,0E0,6.642254E0,1.5739906E1,0E0,0E0,0E0,9.002533E0,0E0,8.92638E0,0E0,0E0,0E0,0E0,6.926552E0,0E0,0E0,5.67513E0,0E0,6.399502E0,0E0,0E0,0E0,0E0,0E0,0E0],"parents":[2147483647,0,0,1,1,2,2,3,3,4,4,5,5,6,6,7,7,8,8,9,9,11,11,12,12,13,13,14,14,15,15,17,17,19,19,21,21,24,24,25,25,26,26,31,31,33,33,34,34,35,35,36,36,38,38,41,41,44,44,45,45,47,47,51,51,52,52,53,53,59,59,60,60,64,64,66,66,71,71,74,74,76,76],"right_children":[2,4,6,8,10,12,14,16,18,20,-1,22,24,26,28,30,-1,32,-1,34,-1,36,-1,-1,38,40,42,-1,-1,-1,-1,44,-1,46,48,50,52,-1,54,-1,-1,56,-1,-1,58,60,-1,62,-1,-1,-1,64,66,68,-1,-1,-1,-1,-1,70,72,-1,-1,-1,74,-1,76,-1,-1,-1,-1,78,-1,-1,80,-1,82,-1,-1,-1,-1,-1,-1],"split_conditions":[-1.1113966E-1,-6.182104E-1,8.530269E-1,2.3408552E-1,9.963735E-1,5.0755376E-1,4.3400314E-1,6.2083536E-1,-5.664936E-1,1.64679E0,1.04663126E-1,9.4477767E-1,-2.1143354E-1,-5.9502256E-1,-7.3182577E-1,4.6529597E-1,-1.2659161E-1,-6.922187E-1,-3.8641435E-1,-2.8812432E-1,1.7268789E-1,-5.044028E-1,-4.1106054E-1,1.6397005E-1,6.001038E-1,1.5218048E0,1.5569059E0,1.0466634E0,1.7975332E0,-5.983904E-1,-2.5674388E-1,-1.1912909E0,-1.0729129E0,1.7638512E0,7.910247E-2,-1.5856491E-2,-4E-1,6.1825746E-1,8.2907975E-1,1.4132702E0,7.725288E-1,8.478925E-1,1.3184391E-1,-1.019297E0,-2.4561293E-2,-5.176423E-1,-7.3541474E-1,-5.7395626E-2,-3.6979496E-1,-4.1333953E-1,6.2384374E-2,-5.6089804E-2,-7.8543764E-1,-7.007085E-1,5.898229E-1,3.5800824E-1,7.9841906E-1,-4.0703708E-1,-6.8008924E-1,-5.306391E-1,4.010955E-1,1.1297523E-1,-2.7454117E-1,2.4722525E-1,2.344271E-1,-1.795553E-1,8.000758E-2,-0E0,3.452793E-1,-3.152091E-1,-2.4125885E-2,2.6257628E-1,-6.964715E-1,-7.102512E-2,-3.4690282E-1,6.428106E-1,5.186352E-1,-3.89897E-1,-4.5257345E-2,1.0385274E-2,2.8275958E-1,1.3226776E-1,3.3472848E-1],"split_indices":[0,63,47,203,220,75,16,138,102,163,0,189,223,50,143,178,0,63,0,70,0,177,0,0,68,179,175,0,0,0,0,2,0,118,109,39,228,0,14,0,0,121,0,0,50,77,0,63,0,0,0,82,216,148,0,0,0,0,0,53,203,0,0,0,155,0,37,0,0,0,0,198,0,0,163,0,37,0,0,0,0,0,0],"split_type":[0,0,0,0,0,0,0,0,0,0,0,0,0,0,0,0,0,0,0,0,0,0,0,0,0,0,0,0,0,0,0,0,0,0,0,0,0,0,0,0,0,0,0,0,0,0,0,0,0,0,0,0,0,0,0,0,0,0,0,0,0,0,0,0,0,0,0,0,0,0,0,0,0,0,0,0,0,0,0,0,0,0,0],"sum_hessian":[5.11E2,2.24E2,2.87E2,1.01E2,1.23E2,2.44E2,4.3E1,3.8E1,6.3E1,1.15E2,8E0,1.66E2,7.8E1,2.9E1,1.4E1,2.5E1,1.3E1,4.9E1,1.4E1,1.1E2,5E0,1.61E2,5E0,2E1,5.8E1,1.1E1,1.8E1,6E0,8E0,1.6E1,9E0,4.1E1,8E0,8.2E1,2.8E1,1.1E1,1.5E2,1.9E1,3.9E1,6E0,5E0,1.3E1,5E0,8E0,3.3E1,7.7E1,5E0,1.8E1,1E1,5E0,6E0,7.7E1,7.3E1,3.1E1,8E0,5E0,8E0,1.2E1,2.1E1,3.5E1,4.2E1,1.3E1,5E0,1.4E1,6.3E1,5E0,6.8E1,5E0,2.6E1,2.4E1,1.1E1,2.8E1,1.4E1,3.4E1,2.9E1,6E0,6.2E1,2E1,8E0,1.4E1,1.5E1,2.7E1,3.5E1],"tree_param":{"num_deleted":"0","num_feature":"235","num_nodes":"83","size_leaf_vector":"1"}},{"base_weights":[-2.3981089E-2,-6.65854E-1,1.0894549E0,-1.256286E0,-2.6079446E-1,7.6820755E-1,2.1904685E0,-1.648138E0,-8.125817E-1,5.563955E-1,-3.2091492E-1,-1.8434003E-1,8.6456853E-1,1.3748599E0,2.8725293E0,-1.4785445E0,-9.8948145E-1,-1.1229845E0,-2.0408194E-1,4.930651E-2,-5.616235E-1,9.330861E-1,-9.587588E-2,1.190503E-1,5.379453E-1,9.9127847E-1,4.8660436E-1,-1.2792484E0,-7.0596915E-1,-9.328767E-1,-6.349948E-1,2.1941915E-1,-1.8027626E-1,-8.684584E-2,2.7520013E-1,-0E0,-8.631178E-1,7.9934955E-1,1.6627011E0,-8.5845685E-1,-1.772719E0,-4.9771134E-2,-3.4600183E-1,-5.703862E-1,2.3180625E-1,8.5618265E-2,-1.6769221E-1,-1.343922E-1,-1.0952457E0,1.0823487E0,4.8109093E-1,3.8485938E-1,7.8439015E-1,-4.4132844E-1,-1.1142547E-1,-6.9046456E-1,-3.1005982E-1,-1.0447688E-2,-2.892476E-1,3.7451375E-1,5.9846684E-2,8.024265E-2,-2.4181661E-1,-1.5179352E0,-7.02029E-1,5.614234E-1,9.208174E-1,1.0908846E-1,4.4018704E-1,-2.697756E-1,7.5402E-2,-5.7225996E-1,-1.7494069E-1,-3.3842626E-1,-1.969062E-2,3.1227168E-1,-1.1949624E-2],"categories":[],"categories_nodes":[],"categories_segments":[],"categories_sizes":[],"default_left":[0,0,0,0,0,0,0,0,0,0,0,0,0,0,0,0,0,0,0,0,0,0,0,0,0,0,0,0,0,0,0,0,0,0,0,0,0,0,0,0,0,0,0,0,0,0,0,0,0,0,0,0,0,0,0,0,0,0,0,0,0,0,0,0,0,0,0,0,0,0,0,0,0,0,0,0,0],"id":9,"left_children":[1,3,5,7,9,11,13,15,17,-1,19,-1,21,23,25,27,-1,29,31,33,35,37,-1,-1,-1,-1,-1,39,-1,41,-1,-1,-1,43,-1,45,47,49,51,53,55,-1,-1,57,59,-1,-1,61,63,65,67,-1,-1,-1,-1,-1,-1,-1,-1,-1,69,-1,-1,71,73,-1,75,-1,-1,-1,-1,-1,-1,-1,-1,-1,-1],"loss_changes":[3.5804184E2,7.556094E1,6.367064E1,2.154544E1,2.3641806E1,1.9068565E1,2.1168E1,1.7180893E1,1.1094437E1,0E0,1.657064E1,0E0,1.1023338E1,7.0969276E0,1.0022568E1,9.457352E0,0E0,6.4582596E0,7.851831E0,8.806452E0,1.9091717E1,1.1405334E1,0E0,0E0,0E0,0E0,0E0,9.639862E0,0E0,5.3729057E0,0E0,0E0,0E0,9.685091E0,0E0,6.233081E0,1.1957581E1,9.101807E0,5.3647385E0,7.766945E0,7.801071E0,0E0,0E0,4.988304E0,6.070971E0,0E0,0E0,5.0865836E0,8.357262E0,6.139366E0,5.271263E0,0E0,0E0,0E0,0E0,0E0,0E0,0E0,0E0,0E0,5.7261333E0,0E0,0E0,8.676601E0,7.530855E0,0E0,5.833824E0,0E0,0E0,0E0,0E0,0E0,0E0,0E0,0E0,0E0,0E0],"parents":[2147483647,0,0,1,1,2,2,3,3,4,4,5,5,6,6,7,7,8,8,10,10,12,12,13,13,14,14,15,15,17,17,18,18,19,19,20,20,21,21,27,27,29,29,33,33,35,35,36,36,37,37,38,38,39,39,40,40,43,43,44,44,47,47,48,48,49,49,50,50,60,60,63,63,64,64,66,66],"right_children":[2,4,6,8,10,12,14,16,18,-1,20,-1,22,24,26,28,-1,30,32,34,36,38,-1,-1,-1,-1,-1,40,-1,42,-1,-1,-1,44,-1,46,48,50,52,54,56,-1,-1,58,60,-1,-1,62,64,66,68,-1,-1,-1,-1,-1,-1,-1,-1,-1,70,-1,-1,72,74,-1,76,-1,-1,-1,-1,-1,-1,-1,-1,-1,-1],"split_conditions":[2.2781377E-1,-5.1918876E-1,8.544801E-1,-4.5786965E-1,-7.649354E-1,-6.339746E-1,-4.4882897E-1,9.8364484E-1,2.8568664E-1,5.563955E-1,0E0,-1.8434003E-1,8.1883335E-1,-2.0470293E-1,4.4504187E-1,1.2524211E0,-9.8948145E-1,8.2615185E-1,-1.2968986E-1,1.3924972E0,-3.2648938E-3,7.5787693E-1,-9.587588E-2,1.190503E-1,5.379453E-1,9.9127847E-1,4.8660436E-1,1.08987786E-1,-7.0596915E-1,-7.193352E-1,-6.349948E-1,2.1941915E-1,-1.8027626E-1,-1.5273537E-1,2.7520013E-1,6.4022833E-1,-3.2384345E-1,1.4991365E-1,4.664531E-1,-3.6602542E-1,3.8801363E-1,-4.9771134E-2,-3.4600183E-1,-4.156446E-1,-2.0265056E-1,8.5618265E-2,-1.6769221E-1,1.8041293E-1,2.4821873E-1,-7.068264E-1,9.1886544E-1,3.8485938E-1,7.8439015E-1,-4.4132844E-1,-1.1142547E-1,-6.9046456E-1,-3.1005982E-1,-1.0447688E-2,-2.892476E-1,3.7451375E-1,-3.043696E-2,8.024265E-2,-2.4181661E-1,3.5547175E-2,1.590508E-1,5.614234E-1,6.4003736E-1,1.0908846E-1,4.4018704E-1,-2.697756E-1,7.5402E-2,-5.7225996E-1,-1.7494069E-1,-3.3842626E-1,-1.969062E-2,3.1227168E-1,-1.1949624E-2],"split_indices":[42,63,54,37,213,233,198,80,211,0,227,0,38,210,231,78,0,20,213,118,64,46,0,0,0,0,0,94,0,121,0,0,0,47,0,44,113,59,80,234,133,0,0,77,91,0,0,57,101,188,205,0,0,0,0,0,0,0,0,0,88,0,0,13,138,0,10,0,0,0,0,0,0,0,0,0,0],"split_type":[0,0,0,0,0,0,0,0,0,0,0,0,0,0,0,0,0,0,0,0,0,0,0,0,0,0,0,0,0,0,0,0,0,0,0,0,0,0,0,0,0,0,0,0,0,0,0,0,0,0,0,0,0,0,0,0,0,0,0,0,0,0,0,0,0,0,0,0,0,0,0,0,0,0,0,0,0],"sum_hessian":[5.01E2,3.18E2,1.83E2,1.29E2,1.89E2,1.42E2,4.1E1,6.8E1,6.1E1,5E0,1.84E2,9E0,1.33E2,1.9E1,2.2E1,6.2E1,6E0,4E1,2.1E1,7.2E1,1.12E2,1.26E2,7E0,6E0,1.3E1,1.6E1,6E0,5.1E1,1.1E1,3.4E1,6E0,6E0,1.5E1,6.2E1,1E1,3.9E1,7.3E1,1.07E2,1.9E1,2.8E1,2.3E1,8E0,2.6E1,2.5E1,3.7E1,2.6E1,1.3E1,1.8E1,5.5E1,5.6E1,5.1E1,1.4E1,5E0,1.2E1,1.6E1,1.3E1,1E1,1.1E1,1.4E1,5E0,3.2E1,1.1E1,7E0,2.6E1,2.9E1,9E0,4.7E1,4.6E1,5E0,5E0,2.7E1,1.8E1,8E0,1.7E1,1.2E1,4.2E1,5E0],"tree_param":{"num_deleted":"0","num_feature":"235","num_nodes":"77","size_leaf_vector":"1"}},{"base_weights":[1.7440759E-2,-7.299706E-1,6.4645845E-1,-1.175495E0,-4.5805725E-1,4.1223752E-1,2.1880188E0,-1.4196928E0,-5.876121E-1,2.1498592E-1,-5.886891E-1,5.463637E-1,-1.01380706E-1,3.4267027E0,1.6899079E0,-3.5259223E-1,-2.199102E0,-9.5124793E-1,1.7024437E-1,-5.7196002E-2,3.5320023E-1,-8.0612373E-1,-1.5587519E-1,4.856422E-1,1.5945964E0,-9.689554E-2,1.4600807E-1,1.4659325E0,5.510051E-1,2.0353248E0,4.9933005E-2,-9.66773E-1,-4.696059E-1,-4.016825E-1,-5.234031E-2,-2.4986982E-1,-1.0109547E0,7.751391E-5,-3.3113512E-1,-2.3654297E-1,5.581305E-1,8.6772776E-1,6.0781162E-2,8.315918E-1,4.305694E-1,9.40692E-2,-2.2318622E-1,-6.1338985E-1,-2.7076107E-1,-1.5191926E-1,9.4374366E-2,-5.091749E-1,4.0767384E-1,-4.361612E-2,6.364086E-1,4.1114867E-1,-1.05387144E-1,2.9697338E-1,5.101621E-1,9.686733E-1,3.488796E-1,1.9050892E-1,4.8619664E-1,-4.363059E-2,1.4764525E-1],"categories":[],"categories_nodes":[],"categories_segments":[],"categories_sizes":[],"default_left":[0,0,0,0,0,0,0,0,0,0,0,0,0,0,0,0,0,0,0,0,0,0,0,0,0,0,0,0,0,0,0,0,0,0,0,0,0,0,0,0,0,0,0,0,0,0,0,0,0,0,0,0,0,0,0,0,0,0,0,0,0,0,0,0,0],"id":10,"left_children":[1,3,5,7,9,11,13,15,17,19,21,23,25,27,29,-1,31,33,-1,-1,-1,35,37,39,41,-1,-1,-1,-1,43,-1,-1,-1,-1,-1,45,47,49,-1,51,53,-1,-1,-1,-1,-1,-1,-1,-1,-1,-1,-1,55,-1,57,-1,-1,-1,59,61,63,-1,-1,-1,-1],"loss_changes":[2.3794029E2,2.7427643E1,9.841731E1,1.179084E1,1.2797882E1,1.6617134E1,2.01456E1,1.0247551E1,1.1132318E1,9.370819E0,1.1077255E1,1.1369724E1,6.381598E0,2.0585602E1,1.299176E1,0E0,7.190399E0,5.576786E0,0E0,0E0,0E0,8.700737E0,6.4381766E0,9.541115E0,1.7240122E1,0E0,0E0,0E0,0E0,7.661606E0,0E0,0E0,0E0,0E0,0E0,6.325968E0,5.343052E0,5.558913E0,0E0,1.5634629E1,9.203686E0,0E0,0E0,0E0,0E0,0E0,0E0,0E0,0E0,0E0,0E0,0E0,8.491022E0,0E0,6.117481E0,0E0,0E0,0E0,7.6915913E0,5.306885E0,5.96611E0,0E0,0E0,0E0,0E0],"parents":[2147483647,0,0,1,1,2,2,3,3,4,4,5,5,6,6,7,7,8,8,9,9,10,10,11,11,12,12,13,13,14,14,16,16,17,17,21,21,22,22,23,23,24,24,29,29,35,35,36,36,37,37,39,39,40,40,52,52,54,54,58,58,59,59,60,60],"right_children":[2,4,6,8,10,12,14,16,18,20,22,24,26,28,30,-1,32,34,-1,-1,-1,36,38,40,42,-1,-1,-1,-1,44,-1,-1,-1,-1,-1,46,48,50,-1,52,54,-1,-1,-1,-1,-1,-1,-1,-1,-1,-1,-1,56,-1,58,-1,-1,-1,60,62,64,-1,-1,-1,-1],"split_conditions":[-1.0931627E-1,-6.368743E-1,1.3135873E0,2.959872E-1,-6.3848114E-1,4.2998075E-1,1.4816538E0,-6.228164E-1,-5.758935E-1,4.1540418E-2,-3.6075243E-1,9.0170395E-1,9.419154E-1,7.2403467E-1,-2.641215E-1,-3.5259223E-1,-6.7736655E-1,7.4787927E-1,1.7024437E-1,-5.7196002E-2,3.5320023E-1,-3.51578E-1,2.2933353E-1,-8.1352144E-1,-2.7089804E-1,-9.689554E-2,1.4600807E-1,1.4659325E0,5.510051E-1,1.6575702E0,4.9933005E-2,-9.66773E-1,-4.696059E-1,-4.016825E-1,-5.234031E-2,-6.09123E-1,-6.2241346E-1,-3.3777753E-1,-3.3113512E-1,-5.894067E-1,-7.462673E-1,8.6772776E-1,6.0781162E-2,8.315918E-1,4.305694E-1,9.40692E-2,-2.2318622E-1,-6.1338985E-1,-2.7076107E-1,-1.5191926E-1,9.4374366E-2,-5.091749E-1,-1.0853142E-1,-4.361612E-2,-5.44318E-1,4.1114867E-1,-1.05387144E-1,2.9697338E-1,-6.4925617E-1,-1.3825272E-1,-3.7547803E-1,1.9050892E-1,4.8619664E-1,-4.363059E-2,1.4764525E-1],"split_indices":[19,3,42,94,70,168,119,88,110,87,42,203,71,12,4,0,114,50,0,0,0,225,144,133,153,0,0,0,0,62,0,0,0,0,0,130,3,45,0,209,6,0,0,0,0,0,0,0,0,0,0,0,7,0,211,0,0,0,138,7,52,0,0,0,0],"split_type":[0,0,0,0,0,0,0,0,0,0,0,0,0,0,0,0,0,0,0,0,0,0,0,0,0,0,0,0,0,0,0,0,0,0,0,0,0,0,0,0,0,0,0,0,0,0,0,0,0,0,0,0,0,0,0,0,0,0,0,0,0,0,0,0,0],"sum_hessian":[5.06E2,2.31E2,2.75E2,8.7E1,1.44E2,2.39E2,3.6E1,6.1E1,2.6E1,2.3E1,1.21E2,1.9E2,4.9E1,1E1,2.6E1,4.7E1,1.4E1,2E1,6E0,1.6E1,7E0,8E1,4.1E1,1.8E2,1E1,3.6E1,1.3E1,5E0,5E0,2.1E1,5E0,5E0,9E0,1.3E1,7E0,2.2E1,5.8E1,3.5E1,6E0,1.6E1,1.64E2,5E0,5E0,9E0,1.2E1,1E1,1.2E1,5E0,5.3E1,1.3E1,2.2E1,5E0,1.1E1,1.6E1,1.48E2,5E0,6E0,3.8E1,1.1E2,2.8E1,8.2E1,1.9E1,9E0,1.8E1,6.4E1],"tree_param":{"num_deleted":"0","num_feature":"235","num_nodes":"65","size_leaf_vector":"1"}},{"base_weights":[-5.799477E-4,-3.46826E-1,6.6212994E-1,-8.3234024E-1,-1.8176442E-1,4.3170527E-1,1.548271E0,-7.227761E-1,-5.293845E-1,3.175133E-1,-2.118672E-1,-1.9280772E-1,5.801176E-1,1.7875582E0,6.3658446E-2,-8.846695E-1,1.8135756E-1,-3.1110373E-1,2.0035382E-1,-3.8761178E-1,9.686207E-2,6.7885464E-1,-2.0729697E-1,6.617762E-1,3.1368524E-1,-7.1340656E-1,-5.231405E-1,-1.2956265E-1,3.2846642E-1,-2.1920124E-1,-7.474583E-1,5.870891E-3,3.293877E-1,-1.1916597E-1,2.1582372E-1,7.962599E-1,-6.1327596E-3,-3.1938568E-1,8.853016E-2,-2.4276036E-1,2.2612603E-2,2.4335483E-1,-2.7091852E-1,-4.094179E-1,-1.1374338E-1,6.678711E-1,4.4347066E-1,-8.011682E-2,-5.5048144E-1,4.9856862E-1,3.237166E-1,1.0195806E-2,-4.9792436E-1,-5.0471E-1,-4.1062808E-1,1.8228427E-1,-1.0835896E-1,-4.546631E-1,-0E0,-1.888012E-1,1.4232402E-2],"categories":[],"categories_nodes":[],"categories_segments":[],"categories_sizes":[],"default_left":[0,0,0,0,0,0,0,0,0,0,0,0,0,0,0,0,0,0,0,0,0,0,0,0,0,0,0,0,0,0,0,0,0,0,0,0,0,0,0,0,0,0,0,0,0,0,0,0,0,0,0,0,0,0,0,0,0,0,0,0,0],"id":11,"left_children":[1,3,5,7,9,11,13,15,-1,-1,17,19,21,23,-1,25,27,29,31,-1,33,35,37,-1,-1,39,-1,-1,-1,41,43,-1,-1,-1,-1,45,-1,-1,-1,-1,-1,-1,47,-1,-1,49,-1,51,53,55,-1,-1,57,-1,59,-1,-1,-1,-1,-1,-1],"loss_changes":[1.2453478E2,2.828003E1,3.73079E1,8.328194E0,9.732605E0,1.38582325E1,1.1501747E1,1.2106503E1,0E0,0E0,1.0720824E1,9.352514E0,9.498512E0,8.788666E0,0E0,9.309093E0,7.042392E0,8.142439E0,7.7828665E0,0E0,6.941798E0,9.04126E0,5.9249125E0,0E0,0E0,4.69088E0,0E0,0E0,0E0,9.187531E0,7.6182423E0,0E0,0E0,0E0,0E0,7.322735E0,0E0,0E0,0E0,0E0,0E0,0E0,8.707314E0,0E0,0E0,4.909893E0,0E0,4.9232235E0,9.918129E0,5.407507E0,0E0,0E0,1.0848795E1,0E0,6.2378206E0,0E0,0E0,0E0,0E0,0E0,0E0],"parents":[2147483647,0,0,1,1,2,2,3,3,4,4,5,5,6,6,7,7,10,10,11,11,12,12,13,13,15,15,16,16,17,17,18,18,20,20,21,21,22,22,25,25,29,29,30,30,35,35,42,42,45,45,47,47,48,48,49,49,52,52,54,54],"right_children":[2,4,6,8,10,12,14,16,-1,-1,18,20,22,24,-1,26,28,30,32,-1,34,36,38,-1,-1,40,-1,-1,-1,42,44,-1,-1,-1,-1,46,-1,-1,-1,-1,-1,-1,48,-1,-1,50,-1,52,54,56,-1,-1,58,-1,60,-1,-1,-1,-1,-1,-1],"split_conditions":[2.5344267E-1,-6.541971E-1,9.503459E-1,1.7868265E0,-1.3003285E0,-3.7158456E-1,6.988555E-1,1.1905704E0,-5.293845E-1,3.175133E-1,6.9160825E-1,-7.605623E-1,8.8496745E-1,-2.3663029E-1,6.3658446E-2,1.1066102E0,6.8579763E-1,5.53566E-1,2.4417266E-1,-3.8761178E-1,-3.3525777E-1,2.9131693E-1,-6.184891E-1,6.617762E-1,3.1368524E-1,6.781626E-1,-5.231405E-1,-1.2956265E-1,3.2846642E-1,-6.1396825E-1,-3.3187327E-1,5.870891E-3,3.293877E-1,-1.1916597E-1,2.1582372E-1,4.3720196E-5,-6.1327596E-3,-3.1938568E-1,8.853016E-2,-2.4276036E-1,2.2612603E-2,2.4335483E-1,2.2389092E-1,-4.094179E-1,-1.1374338E-1,-1.2445628E-1,4.4347066E-1,3.945839E-1,-5.6323177E-1,2.9641641E-2,3.237166E-1,1.0195806E-2,-3.9186406E-1,-5.0471E-1,-4.1604512E-3,1.8228427E-1,-1.0835896E-1,-4.546631E-1,-0E0,-1.888012E-1,1.4232402E-2],"split_indices":[49,1,140,203,93,209,101,193,0,0,123,133,109,178,0,168,138,128,165,0,12,183,80,0,0,168,0,0,0,2,195,0,0,0,0,178,0,0,0,0,0,0,225,0,0,36,0,193,2,43,0,0,43,0,205,0,0,0,0,0,0],"split_type":[0,0,0,0,0,0,0,0,0,0,0,0,0,0,0,0,0,0,0,0,0,0,0,0,0,0,0,0,0,0,0,0,0,0,0,0,0,0,0,0,0,0,0,0,0,0,0,0,0,0,0,0,0,0,0,0,0,0,0,0,0],"sum_hessian":[5.43E2,3.57E2,1.86E2,9E1,2.67E2,1.48E2,3.8E1,8.1E1,9E0,6E0,2.61E2,2.8E1,1.2E2,3.2E1,6E0,6.9E1,1.2E1,2.11E2,5E1,6E0,2.2E1,1.07E2,1.3E1,2E1,1.2E1,5.8E1,1.1E1,7E0,5E0,1.75E2,3.6E1,4.2E1,8E0,1.2E1,1E1,9.2E1,1.5E1,5E0,8E0,5.2E1,6E0,8E0,1.67E2,1.3E1,2.3E1,7.8E1,1.4E1,1E2,6.7E1,5.6E1,2.2E1,7.8E1,2.2E1,7E0,6E1,5E1,6E0,7E0,1.5E1,4.1E1,1.9E1],"tree_param":{"num_deleted":"0","num_feature":"235","num_nodes":"61","size_leaf_vector":"1"}},{"base_weights":[5.9138145E-2,-2.0161435E-1,4.620931E-1,-4.8474208E-1,-1.7933745E-3,3.6776027E-1,1.7701532E0,-8.935124E-1,-2.960685E-1,-3.0457556E-2,2.9828718E-1,4.3716455E-1,-3.1127098E-1,2.8684422E-1,9.374204E-1,-3.7045735E-1,-3.6624926E-1,-3.7723613E-1,3.1519005E-1,-6.897848E-2,1.3142303E-1,4.6500388E-1,3.762183E-1,6.504738E-5,-3.506194E-1,-2.8346777E-1,1.254668E-1,-4.602477E-1,9.3981035E-2,2.5899178E-1,5.7111792E-2,5.064682E-1,6.0618494E-2,-3.2358533E-1,-2.9172292E-1,1.9053008E-1,-3.2441057E-2,-1.0506271E-2,6.653069E-1,2.8978506E-1,-1.9605336E-1,-2.326488E-1,-3.876957E-1,-3.8417958E-2,1.8320906E-1,-0E0,7.621848E-1,-1.3670014E-1,1.3889089E-1,-1.1493279E-1,9.547137E-2,4.155641E-1,2.860376E-1,2.6946556E-2,3.3912948E-1],"categories":[],"categories_nodes":[],"categories_segments":[],"categories_sizes":[],"default_left":[0,0,0,0,0,0,0,0,0,0,0,0,0,0,0,0,0,0,0,0,0,0,0,0,0,0,0,0,0,0,0,0,0,0,0,0,0,0,0,0,0,0,0,0,0,0,0,0,0,0,0,0,0,0,0],"id":12,"left_children":[1,3,5,7,9,11,13,15,17,19,-1,21,23,-1,-1,-1,25,27,-1,-1,29,-1,31,-1,-1,-1,-1,33,-1,-1,35,37,39,41,-1,-1,43,-1,45,47,-1,49,-1,-1,-1,-1,51,-1,-1,-1,-1,53,-1,-1,-1],"loss_changes":[5.6943455E1,1.8405804E1,2.555577E1,1.0016144E1,5.216177E0,9.433922E0,1.4002007E1,7.069641E0,1.0005502E1,6.119012E0,0E0,1.1645279E1,5.2146897E0,0E0,0E0,0E0,7.984192E0,5.1115885E0,0E0,0E0,5.3188024E0,0E0,6.89011E0,0E0,0E0,0E0,0E0,5.1119328E0,0E0,0E0,5.073233E0,1.0618698E1,8.272057E0,5.05659E0,0E0,0E0,4.8573875E0,0E0,6.0399284E0,5.093216E0,0E0,4.8702636E0,0E0,0E0,0E0,0E0,5.0161133E0,0E0,0E0,0E0,0E0,6.6215596E0,0E0,0E0,0E0],"parents":[2147483647,0,0,1,1,2,2,3,3,4,4,5,5,6,6,7,7,8,8,9,9,11,11,12,12,16,16,17,17,20,20,22,22,27,27,30,30,31,31,32,32,33,33,36,36,38,38,39,39,41,41,46,46,51,51],"right_children":[2,4,6,8,10,12,14,16,18,20,-1,22,24,-1,-1,-1,26,28,-1,-1,30,-1,32,-1,-1,-1,-1,34,-1,-1,36,38,40,42,-1,-1,44,-1,46,48,-1,50,-1,-1,-1,-1,52,-1,-1,-1,-1,54,-1,-1,-1],"split_conditions":[2.2900428E-1,-7.738743E-2,1.7741429E0,-7.213469E-1,1.8485074E0,6.613717E-1,8.809132E-2,8.015762E-1,1.8834374E0,-4.9070075E-1,2.9828718E-1,9.756347E-2,4.5817494E-1,2.8684422E-1,9.374204E-1,-3.7045735E-1,-1.103243E0,1.3864411E0,3.1519005E-1,-6.897848E-2,-5.464003E-1,4.6500388E-1,-1.7331865E-1,6.504738E-5,-3.506194E-1,-2.8346777E-1,1.254668E-1,1.0628015E0,9.3981035E-2,2.5899178E-1,-1.594996E-1,-4.6136904E-1,5.3061104E-1,1.5033216E0,-2.9172292E-1,1.9053008E-1,1.1660731E0,-1.0506271E-2,2.9095563E-1,-7.628633E-1,-1.9605336E-1,-3.5523295E-1,-3.876957E-1,-3.8417958E-2,1.8320906E-1,-0E0,-5.6164163E-1,-1.3670014E-1,1.3889089E-1,-1.1493279E-1,9.547137E-2,8.244389E-1,2.860376E-1,2.6946556E-2,3.3912948E-1],"split_indices":[146,8,0,37,208,163,65,216,203,98,0,1,189,0,0,0,16,64,0,0,130,0,99,0,0,0,0,188,0,0,100,210,51,216,0,0,7,0,3,216,0,13,0,0,0,0,43,0,0,0,0,83,0,0,0],"split_type":[0,0,0,0,0,0,0,0,0,0,0,0,0,0,0,0,0,0,0,0,0,0,0,0,0,0,0,0,0,0,0,0,0,0,0,0,0,0,0,0,0,0,0,0,0,0,0,0,0,0,0,0,0,0,0],"sum_hessian":[5.41E2,3.28E2,2.13E2,1.35E2,1.93E2,1.99E2,1.4E1,4.2E1,9.3E1,1.88E2,5E0,1.81E2,1.8E1,9E0,5E0,2.5E1,1.7E1,8.8E1,5E0,8.5E1,1.03E2,9E0,1.72E2,1.3E1,5E0,1E1,7E0,7.9E1,9E0,9E0,9.4E1,1.21E2,5.1E1,6.3E1,1.6E1,1.3E1,8.1E1,2.7E1,9.4E1,3.9E1,1.2E1,5.8E1,5E0,7.1E1,1E1,1.2E1,8.2E1,7E0,3.2E1,4.6E1,1.2E1,3E1,5.2E1,2.1E1,9E0],"tree_param":{"num_deleted":"0","num_feature":"235","num_nodes":"55","size_leaf_vector":"1"}},{"base_weights":[2.7606543E-3,-3.4203178E-1,2.3331639E-1,-7.282052E-1,-2.3723583E-1,1.2032494E-1,6.5012634E-1,-4.4352558E-1,-4.2800403E-1,2.1990669E-1,-2.7701953E-1,8.352823E-2,3.8941282E-1,1.2046428E0,3.948143E-1,-3.1699446E-1,-2.589078E-2,1.2221191E-1,-3.7859797E-1,1.0704821E-1,-2.7679136E-1,6.0524948E-2,4.5365328E-1,2.872516E-1,1.5089071E-3,-8.654433E-2,1.578513E-1,-1.3790357E-1,-5.8848447E-1,-3.8483465E-1,1.5531921E-1,-1.9606839E-1,9.559898E-3,1.2403779E-3,-7.126348E-1,6.2358283E-2,-3.414564E-1,3.926626E-1,1.0501336E-2,-1.6741417E-1,-4.0794888E-1,1.540348E-1,2.093245E-1,-3.8116553E-3,2.5572592E-1],"categories":[],"categories_nodes":[],"categories_segments":[],"categories_sizes":[],"default_left":[0,0,0,0,0,0,0,0,0,0,0,0,0,0,0,0,0,0,0,0,0,0,0,0,0,0,0,0,0,0,0,0,0,0,0,0,0,0,0,0,0,0,0,0,0],"id":13,"left_children":[1,3,5,7,9,11,13,15,-1,-1,17,19,-1,21,23,-1,-1,25,27,29,-1,-1,-1,-1,-1,-1,-1,31,33,35,37,-1,-1,-1,39,-1,-1,41,-1,-1,-1,43,-1,-1,-1],"loss_changes":[4.075894E1,7.9768047E0,1.4256866E1,7.9447327E0,6.1352787E0,1.0102495E1,8.663572E0,6.451353E0,0E0,0E0,6.4154606E0,5.342678E0,0E0,5.6687183E0,9.607406E0,0E0,0E0,5.2627687E0,6.0802402E0,5.4184556E0,0E0,0E0,0E0,0E0,0E0,0E0,0E0,5.385483E0,5.088623E0,9.312631E0,5.887008E0,0E0,0E0,0E0,4.8199196E0,0E0,0E0,4.840123E0,0E0,0E0,0E0,4.9472795E0,0E0,0E0,0E0],"parents":[2147483647,0,0,1,1,2,2,3,3,4,4,5,5,6,6,7,7,10,10,11,11,13,13,14,14,17,17,18,18,19,19,27,27,28,28,29,29,30,30,34,34,37,37,41,41],"right_children":[2,4,6,8,10,12,14,16,-1,-1,18,20,-1,22,24,-1,-1,26,28,30,-1,-1,-1,-1,-1,-1,-1,32,34,36,38,-1,-1,-1,40,-1,-1,42,-1,-1,-1,44,-1,-1,-1],"split_conditions":[-2.7228373E-1,-8.4995097E-1,7.3660994E-1,-9.350217E-1,-5.1184297E-1,1.8379656E0,-5.7351524E-1,-1.1860619E0,-4.2800403E-1,2.1990669E-1,-6.9696957E-1,8.03699E-1,3.8941282E-1,-9.347415E-1,-4.2355198E-1,-3.1699446E-1,-2.589078E-2,1.6651356E-1,1.8326133E-1,-6.002839E-1,-2.7679136E-1,6.0524948E-2,4.5365328E-1,2.872516E-1,1.5089071E-3,-8.654433E-2,1.578513E-1,-6.374902E-1,-4.9511153E-1,-3.275979E-2,-2.1933232E-1,-1.9606839E-1,9.559898E-3,1.2403779E-3,-4.475897E-1,6.2358283E-2,-3.414564E-1,-2.6892105E-1,1.0501336E-2,-1.6741417E-1,-4.0794888E-1,5.6639683E-1,2.093245E-1,-3.8116553E-3,2.5572592E-1],"split_indices":[49,98,1,23,50,209,188,46,0,0,68,61,0,4,212,0,0,4,143,224,0,0,0,0,0,0,0,93,45,209,45,0,0,0,67,0,0,128,0,0,0,14,0,0,0],"split_type":[0,0,0,0,0,0,0,0,0,0,0,0,0,0,0,0,0,0,0,0,0,0,0,0,0,0,0,0,0,0,0,0,0,0,0,0,0,0,0,0,0,0,0,0,0],"sum_hessian":[5.13E2,2.05E2,3.08E2,4.3E1,1.62E2,2.43E2,6.5E1,3.1E1,1.2E1,6E0,1.56E2,2.36E2,7E0,2E1,4.5E1,1.1E1,2E1,3.1E1,1.25E2,2.31E2,5E0,5E0,1.5E1,1.8E1,2.7E1,1.5E1,1.6E1,5.9E1,6.6E1,2E1,2.11E2,1.5E1,4.4E1,1.1E1,5.5E1,1.1E1,9E0,7E1,1.41E2,4.5E1,1E1,4E1,3E1,3.2E1,8E0],"tree_param":{"num_deleted":"0","num_feature":"235","num_nodes":"45","size_leaf_vector":"1"}},{"base_weights":[3.4335742E-3,-5.8816794E-2,8.079874E-1,-2.670029E-1,2.5989696E-2,6.7315584E-1,5.750899E-1,-4.4689626E-1,-2.190785E-1,-8.635003E-2,2.856703E-1,-5.9579413E-2,7.9569435E-1,-3.9820563E-2,-2.8386292E-1,4.0650114E-2,-3.8096946E-1,1.0328581E0,6.0745776E-2,4.9577972E-1,5.16085E-1,-1.001222E-2,2.8666463E-1,-5.634658E-1,7.5711735E-4,5.839523E-2,5.3639287E-1,9.78054E-3,3.192846E-1,-1.09259695E-1,3.1694883E-1,-3.2855585E-1,-3.2363608E-1,1.747638E-2,-1.5199928E-1,2.1409379E-1,-7.152748E-3,1.387976E-1,-1.4924935E-1,-4.222918E-2,1.6017462E-1],"categories":[],"categories_nodes":[],"categories_segments":[],"categories_sizes":[],"default_left":[0,0,0,0,0,0,0,0,0,0,0,0,0,0,0,0,0,0,0,0,0,0,0,0,0,0,0,0,0,0,0,0,0,0,0,0,0,0,0,0,0],"id":14,"left_children":[1,3,5,7,9,-1,11,-1,13,15,17,-1,19,-1,-1,21,23,25,-1,-1,27,29,-1,31,-1,-1,-1,-1,-1,33,35,-1,37,39,-1,-1,-1,-1,-1,-1,-1],"loss_changes":[2.6541424E1,8.677282E0,1.1758919E1,7.7682896E0,1.0132656E1,0E0,5.8529015E0,0E0,8.247366E0,9.093131E0,6.0928717E0,0E0,5.504614E0,0E0,0E0,8.061194E0,5.294174E0,5.741416E0,0E0,0E0,4.9857054E0,5.0663743E0,0E0,5.9251432E0,0E0,0E0,0E0,0E0,0E0,6.3190455E0,5.1153946E0,0E0,4.854025E0,7.6812863E0,0E0,0E0,0E0,0E0,0E0,0E0,0E0],"parents":[2147483647,0,0,1,1,2,2,3,3,4,4,6,6,8,8,9,9,10,10,12,12,15,15,16,16,17,17,20,20,21,21,23,23,29,29,30,30,32,32,33,33],"right_children":[2,4,6,8,10,-1,12,-1,14,16,18,-1,20,-1,-1,22,24,26,-1,-1,28,30,-1,32,-1,-1,-1,-1,-1,34,36,-1,38,40,-1,-1,-1,-1,-1,-1,-1],"split_conditions":[9.278255E-1,-5.458739E-1,9.4168204E-1,-1.6151342E0,3.3903554E-1,6.7315584E-1,-6.3015056E-1,-4.4689626E-1,-3.3813718E-1,3.2945726E-2,-5.5083287E-1,-5.9579413E-2,-5.9599113E-1,-3.9820563E-2,-2.8386292E-1,2.4319344E0,1.9763388E-1,-7.043234E-1,6.0745776E-2,4.9577972E-1,-2.4274863E-1,7.1760225E-1,2.8666463E-1,-2.894128E-1,7.5711735E-4,5.839523E-2,5.3639287E-1,9.78054E-3,3.192846E-1,3.8609448E-1,1.681801E-1,-3.2855585E-1,-1.526699E-1,2.0829262E-1,-1.5199928E-1,2.1409379E-1,-7.152748E-3,1.387976E-1,-1.4924935E-1,-4.222918E-2,1.6017462E-1],"split_indices":[176,54,171,72,85,0,198,0,147,99,15,0,188,0,0,66,33,0,0,0,123,83,0,200,0,0,0,0,0,84,32,0,206,14,0,0,0,0,0,0,0],"split_type":[0,0,0,0,0,0,0,0,0,0,0,0,0,0,0,0,0,0,0,0,0,0,0,0,0,0,0,0,0,0,0,0,0,0,0,0,0,0,0,0,0],"sum_hessian":[5.25E2,4.87E2,3.8E1,1.42E2,3.45E2,5E0,3.3E1,5E0,1.37E2,2.4E2,1.05E2,7E0,2.6E1,1.23E2,1.4E1,1.67E2,7.3E1,1E1,9.5E1,6E0,2E1,1.58E2,9E0,5E1,2.3E1,5E0,5E0,1.1E1,9E0,1.22E2,3.6E1,1.5E1,3.5E1,9.2E1,3E1,1.7E1,1.9E1,6E0,2.9E1,7E1,2.2E1],"tree_param":{"num_deleted":"0","num_feature":"235","num_nodes":"41","size_leaf_vector":"1"}},{"base_weights":[-2.8568204E-2,-1.3200217E-1,2.068114E-1,-1.12374924E-1,-4.3645623E-1,1.5671968E-1,4.9683985E-1,-3.9301294E-1,-2.8355E-2,4.4468942E-1,2.699728E-2,-2.4232545E-1,-1.9322176E-1,1.5767507E-1,-7.044477E-2,3.2333544E-1,2.3979588E-1,1.75271E-1,-3.1757683E-2,1.6541332E-1,-9.7296886E-2,2.0615381E-1,-1.0242012E-1,2.051138E-2,3.65549E-1,-2.4625944E-1,-6.43502E-2,-2.0944451E-1,-2.8819915E-2,-5.3115357E-2,2.8771952E-1,1.455E-2,-9.677687E-2],"categories":[],"categories_nodes":[],"categories_segments":[],"categories_sizes":[],"default_left":[0,0,0,0,0,0,0,0,0,0,0,0,0,0,0,0,0,0,0,0,0,0,0,0,0,0,0,0,0,0,0,0,0],"id":15,"left_children":[1,3,5,7,-1,9,-1,11,13,15,17,-1,19,-1,21,-1,23,-1,-1,-1,-1,-1,25,-1,-1,-1,27,-1,29,31,-1,-1,-1],"loss_changes":[1.2737854E1,8.981249E0,1.0969536E1,8.354957E0,0E0,5.604299E0,0E0,6.4902744E0,6.351196E0,5.6817293E0,8.110178E0,0E0,5.446286E0,0E0,6.1045566E0,0E0,5.643636E0,0E0,0E0,0E0,0E0,0E0,6.5380125E0,0E0,0E0,0E0,5.1143823E0,0E0,5.1253285E0,6.132217E0,0E0,0E0,0E0],"parents":[2147483647,0,0,1,1,2,2,3,3,5,5,7,7,8,8,9,9,10,10,12,12,14,14,16,16,22,22,26,26,28,28,29,29],"right_children":[2,4,6,8,-1,10,-1,12,14,16,18,-1,20,-1,22,-1,24,-1,-1,-1,-1,-1,26,-1,-1,-1,28,-1,30,32,-1,-1,-1],"split_conditions":[3.3105132E-1,2.8286722E0,1.4938575E0,-5.1775885E-1,-4.3645623E-1,-1.4613576E-1,4.9683985E-1,8.700161E-3,-4.6211687E-1,-7.45339E-1,-5.348532E-1,-2.4232545E-1,-1.666999E-1,1.5767507E-1,-8.501733E-1,3.2333544E-1,2.4509317E-1,1.75271E-1,-3.1757683E-2,1.6541332E-1,-9.7296886E-2,2.0615381E-1,-1.0087279E0,2.051138E-2,3.65549E-1,-2.4625944E-1,-1.7918538E0,-2.0944451E-1,2.2802901E0,6.36033E-1,2.8771952E-1,1.455E-2,-9.677687E-2],"split_indices":[107,66,102,204,0,32,0,188,205,205,113,0,198,0,224,0,56,0,0,0,0,0,66,0,0,0,51,0,57,221,0,0,0],"split_type":[0,0,0,0,0,0,0,0,0,0,0,0,0,0,0,0,0,0,0,0,0,0,0,0,0,0,0,0,0,0,0,0,0],"sum_hessian":[5.24E2,3.65E2,1.59E2,3.6E2,5E0,1.54E2,5E0,8.2E1,2.78E2,4.7E1,1.07E2,2.6E1,5.6E1,1.9E1,2.59E2,1.1E1,3.6E1,2.1E1,8.6E1,8E0,4.8E1,1E1,2.49E2,3.1E1,5E0,1.2E1,2.37E2,1.2E1,2.25E2,2.2E2,5E0,1.59E2,6.1E1],"tree_param":{"num_deleted":"0","num_feature":"235","num_nodes":"33","size_leaf_vector":"1"}},{"base_weights":[-1.9058667E-2,-1.6297343E-1,1.1280187E-1,-8.1961736E-2,-5.9138554E-1,3.3135903E-1,9.249134E-3,1.677482E-1,-1.3167703E-1,-2.2088216E-1,1.0897531E-1,7.457699E-2,4.1497114E-1,-2.3641191E-1,1.8192213E-2,-7.0730284E-2,3.2503564E-2],"categories":[],"categories_nodes":[],"categories_segments":[],"categories_sizes":[],"default_left":[0,0,0,0,0,0,0,0,0,0,0,0,0,0,0,0,0],"id":16,"left_children":[1,3,5,7,9,11,13,-1,15,-1,-1,-1,-1,-1,-1,-1,-1],"loss_changes":[1.0133718E1,8.6686125E0,6.161958E0,6.7666345E0,5.736149E0,7.0963745E0,7.5466385E0,0E0,5.0894165E0,0E0,0E0,0E0,0E0,0E0,0E0,0E0,0E0],"parents":[2147483647,0,0,1,1,2,2,3,3,4,4,5,5,6,6,8,8],"right_children":[2,4,6,8,10,12,14,-1,16,-1,-1,-1,-1,-1,-1,-1,-1],"split_conditions":[-2.3019833E-2,-2.3534767E-2,2.7177325E-1,-8.294203E-1,1.082408E0,3.869216E-1,-2.0231251E-1,1.677482E-1,6.619283E-1,-2.2088216E-1,1.0897531E-1,7.457699E-2,4.1497114E-1,-2.3641191E-1,1.8192213E-2,-7.0730284E-2,3.2503564E-2],"split_indices":[197,31,186,52,59,149,0,0,178,0,0,0,0,0,0,0,0],"split_type":[0,0,0,0,0,0,0,0,0,0,0,0,0,0,0,0,0],"sum_hessian":[5.33E2,2.56E2,2.77E2,2.16E2,4E1,8.8E1,1.89E2,1.5E1,2.01E2,3.5E1,5E0,8.2E1,6E0,1.1E1,1.78E2,1.41E2,6E1],"tree_param":{"num_deleted":"0","num_feature":"235","num_nodes":"17","size_leaf_vector":"1"}},{"base_weights":[-1.3487775E-2,2.457181E-1,-8.835454E-2,-1.5363689E-2,1.20405346E-1,-6.2102787E-2,-2.7933922E-1,-3.9086442E-2,-2.0116322E-1,-4.4463337E-3,-4.5448914E-1,-2.310968E-1,1.2356135E-2,7.047499E-2,-2.193293E-1,-1.4498396E-1,1.1028044E-1,-1.6040038E-1,-2.1824287E-3,6.077876E-3,3.3851033E-1,1.6252221E-1,-8.458426E-2,2.7659386E-2,2.5759274E-1,8.598345E-3,1.9952972E-1],"categories":[],"categories_nodes":[],"categories_segments":[],"categories_sizes":[],"default_left":[0,0,0,0,0,0,0,0,0,0,0,0,0,0,0,0,0,0,0,0,0,0,0,0,0,0,0],"id":17,"left_children":[1,3,5,-1,-1,7,-1,9,-1,11,13,-1,15,-1,-1,17,19,-1,-1,21,23,25,-1,-1,-1,-1,-1],"loss_changes":[1.0257708E1,5.5955253E0,8.833359E0,0E0,0E0,5.3978577E0,0E0,5.4232187E0,0E0,4.859024E0,5.7466736E0,0E0,5.3841352E0,0E0,0E0,6.9835663E0,5.052474E0,0E0,0E0,6.739264E0,8.301722E0,6.3871803E0,0E0,0E0,0E0,0E0,0E0],"parents":[2147483647,0,0,1,1,2,2,5,5,7,7,9,9,10,10,12,12,15,15,16,16,19,19,20,20,21,21],"right_children":[2,4,6,-1,-1,8,-1,10,-1,12,14,-1,16,-1,-1,18,20,-1,-1,22,24,26,-1,-1,-1,-1,-1],"split_conditions":[-4.6729773E-1,-5.8768296E-1,9.308256E-1,-1.5363689E-2,1.20405346E-1,2.0718093E0,-2.7933922E-1,1.66626E0,-2.0116322E-1,-1.5114733E0,-2.9703787E-2,-2.310968E-1,4.8467852E-2,7.047499E-2,-2.193293E-1,-3.2665074E-1,1.1382612E-1,-1.6040038E-1,-2.1824287E-3,-4.6094656E-1,4.024556E-1,-4.811527E-1,-8.458426E-2,2.7659386E-2,2.5759274E-1,8.598345E-3,1.9952972E-1],"split_indices":[4,221,182,0,0,158,0,99,0,7,168,0,4,0,0,44,180,0,0,127,128,167,0,0,0,0,0],"split_type":[0,0,0,0,0,0,0,0,0,0,0,0,0,0,0,0,0,0,0,0,0,0,0,0,0,0,0],"sum_hessian":[5.31E2,1.18E2,4.13E2,4E1,7.8E1,4.01E2,1.2E1,3.87E2,1.4E1,3.58E2,2.9E1,8E0,3.5E2,8E0,2.1E1,1.33E2,2.17E2,3.4E1,9.9E1,1.5E2,6.7E1,9.8E1,5.2E1,4.6E1,2.1E1,7.8E1,2E1],"tree_param":{"num_deleted":"0","num_feature":"235","num_nodes":"27","size_leaf_vector":"1"}},{"base_weights":[3.914551E-3,-1.6480725E-2,9.658091E-1,1.1982547E-1,-1.0414013E-1,5.8164027E-2,5.422516E-1,-1.7375596E-3,3.2821175E-1,-6.4960346E-2,-9.6870494E-1,3.296947E-1,6.886933E-2,-1.4496152E-1,-2.1736441E-2,-5.691117E-1,-9.985393E-2,1.9529188E-1,-1.2322105E-1,2.5052605E-2,2.3503181E-1,-2.6778913E-1,1.6343024E-2,-1.1735481E-1,3.8095467E-2],"categories":[],"categories_nodes":[],"categories_segments":[],"categories_sizes":[],"default_left":[0,0,0,0,0,0,0,0,0,0,0,0,0,0,0,0,0,0,0,0,0,0,0,0,0],"id":18,"left_children":[1,3,5,7,9,-1,-1,-1,11,13,15,-1,-1,-1,17,-1,-1,19,21,-1,-1,23,-1,-1,-1],"loss_changes":[1.0468371E1,6.05493E0,6.554226E0,5.262576E0,1.0168186E1,0E0,0E0,0E0,5.254162E0,5.2185907E0,6.9761524E0,0E0,0E0,0E0,5.9275885E0,0E0,0E0,5.316371E0,4.826431E0,0E0,0E0,5.139222E0,0E0,0E0,0E0],"parents":[2147483647,0,0,1,1,2,2,3,3,4,4,8,8,9,9,10,10,14,14,17,17,18,18,21,21],"right_children":[2,4,6,8,10,-1,-1,-1,12,14,16,-1,-1,-1,18,-1,-1,20,22,-1,-1,24,-1,-1,-1],"split_conditions":[2.3464727E0,-2.6276445E-1,-8.9229666E-2,-7.470842E-2,1.8834374E0,5.8164027E-2,5.422516E-1,-1.7375596E-3,-7.340744E-1,-5.871035E-1,-7.128537E-1,3.296947E-1,6.886933E-2,-1.4496152E-1,-4.284746E-1,-5.691117E-1,-9.985393E-2,2.595328E-1,1.14865586E-1,2.5052605E-2,2.3503181E-1,1.3992153E0,1.6343024E-2,-1.1735481E-1,3.8095467E-2],"split_indices":[163,118,45,213,203,0,0,0,208,208,28,0,0,0,212,0,0,177,220,0,0,213,0,0,0],"split_type":[0,0,0,0,0,0,0,0,0,0,0,0,0,0,0,0,0,0,0,0,0,0,0,0,0],"sum_hessian":[5.18E2,5.07E2,1.1E1,1.97E2,3.1E2,6E0,5E0,1.22E2,7.5E1,2.97E2,1.3E1,8E0,6.7E1,2.7E1,2.7E2,5E0,8E0,8.5E1,1.85E2,7.2E1,1.3E1,1.03E2,8.2E1,7.9E1,2.4E1],"tree_param":{"num_deleted":"0","num_feature":"235","num_nodes":"25","size_leaf_vector":"1"}},{"base_weights":[-8.158218E-3,5.0239945E-3,-2.516633E-1,2.0970741E-1,-4.327783E-2,3.7570918E-1,-7.811827E-2,-4.7053078E-1,-1.1953585E-2,-1.2229089E-1,1.4448997E-1,-4.2061865E-1,-6.839213E-2,-4.2539623E-2,4.9925694E-1,3.7080772E-2,-1.3116358E-1,2.8658825E-1,-8.550556E-3,-5.7673965E-2,2.076266E-1,-8.183611E-2,1.9528046E-1],"categories":[],"categories_nodes":[],"categories_segments":[],"categories_sizes":[],"default_left":[0,0,0,0,0,0,0,0,0,0,0,0,0,0,0,0,0,0,0,0,0,0,0],"id":19,"left_children":[1,3,-1,5,7,9,-1,11,13,-1,-1,-1,-1,15,17,-1,19,-1,-1,-1,21,-1,-1],"loss_changes":[5.6867604E0,4.859622E0,0E0,7.3936825E0,5.092821E0,5.9041834E0,0E0,5.350758E0,5.5799413E0,0E0,0E0,0E0,0E0,5.1057844E0,5.1496677E0,0E0,4.7223725E0,0E0,0E0,0E0,7.4191875E0,0E0,0E0],"parents":[2147483647,0,0,1,1,3,3,4,4,5,5,7,7,8,8,13,13,14,14,16,16,20,20],"right_children":[2,4,-1,6,8,10,-1,12,14,-1,-1,-1,-1,16,18,-1,20,-1,-1,-1,22,-1,-1],"split_conditions":[3.2536361E0,-5.0456274E-1,-2.516633E-1,-1.9640484E-1,-6.5449554E-1,-6.858228E-1,-7.811827E-2,-7.6776665E-1,1.8056722E0,-1.2229089E-1,1.4448997E-1,-4.2061865E-1,-6.839213E-2,-3.2046396E-1,5.0243425E-1,3.7080772E-2,1.3516059E0,2.8658825E-1,-8.550556E-3,-5.7673965E-2,2.9106706E-1,-8.183611E-2,1.9528046E-1],"split_indices":[218,57,0,118,128,222,0,183,221,0,0,0,0,224,50,0,225,0,0,0,193,0,0],"split_type":[0,0,0,0,0,0,0,0,0,0,0,0,0,0,0,0,0,0,0,0,0,0,0],"sum_hessian":[4.94E2,4.86E2,8E0,9.4E1,3.92E2,7E1,2.4E1,2.6E1,3.66E2,8E0,6.2E1,5E0,2.1E1,3.46E2,2E1,1.19E2,2.27E2,1.1E1,9E0,1.93E2,3.4E1,1.6E1,1.8E1],"tree_param":{"num_deleted":"0","num_feature":"235","num_nodes":"23","size_leaf_vector":"1"}},{"base_weights":[-6.592993E-3,1.629241E-1,-9.8171115E-2,1.1909849E-1,4.1879484E-1,-2.3985684E-1,1.114167E-3,-7.363162E-2,6.2928155E-2,-0E0,-1.2927903E-1,-3.5896804E-2,2.203183E-1],"categories":[],"categories_nodes":[],"categories_segments":[],"categories_sizes":[],"default_left":[0,0,0,0,0,0,0,0,0,0,0,0,0],"id":20,"left_children":[1,3,5,7,-1,9,-1,-1,-1,11,-1,-1,-1],"loss_changes":[8.2252245E0,9.522012E0,5.071742E0,5.9408717E0,0E0,6.702837E0,0E0,0E0,0E0,5.7209597E0,0E0,0E0,0E0],"parents":[2147483647,0,0,1,1,2,2,3,3,5,5,9,9],"right_children":[2,4,6,8,-1,10,-1,-1,-1,12,-1,-1,-1],"split_conditions":[-2.7357617E-1,1.6209787E0,5.8112048E-2,-6.503446E-1,4.1879484E-1,-2.8447732E-1,1.114167E-3,-7.363162E-2,6.2928155E-2,9.252011E-1,-1.2927903E-1,-3.5896804E-2,2.203183E-1],"split_indices":[85,163,133,183,0,173,0,0,0,164,0,0,0],"split_type":[0,0,0,0,0,0,0,0,0,0,0,0,0],"sum_hessian":[5.31E2,1.85E2,3.46E2,1.79E2,6E0,1.46E2,2E2,3.5E1,1.44E2,6.5E1,8.1E1,5.6E1,9E0],"tree_param":{"num_deleted":"0","num_feature":"235","num_nodes":"13","size_leaf_vector":"1"}},{"base_weights":[-3.980307E-2,4.4436857E-2,-2.4843074E-1,2.31567E-2,2.2056395E-1,-3.9964777E-1,-1.9812433E-1,-1.7145301E-1,1.0011959E-1,-3.423745E-1,1.2535516E-2,-7.1637705E-3,-2.2459653E-1,-5.4035205E-2,2.5062817E-1,-5.68667E-1,-2.0330686E-2,-6.085131E-2,2.3979586E-1,4.5034024E-1,-2.7711287E-2,-1.3259932E-1,-4.609502E-1,8.837391E-3,2.4964121E-1,9.234849E-1,8.384279E-2,6.507327E-2,-1.2097808E-1,5.1632786E-1,1.5603577E-1],"categories":[],"categories_nodes":[],"categories_segments":[],"categories_sizes":[],"default_left":[0,0,0,0,0,0,0,0,0,0,0,0,0,0,0,0,0,0,0,0,0,0,0,0,0,0,0,0,0,0,0],"id":21,"left_children":[1,3,5,7,-1,-1,9,11,13,15,-1,-1,-1,17,19,21,-1,-1,23,25,27,-1,-1,-1,-1,29,-1,-1,-1,-1,-1],"loss_changes":[8.802214E0,4.9553766E0,7.359642E0,5.117261E0,0E0,0E0,4.877217E0,7.9511127E0,5.796663E0,5.202717E0,0E0,0E0,0E0,5.2984405E0,7.144734E0,5.064003E0,0E0,0E0,4.7268343E0,5.5669622E0,4.867296E0,0E0,0E0,0E0,0E0,5.356413E0,0E0,0E0,0E0,0E0,0E0],"parents":[2147483647,0,0,1,1,2,2,3,3,6,6,7,7,8,8,9,9,13,13,14,14,15,15,18,18,19,19,20,20,25,25],"right_children":[2,4,6,8,-1,-1,10,12,14,16,-1,-1,-1,18,20,22,-1,-1,24,26,28,-1,-1,-1,-1,30,-1,-1,-1,-1,-1],"split_conditions":[4.316824E-1,3.763927E-1,-6.2148845E-1,-3.7433097E-1,2.2056395E-1,-3.9964777E-1,-2.2298041E-1,-3.9481652E-1,-3.8666025E-1,4.0662116E-1,1.2535516E-2,-7.1637705E-3,-2.2459653E-1,-2.2904788E-1,6.977663E-2,1.0943757E0,-2.0330686E-2,-6.085131E-2,-2.5256056E-1,-3.6602542E-1,1.0867557E-1,-1.3259932E-1,-4.609502E-1,8.837391E-3,2.4964121E-1,-5.665215E-1,8.384279E-2,6.507327E-2,-1.2097808E-1,5.1632786E-1,1.5603577E-1],"split_indices":[208,208,213,192,0,0,37,155,133,71,0,0,0,173,212,209,0,0,198,234,209,0,0,0,0,113,0,0,0,0,0],"split_type":[0,0,0,0,0,0,0,0,0,0,0,0,0,0,0,0,0,0,0,0,0,0,0,0,0,0,0,0,0,0,0],"sum_hessian":[4.97E2,3.53E2,1.44E2,3.43E2,1E1,6E0,1.38E2,9.6E1,2.47E2,8.7E1,5.1E1,7.7E1,1.9E1,1.21E2,1.26E2,4.7E1,4E1,8.1E1,4E1,7.4E1,5.2E1,4.2E1,5E0,3E1,1E1,1.9E1,5.5E1,3.1E1,2.1E1,6E0,1.3E1],"tree_param":{"num_deleted":"0","num_feature":"235","num_nodes":"31","size_leaf_vector":"1"}},{"base_weights":[4.62364E-2],"categories":[],"categories_nodes":[],"categories_segments":[],"categories_sizes":[],"default_left":[0],"id":22,"left_children":[-1],"loss_changes":[0E0],"parents":[2147483647],"right_children":[-1],"split_conditions":[1.3847975E-2],"split_indices":[0],"split_type":[0],"sum_hessian":[5.12E2],"tree_param":{"num_deleted":"0","num_feature":"235","num_nodes":"1","size_leaf_vector":"1"}},{"base_weights":[-1.1119946E-2,5.2936397E-2,-5.0045237E-2,3.6662158E-2,2.9562578E-1,-5.908246E-3,2.7757534E-1,1.8279426E-1,-1.6836377E-2],"categories":[],"categories_nodes":[],"categories_segments":[],"categories_sizes":[],"default_left":[0,0,0,0,0,0,0,0,0],"id":23,"left_children":[1,3,-1,5,-1,-1,7,-1,-1],"loss_changes":[5.343321E0,5.3720226E0,0E0,5.096757E0,0E0,0E0,8.074958E0,0E0,0E0],"parents":[2147483647,0,0,1,1,3,3,6,6],"right_children":[2,4,-1,6,-1,-1,8,-1,-1],"split_conditions":[3.520252E-1,2.1587598E0,-5.0045237E-2,6.920215E-1,2.9562578E-1,-5.908246E-3,-2.8390633E-2,1.8279426E-1,-1.6836377E-2],"split_indices":[118,188,0,231,0,0,58,0,0],"split_type":[0,0,0,0,0,0,0,0,0],"sum_hessian":[5.31E2,3.75E2,1.56E2,3.69E2,6E0,2.98E2,7.1E1,3.6E1,3.5E1],"tree_param":{"num_deleted":"0","num_feature":"235","num_nodes":"9","size_leaf_vector":"1"}},{"base_weights":[2.1698868E-2],"categories":[],"categories_nodes":[],"categories_segments":[],"categories_sizes":[],"default_left":[0],"id":24,"left_children":[-1],"loss_changes":[0E0],"parents":[2147483647],"right_children":[-1],"split_conditions":[6.4988923E-3],"split_indices":[0],"split_type":[0],"sum_hessian":[5.34E2],"tree_param":{"num_deleted":"0","num_feature":"235","num_nodes":"1","size_leaf_vector":"1"}},{"base_weights":[1.8492047E-2],"categories":[],"categories_nodes":[],"categories_segments":[],"categories_sizes":[],"default_left":[0],"id":25,"left_children":[-1],"loss_changes":[0E0],"parents":[2147483647],"right_children":[-1],"split_conditions":[5.538437E-3],"split_indices":[0],"split_type":[0],"sum_hessian":[5.18E2],"tree_param":{"num_deleted":"0","num_feature":"235","num_nodes":"1","size_leaf_vector":"1"}},{"base_weights":[1.695856E-3],"categories":[],"categories_nodes":[],"categories_segments":[],"categories_sizes":[],"default_left":[0],"id":26,"left_children":[-1],"loss_changes":[0E0],"parents":[2147483647],"right_children":[-1],"split_conditions":[5.079152E-4],"split_indices":[0],"split_type":[0],"sum_hessian":[5.26E2],"tree_param":{"num_deleted":"0","num_feature":"235","num_nodes":"1","size_leaf_vector":"1"}},{"base_weights":[-1.9684527E-2,-2.9130727E-3,-2.9563427E-1],"categories":[],"categories_nodes":[],"categories_segments":[],"categories_sizes":[],"default_left":[0,0,0],"id":27,"left_children":[1,-1,-1],"loss_changes":[4.7970114E0,0E0,0E0],"parents":[2147483647,0,0],"right_children":[2,-1,-1],"split_conditions":[1.9816573E0,-2.9130727E-3,-2.9563427E-1],"split_indices":[124,0,0],"split_type":[0,0,0],"sum_hessian":[5.31E2,5.26E2,5E0],"tree_param":{"num_deleted":"0","num_feature":"235","num_nodes":"3","size_leaf_vector":"1"}},{"base_weights":[-7.1965205E-3],"categories":[],"categories_nodes":[],"categories_segments":[],"categories_sizes":[],"default_left":[0],"id":28,"left_children":[-1],"loss_changes":[0E0],"parents":[2147483647],"right_children":[-1],"split_conditions":[-2.1553847E-3],"split_indices":[0],"split_type":[0],"sum_hessian":[5.4E2],"tree_param":{"num_deleted":"0","num_feature":"235","num_nodes":"1","size_leaf_vector":"1"}},{"base_weights":[2.4484436E-3,-5.1763847E-2,5.2240852E-2,-9.263271E-3,-2.6937357E-1],"categories":[],"categories_nodes":[],"categories_segments":[],"categories_sizes":[],"default_left":[0,0,0,0,0],"id":29,"left_children":[1,3,-1,-1,-1],"loss_changes":[4.88879E0,6.6602707E0,0E0,0E0,0E0],"parents":[2147483647,0,0,1,1],"right_children":[2,4,-1,-1,-1],"split_conditions":[5.920787E-1,2.0585575E0,5.2240852E-2,-9.263271E-3,-2.6937357E-1],"split_indices":[163,203,0,0,0],"split_type":[0,0,0,0,0],"sum_hessian":[5.2E2,3.94E2,1.26E2,3.85E2,9E0],"tree_param":{"num_deleted":"0","num_feature":"235","num_nodes":"5","size_leaf_vector":"1"}},{"base_weights":[2.3861183E-2,-2.050345E-1,1.1952763E-2],"categories":[],"categories_nodes":[],"categories_segments":[],"categories_sizes":[],"default_left":[0,0,0],"id":30,"left_children":[1,-1,-1],"loss_changes":[5.709008E0,0E0,0E0],"parents":[2147483647,0,0],"right_children":[2,-1,-1],"split_conditions":[-1.5731976E0,-2.050345E-1,1.1952763E-2],"split_indices":[72,0,0],"split_type":[0,0,0],"sum_hessian":[5.2E2,1.1E1,5.09E2],"tree_param":{"num_deleted":"0","num_feature":"235","num_nodes":"3","size_leaf_vector":"1"}},{"base_weights":[-7.3164334E-3],"categories":[],"categories_nodes":[],"categories_segments":[],"categories_sizes":[],"default_left":[0],"id":31,"left_children":[-1],"loss_changes":[0E0],"parents":[2147483647],"right_children":[-1],"split_conditions":[-2.191299E-3],"split_indices":[0],"split_type":[0],"sum_hessian":[5.21E2],"tree_param":{"num_deleted":"0","num_feature":"235","num_nodes":"1","size_leaf_vector":"1"}},{"base_weights":[1.4778444E-2,-3.3235224E-3,3.8435325E-1,2.9895915E-2,3.2511514E-1],"categories":[],"categories_nodes":[],"categories_segments":[],"categories_sizes":[],"default_left":[0,0,0,0,0],"id":32,"left_children":[1,-1,3,-1,-1],"loss_changes":[5.274739E0,0E0,6.8111706E0,0E0,0E0],"parents":[2147483647,0,0,2,2],"right_children":[2,-1,4,-1,-1],"split_conditions":[1.2594041E0,-3.3235224E-3,1.20314695E-1,2.9895915E-2,3.2511514E-1],"split_indices":[209,0,121,0,0],"split_type":[0,0,0,0,0],"sum_hessian":[5.39E2,5.03E2,3.6E1,2.6E1,1E1],"tree_param":{"num_deleted":"0","num_feature":"235","num_nodes":"5","size_leaf_vector":"1"}},{"base_weights":[-4.848132E-3],"categories":[],"categories_nodes":[],"categories_segments":[],"categories_sizes":[],"default_left":[0],"id":33,"left_children":[-1],"loss_changes":[0E0],"parents":[2147483647],"right_children":[-1],"split_conditions":[-1.4520336E-3],"split_indices":[0],"split_type":[0],"sum_hessian":[4.96E2],"tree_param":{"num_deleted":"0","num_feature":"235","num_nodes":"1","size_leaf_vector":"1"}},