{"learner":{"attributes":{"scikit_learn":"{\"_estimator_type\": \"regressor\"}"},"feature_names":["Open","High","Low","Close","Volume","macd","macd_signal","macd_diff","rsi","bollinger_mavg","bollinger_hband","bollinger_lband","bollinger_width","bollinger_pband","sma_5","ema_5","close_sma_5_ratio","close_ema_5_ratio","sma_10","ema_10","close_sma_10_ratio","close_ema_10_ratio","sma_20","ema_20","close_sma_20_ratio","close_ema_20_ratio","sma_50","ema_50","close_sma_50_ratio","close_ema_50_ratio","sma_200","ema_200","close_sma_200_ratio","close_ema_200_ratio","stoch_k","stoch_d","atr","obv","vwap","open_lag_1","high_lag_1","low_lag_1","close_lag_1","volume_lag_1","return_1d","volume_change_1d","open_lag_2","high_lag_2","low_lag_2","close_lag_2","volume_lag_2","return_2d","volume_change_2d","open_lag_3","high_lag_3","low_lag_3","close_lag_3","volume_lag_3","return_3d","volume_change_3d","open_lag_4","high_lag_4","low_lag_4","close_lag_4","volume_lag_4","return_4d","volume_change_4d","open_lag_5","high_lag_5","low_lag_5","close_lag_5","volume_lag_5","return_5d","volume_change_5d","open_lag_6","high_lag_6","low_lag_6","close_lag_6","volume_lag_6","return_6d","volume_change_6d","open_lag_7","high_lag_7","low_lag_7","close_lag_7","volume_lag_7","return_7d","volume_change_7d","open_lag_8","high_lag_8","low_lag_8","close_lag_8","volume_lag_8","return_8d","volume_change_8d","open_lag_9","high_lag_9","low_lag_9","close_lag_9","volume_lag_9","return_9d","volume_change_9d","open_lag_10","high_lag_10","low_lag_10","close_lag_10","volume_lag_10","return_10d","volume_change_10d","open_lag_11","high_lag_11","low_lag_11","close_lag_11","volume_lag_11","open_lag_12","high_lag_12","low_lag_12","close_lag_12","volume_lag_12","open_lag_13","high_lag_13","low_lag_13","close_lag_13","volume_lag_13","open_lag_14","high_lag_14","low_lag_14","close_lag_14","volume_lag_14","open_lag_15","high_lag_15","low_lag_15","close_lag_15","volume_lag_15","open_lag_16","high_lag_16","low_lag_16","close_lag_16","volume_lag_16","open_lag_17","high_lag_17","low_lag_17","close_lag_17","volume_lag_17","open_lag_18","high_lag_18","low_lag_18","close_lag_18","volume_lag_18","open_lag_19","high_lag_19","low_lag_19","close_lag_19","volume_lag_19","open_lag_20","high_lag_20","low_lag_20","close_lag_20","volume_lag_20","open_lag_21","high_lag_21","low_lag_21","close_lag_21","volume_lag_21","open_lag_22","high_lag_22","low_lag_22","close_lag_22","volume_lag_22","open_lag_23","high_lag_23","low_lag_23","close_lag_23","volume_lag_23","open_lag_24","high_lag_24","low_lag_24","close_lag_24","volume_lag_24","open_lag_25","high_lag_25","low_lag_25","close_lag_25","volume_lag_25","open_lag_26","high_lag_26","low_lag_26","close_lag_26","volume_lag_26","open_lag_27","high_lag_27","low_lag_27","close_lag_27","volume_lag_27","open_lag_28","high_lag_28","low_lag_28","close_lag_28","volume_lag_28","open_lag_29","high_lag_29","low_lag_29","close_lag_29","volume_lag_29","open_lag_30","high_lag_30","low_lag_30","close_lag_30","volume_lag_30","gap_open","gap_close","day_range","close_position","volatility_5d","momentum_5d","volume_trend_5d","volatility_10d","momentum_10d","volume_trend_10d","volatility_20d","momentum_20d","volume_trend_20d","volatility_50d","momentum_50d","volume_trend_50d","high_low_ratio","close_open_ratio","day_of_week","month","quarter","year","day_sin","day_cos","month_sin","month_cos"],"feature_types":["float","float","float","float","float","float","float","float","float","float","float","float","float","float","float","float","float","float","float","float","float","float","float","float","float","float","float","float","float","float","float","float","float","float","float","float","float","float","float","float","float","float","float","float","float","float","float","float","float","float","float","float","float","float","float","float","float","float","float","float","float","float","float","float","float","float","float","float","float","float","float","float","float","float","float","float","float","float","float","float","float","float","float","float","float","float","float","float","float","float","float","float","float","float","float","float","float","float","float","float","float","float","float","float","float","float","float","float","float","float","float","float","float","float","float","float","float","float","float","float","float","float","float","float","float","float","float","float","float","float","float","float","float","float","float","float","float","float","float","float","float","float","float","float","float","float","float","float","float","float","float","float","float","float","float","float","float","float","float","float","float","float","float","float","float","float","float","float","float","float","float","float","float","float","float","float","float","float","float","float","float","float","float","float","float","float","float","float","float","float","float","float","float","float","float","float","float","float","float","float","float","float","float","float","float","float","float","float","float","float","float","float","float","float","float","float","float","float","float","float","float","float","float","float","float","float","float","float","float","float","float","float","float","float","float"],"gradient_booster":{"model":{"gbtree_model_param":{"num_parallel_tree":"1","num_trees":"294"},"iteration_indptr":[0,1,2,3,4,5,6,7,8,9,10,11,12,13,14,15,16,17,18,19,20,21,22,23,24,25,26,27,28,29,30,31,32,33,34,35,36,37,38,39,40,41,42,43,44,45,46,47,48,49,50,51,52,53,54,55,56,57,58,59,60,61,62,63,64,65,66,67,68,69,70,71,72,73,74,75,76,77,78,79,80,81,82,83,84,85,86,87,88,89,90,91,92,93,94,95,96,97,98,99,100,101,102,103,104,105,106,107,108,109,110,111,112,113,114,115,116,117,118,119,120,121,122,123,124,125,126,127,128,129,130,131,132,133,134,135,136,137,138,139,140,141,142,143,144,145,146,147,148,149,150,151,152,153,154,155,156,157,158,159,160,161,162,163,164,165,166,167,168,169,170,171,172,173,174,175,176,177,178,179,180,181,182,183,184,185,186,187,188,189,190,191,192,193,194,195,196,197,198,199,200,201,202,203,204,205,206,207,208,209,210,211,212,213,214,215,216,217,218,219,220,221,222,223,224,225,226,227,228,229,230,231,232,233,234,235,236,237,238,239,240,241,242,243,244,245,246,247,248,249,250,251,252,253,254,255,256,257,258,259,260,261,262,263,264,265,266,267,268,269,270,271,272,273,274,275,276,277,278,279,280,281,282,283,284,285,286,287,288,289,290,291,292,293,294],"tree_info":[0,0,0,0,0,0,0,0,0,0,0,0,0,0,0,0,0,0,0,0,0,0,0,0,0,0,0,0,0,0,0,0,0,0,0,0,0,0,0,0,0,0,0,0,0,0,0,0,0,0,0,0,0,0,0,0,0,0,0,0,0,0,0,0,0,0,0,0,0,0,0,0,0,0,0,0,0,0,0,0,0,0,0,0,0,0,0,0,0,0,0,0,0,0,0,0,0,0,0,0,0,0,0,0,0,0,0,0,0,0,0,0,0,0,0,0,0,0,0,0,0,0,0,0,0,0,0,0,0,0,0,0,0,0,0,0,0,0,0,0,0,0,0,0,0,0,0,0,0,0,0,0,0,0,0,0,0,0,0,0,0,0,0,0,0,0,0,0,0,0,0,0,0,0,0,0,0,0,0,0,0,0,0,0,0,0,0,0,0,0,0,0,0,0,0,0,0,0,0,0,0,0,0,0,0,0,0,0,0,0,0,0,0,0,0,0,0,0,0,0,0,0,0,0,0,0,0,0,0,0,0,0,0,0,0,0,0,0,0,0,0,0,0,0,0,0,0,0,0,0,0,0,0,0,0,0,0,0,0,0,0,0,0,0,0,0,0,0,0,0,0,0,0,0,0,0,0,0,0,0,0,0,0,0,0,0,0,0,0,0,0,0,0,0],"trees":[{"base_weights":[-1.5921508E-1,-2.035094E1,1.9372824E1,-2.6755709E1,-9.748753E0,1.2939474E1,5.3928497E1,-1.119652E1,-2.2695864E1,-4.4895062E0,-5.513813E0,6.4390225E0,2.2404072E1,1.7058912E1,1.28925E1,-7.733985E0,-6.147543E0,-6.95688E0,-1.6109359E0,2.9703536E0,9.03919E0,5.269672E0,7.4865427E0,-1.0341176E0,-7.559561E0,-2.9132493E-2,-6.77254E-1,1.2075906E0,4.305266E0,7.4287615E0,1.1141106E1,-1.075972E0,-8.143509E0,2.1020622E0,-3.164092E-1,1.6822246E0,3.5756876E0,7.750064E0,1.2713007E0,1.9347888E0,3.4878566E0,-9.4619465E0,-6.3790684E0,1.4603567E0,1.1842153E0,4.1588893E0,6.406474E-1,8.32591E0,6.119119E0,-2.178559E0,-3.3524885E0,-2.284255E0,-1.2163712E0,-8.166355E-2,1.8953426E0,1.6065446E0,3.021059E0,1.641301E0,8.893888E0,1.3137678E0,2.1453683E0,2.3772988E-1,9.4380605E-1,1.1794844E0,4.7087595E-1,1.7323092E0,2.8044398E0],"categories":[],"categories_nodes":[],"categories_segments":[],"categories_sizes":[],"default_left":[0,0,0,0,0,0,0,0,0,0,0,0,0,0,0,0,0,0,0,0,0,0,0,0,0,0,0,0,0,0,0,0,0,0,0,0,0,0,0,0,0,0,0,0,0,0,0,0,0,0,0,0,0,0,0,0,0,0,0,0,0,0,0,0,0,0,0],"id":0,"left_children":[1,3,5,7,9,11,13,-1,15,-1,17,19,21,-1,-1,-1,-1,23,25,27,29,-1,-1,-1,31,-1,-1,33,35,37,39,-1,41,43,-1,-1,45,47,-1,-1,-1,49,51,-1,53,55,-1,57,59,-1,-1,-1,-1,-1,61,-1,63,-1,65,-1,-1,-1,-1,-1,-1,-1,-1],"loss_changes":[2.611889E5,2.1944281E4,7.438991E4,8.286547E3,2.7123809E3,1.7418527E4,2.3676562E2,0E0,6.635547E2,0E0,3.845232E2,1.5121445E3,1.1824609E3,0E0,0E0,0E0,0E0,8.932251E1,1.921873E1,1.6961548E2,2.7342383E2,0E0,0E0,0E0,7.9146484E1,0E0,0E0,6.765433E1,2.6948303E1,3.6024902E1,5.2637207E1,0E0,4.5924316E1,5.640329E1,0E0,0E0,1.7824219E1,1.4313965E1,0E0,0E0,0E0,2.1916382E1,3.1108093E1,0E0,1.9749672E1,1.6411072E1,0E0,2.5361328E1,7.833191E0,0E0,0E0,0E0,0E0,0E0,1.5714462E1,0E0,1.1290253E1,0E0,8.431641E0,0E0,0E0,0E0,0E0,0E0,0E0,0E0,0E0],"parents":[2147483647,0,0,1,1,2,2,3,3,4,4,5,5,6,6,8,8,10,10,11,11,12,12,17,17,18,18,19,19,20,20,24,24,27,27,28,28,29,29,30,30,32,32,33,33,36,36,37,37,41,41,42,42,44,44,45,45,47,47,48,48,54,54,56,56,58,58],"right_children":[2,4,6,8,10,12,14,-1,16,-1,18,20,22,-1,-1,-1,-1,24,26,28,30,-1,-1,-1,32,-1,-1,34,36,38,40,-1,42,44,-1,-1,46,48,-1,-1,-1,50,52,-1,54,56,-1,58,60,-1,-1,-1,-1,-1,62,-1,64,-1,66,-1,-1,-1,-1,-1,-1,-1,-1],"split_conditions":[-1.35875475E-2,-4.8055178E-1,9.440218E-1,-8.8908416E-1,-3.1736898E-1,4.547155E-1,-9.296313E-2,-1.119652E1,-6.7275405E-1,-4.4895062E0,-7.254349E-2,1.8533911E-1,6.37258E-1,1.7058912E1,1.28925E1,-7.733985E0,-6.147543E0,-5.650636E-1,-4.0483952E-1,1.0116449E-1,3.079818E-1,5.269672E0,7.4865427E0,-1.0341176E0,-2.7237207E-1,-2.9132493E-2,-6.77254E-1,1.4076991E-1,-4.7749767E-1,1.3604959E0,1.530109E-1,-1.075972E0,4.1423547E-1,-5.143687E-1,-3.164092E-1,1.6822246E0,4.520434E-1,4.366865E-1,1.2713007E0,1.9347888E0,3.4878566E0,-2.3149738E-1,3.201116E-1,1.4603567E0,-1.5980542E-1,5E-1,6.406474E-1,-6.0236454E-1,-2.0812422E-1,-2.178559E0,-3.3524885E0,-2.284255E0,-1.2163712E0,-8.166355E-2,-3.5785872E-1,1.6065446E0,2.3084989E-1,1.641301E0,8.259533E-2,1.3137678E0,2.1453683E0,2.3772988E-1,9.4380605E-1,1.1794844E0,4.7087595E-1,1.7323092E0,2.8044398E0],"split_indices":[3,3,3,1,3,3,4,0,3,0,3,3,3,0,0,0,0,59,156,3,3,0,0,0,211,0,0,173,153,158,103,0,173,213,0,0,204,35,0,0,0,19,153,0,87,227,0,219,224,0,0,0,0,0,113,0,49,0,48,0,0,0,0,0,0,0,0],"split_type":[0,0,0,0,0,0,0,0,0,0,0,0,0,0,0,0,0,0,0,0,0,0,0,0,0,0,0,0,0,0,0,0,0,0,0,0,0,0,0,0,0,0,0,0,0,0,0,0,0,0,0,0,0,0,0,0,0,0,0,0,0,0,0,0,0,0,0],"sum_hessian":[6.61E2,3.25E2,3.36E2,2.02E2,1.23E2,2.84E2,5.2E1,5.4E1,1.48E2,5.4E1,6.9E1,1.69E2,1.15E2,3.8E1,1.4E1,5.6E1,9.2E1,5E1,1.9E1,7.3E1,9.6E1,4.3E1,7.2E1,8E0,4.2E1,6E0,1.3E1,3.2E1,4.1E1,5.6E1,4E1,6E0,3.6E1,2.3E1,9E0,1.3E1,2.8E1,5E1,6E0,5E0,3.5E1,1.9E1,1.7E1,5E0,1.8E1,1.9E1,9E0,3.5E1,1.5E1,1E1,9E0,1E1,7E0,6E0,1.2E1,8E0,1.1E1,7E0,2.8E1,7E0,8E0,7E0,5E0,6E0,5E0,5E0,2.3E1],"tree_param":{"num_deleted":"0","num_feature":"235","num_nodes":"67","size_leaf_vector":"1"}},{"base_weights":[1.4079759E-1,-1.3268316E1,1.453812E1,-1.8885292E1,-6.58451E0,9.837525E0,3.8259277E1,-2.6502052E1,-1.5885026E1,-1.0216327E1,-2.714033E0,4.654849E0,1.5701732E1,9.690681E0,1.2528685E1,-8.64881E0,-6.5106544E0,-1.7516981E1,-1.403082E1,-1.0996274E1,-7.971532E0,-4.647943E0,-9.230317E-1,3.1773982E0,7.225876E0,1.2511878E1,1.7932423E1,-5.3815107E0,-3.7580626E0,-4.713678E0,-3.8131077E0,-1.1279438E1,-2.091054E0,-1.8037362E0,-2.7187338E0,-5.1330967E0,-5.6163204E-1,-2.115514E0,1.3437068E-1,2.1084318E0,4.4788456E0,5.7432947E0,2.5487792E0,3.842271E0,2.3838198E0,3.0828707E0,5.4925394E0,-2.352426E0,-3.4863646E0,-8.4520006E-1,-5.966753E0,-1.8266304E-1,-2.7441325E0,8.367453E-1,-4.8675242E-1,6.934846E-1,2.712635E0,4.006182E0,2.101591E0,6.2903023E0,8.915023E-1,-1.9382255E0,-1.0892023E0,-4.8439315E-1,-9.7584647E-1,6.445414E-1,-3.1339083E-2,4.445214E-1,-3.029687E-1,1.7259439E0,3.6035395E0,4.328923E0,8.392512E-1,2.129049E0,1.3430943E0,-2.8598222E-1,2.648632E-1,-1.3669458E-1,2.55281E0,1.312609E0,7.670244E-1,1.395519E0,7.3161024E-1,9.819047E-1,4.3406886E-1],"categories":[],"categories_nodes":[],"categories_segments":[],"categories_sizes":[],"default_left":[0,0,0,0,0,0,0,0,0,0,0,0,0,0,0,0,0,0,0,0,0,0,0,0,0,0,0,0,0,0,0,0,0,0,0,0,0,0,0,0,0,0,0,0,0,0,0,0,0,0,0,0,0,0,0,0,0,0,0,0,0,0,0,0,0,0,0,0,0,0,0,0,0,0,0,0,0,0,0,0,0,0,0,0,0],"id":1,"left_children":[1,3,5,7,9,11,13,15,17,19,21,23,25,-1,-1,-1,-1,27,29,31,33,35,37,39,41,43,45,-1,-1,-1,-1,47,-1,-1,-1,49,-1,51,53,55,57,59,-1,-1,-1,-1,-1,-1,-1,-1,61,-1,63,65,-1,67,69,71,-1,73,-1,-1,-1,-1,-1,-1,75,-1,-1,77,79,81,-1,-1,-1,-1,-1,-1,83,-1,-1,-1,-1,-1,-1],"loss_changes":[1.3036408E5,1.304573E4,3.6067586E4,4.063914E3,2.2395889E3,8.238307E3,2.8257812E2,2.0450781E2,2.5860156E2,8.786914E1,2.6927667E2,5.3796655E2,7.6396094E2,0E0,0E0,0E0,0E0,2.9140625E1,2.0097656E1,1.6201172E1,1.5829712E1,4.395233E1,5.2806942E1,1.2384802E2,7.007593E1,2.093457E1,1.3448438E2,0E0,0E0,0E0,0E0,1.365918E1,0E0,0E0,0E0,4.9459778E1,0E0,1.7279068E1,2.885856E1,4.3583145E1,3.1744446E1,2.7677734E1,0E0,0E0,0E0,0E0,0E0,0E0,0E0,0E0,1.179364E1,0E0,4.3283005E0,1.9261375E1,0E0,2.3570469E1,2.7912872E1,5.965332E0,0E0,1.1442322E1,0E0,0E0,0E0,0E0,0E0,0E0,9.586314E0,0E0,0E0,3.4522217E1,7.659256E0,1.0126465E1,0E0,0E0,0E0,0E0,0E0,0E0,7.677376E0,0E0,0E0,0E0,0E0,0E0,0E0],"parents":[2147483647,0,0,1,1,2,2,3,3,4,4,5,5,6,6,7,7,8,8,9,9,10,10,11,11,12,12,17,17,18,18,19,19,20,20,21,21,22,22,23,23,24,24,25,25,26,26,31,31,35,35,37,37,38,38,39,39,40,40,41,41,50,50,52,52,53,53,55,55,56,56,57,57,59,59,66,66,69,69,70,70,71,71,78,78],"right_children":[2,4,6,8,10,12,14,16,18,20,22,24,26,-1,-1,-1,-1,28,30,32,34,36,38,40,42,44,46,-1,-1,-1,-1,48,-1,-1,-1,50,-1,52,54,56,58,60,-1,-1,-1,-1,-1,-1,-1,-1,62,-1,64,66,-1,68,70,72,-1,74,-1,-1,-1,-1,-1,-1,76,-1,-1,78,80,82,-1,-1,-1,-1,-1,-1,84,-1,-1,-1,-1,-1,-1],"split_conditions":[4.4522185E-2,-5.2085197E-1,9.1884434E-1,-9.005262E-1,-2.7700773E-1,4.2344975E-1,1.6114998E0,-1.0401223E0,-3.3216056E-1,-3.6035046E-1,-7.254349E-2,2.3819499E-1,6.63635E-1,9.690681E0,1.2528685E1,-8.64881E0,-6.5106544E0,8.229728E-1,-7.111092E-1,1.2581662E0,1.4657436E-1,1.525259E0,-4.6469476E-2,1.5634744E-1,3.1978542E-1,2.276992E0,-1.4649163E-1,-5.3815107E0,-3.7580626E0,-4.713678E0,-3.8131077E0,-1.0042411E0,-2.091054E0,-1.8037362E0,-2.7187338E0,-3.716473E-1,-5.6163204E-1,-5.373055E-1,4.316824E-1,-3.3665845E-1,6.752445E-1,7.159836E-1,2.5487792E0,3.842271E0,2.3838198E0,3.0828707E0,5.4925394E0,-2.352426E0,-3.4863646E0,-8.4520006E-1,-1.10112205E-1,-1.8266304E-1,-5.276211E-1,-3.6836974E-2,-4.8675242E-1,1.4691833E-1,1.8058315E-1,2.101283E-1,2.101591E0,2.7870718E-1,8.915023E-1,-1.9382255E0,-1.0892023E0,-4.8439315E-1,-9.7584647E-1,6.445414E-1,1.08229294E-1,4.445214E-1,-3.029687E-1,-2.7916437E-1,1.4529511E-1,2.3305134E-1,8.392512E-1,2.129049E0,1.3430943E0,-2.8598222E-1,2.648632E-1,-1.3669458E-1,1.0949117E-1,1.312609E0,7.670244E-1,1.395519E0,7.3161024E-1,9.819047E-1,4.3406886E-1],"split_indices":[3,2,14,3,3,2,3,3,29,3,3,3,0,0,0,0,0,7,27,108,44,4,54,3,2,45,8,0,0,0,0,209,0,0,0,178,0,43,208,106,80,50,0,0,0,0,0,0,0,0,1,0,45,120,0,198,155,15,0,2,0,0,0,0,0,0,74,0,0,107,40,73,0,0,0,0,0,0,52,0,0,0,0,0,0],"split_type":[0,0,0,0,0,0,0,0,0,0,0,0,0,0,0,0,0,0,0,0,0,0,0,0,0,0,0,0,0,0,0,0,0,0,0,0,0,0,0,0,0,0,0,0,0,0,0,0,0,0,0,0,0,0,0,0,0,0,0,0,0,0,0,0,0,0,0,0,0,0,0,0,0,0,0,0,0,0,0,0,0,0,0,0,0],"sum_hessian":[6.74E2,3.49E2,3.25E2,1.89E2,1.6E2,2.72E2,5.3E1,5.2E1,1.37E2,8.2E1,7.8E1,1.45E2,1.27E2,2.3E1,3E1,3.2E1,2E1,7E1,6.7E1,5.9E1,2.3E1,3.7E1,4.1E1,9.3E1,5.2E1,5.4E1,7.3E1,6.2E1,8E0,2.5E1,4.2E1,5.4E1,5E0,1E1,1.3E1,3.1E1,6E0,1.9E1,2.2E1,5.2E1,4.1E1,2.6E1,2.6E1,4.9E1,5E0,5E0,6.8E1,7E0,4.7E1,9E0,2.2E1,6E0,1.3E1,1.6E1,6E0,1.6E1,3.6E1,3.6E1,5E0,2.1E1,5E0,1.7E1,5E0,5E0,8E0,6E0,1E1,1.1E1,5E0,1.8E1,1.8E1,2.7E1,9E0,1.3E1,8E0,5E0,5E0,5E0,1.3E1,9E0,9E0,2.2E1,5E0,7E0,6E0],"tree_param":{"num_deleted":"0","num_feature":"235","num_nodes":"85","size_leaf_vector":"1"}},{"base_weights":[-3.4360804E-2,-9.752305E0,9.6545E0,-1.3743418E1,-5.627086E0,6.4783883E0,2.7043116E1,-5.833254E0,-1.18018465E1,-7.561924E0,-2.679519E0,3.2629843E0,1.1091573E1,6.9187245E0,9.079405E0,-4.1132746E0,-1.1000926E1,-2.600754E0,-6.6994905E0,-3.8197749E0,-1.6778678E0,1.6805124E0,4.4884677E0,9.55177E0,4.1937804E0,-2.2920253E0,-3.3481085E0,-7.009406E0,-8.746986E-1,-3.1046534E0,-1.9807543E0,-3.2023117E-1,-2.8397143E0,1.1897278E0,3.0135975E0,3.741647E0,5.4209647E0,1.8489126E0,9.928885E0,-2.225675E0,-1.4817268E0,-1.1695151E0,-1.7208108E0,3.1663692E-1,-4.6084955E-1,-1.1529397E0,-2.7065364E-1,7.86305E-1,8.49362E-1,1.1456445E0,6.2205297E-1,4.7589105E-1,3.9845653E0,8.386129E-1,5.735833E0,1.7282515E0,3.064498E0,-2.2208173E-2,-9.4438607E-1,6.4619595E-1,3.594598E-1,3.41656E0,5.599235E0,1.2854947E0,6.344527E0,4.2617187E-2,6.063536E-1,7.6002026E-1,3.9837425E0,1.094515E0,2.0002005E0,1.4894705E0,2.171547E0,3.5330483E-1,-7.852777E-2,1.3668313E0,8.773031E-1],"categories":[],"categories_nodes":[],"categories_segments":[],"categories_sizes":[],"default_left":[0,0,0,0,0,0,0,0,0,0,0,0,0,0,0,0,0,0,0,0,0,0,0,0,0,0,0,0,0,0,0,0,0,0,0,0,0,0,0,0,0,0,0,0,0,0,0,0,0,0,0,0,0,0,0,0,0,0,0,0,0,0,0,0,0,0,0,0,0,0,0,0,0,0,0,0,0],"id":2,"left_children":[1,3,5,7,9,11,13,-1,15,17,19,21,23,-1,-1,-1,25,-1,27,29,31,33,35,37,-1,-1,-1,39,-1,41,-1,43,45,47,49,51,53,-1,55,-1,-1,-1,57,-1,-1,-1,-1,59,-1,-1,-1,-1,61,-1,63,-1,-1,-1,-1,-1,65,67,69,-1,71,73,-1,-1,75,-1,-1,-1,-1,-1,-1,-1,-1],"loss_changes":[6.3109625E4,5.4591953E3,1.8423201E4,1.7581074E3,9.311074E2,4.198167E3,2.2215625E2,0E0,1.0534766E2,6.0493652E1,7.168393E1,3.2184668E2,4.4329492E2,0E0,0E0,0E0,1.0166992E1,0E0,5.60271E1,4.7921814E1,5.700284E1,4.6283035E1,5.2447876E1,5.9651855E1,0E0,0E0,0E0,2.5297363E1,0E0,2.4136978E1,0E0,3.0834784E1,3.621747E1,3.5472076E1,9.577652E0,2.412201E1,2.2665283E1,0E0,5.704297E1,0E0,0E0,0E0,2.4874062E1,0E0,0E0,0E0,0E0,2.617123E1,0E0,0E0,0E0,0E0,3.1888855E1,0E0,1.3046387E1,0E0,0E0,0E0,0E0,0E0,1.8673828E1,1.1756744E1,8.476196E0,0E0,5.931946E0,1.0930968E1,0E0,0E0,4.405731E0,0E0,0E0,0E0,0E0,0E0,0E0,0E0,0E0],"parents":[2147483647,0,0,1,1,2,2,3,3,4,4,5,5,6,6,8,8,9,9,10,10,11,11,12,12,16,16,18,18,19,19,20,20,21,21,22,22,23,23,27,27,29,29,31,31,32,32,33,33,34,34,35,35,36,36,38,38,42,42,47,47,52,52,54,54,60,60,61,61,62,62,64,64,65,65,68,68],"right_children":[2,4,6,8,10,12,14,-1,16,18,20,22,24,-1,-1,-1,26,-1,28,30,32,34,36,38,-1,-1,-1,40,-1,42,-1,44,46,48,50,52,54,-1,56,-1,-1,-1,58,-1,-1,-1,-1,60,-1,-1,-1,-1,62,-1,64,-1,-1,-1,-1,-1,66,68,70,-1,72,74,-1,-1,76,-1,-1,-1,-1,-1,-1,-1,-1],"split_conditions":[1.0104773E-3,-5.411006E-1,8.9577484E-1,-9.8111874E-1,-2.7700773E-1,4.2363155E-1,1.6376876E0,-5.833254E0,-7.460552E-1,-4.6574354E-1,-1.4885731E-1,1.9644204E-1,7.5739706E-1,6.9187245E0,9.079405E0,-4.1132746E0,-3.8350368E-1,-2.600754E0,1.4952837E0,4.3521708E-1,2.1746736E-2,2.7652153E-1,2.9095584E-1,-4.086136E-1,4.1937804E0,-2.2920253E0,-3.3481085E0,6.9303125E-2,-8.746986E-1,-2.2516157E-1,-1.9807543E0,-4.482243E-2,-1.2525943E-1,5.0163066E-1,2.3372245E-1,-1.0611097E0,-3.495408E-2,1.8489126E0,-8.5366607E-1,-2.225675E0,-1.4817268E0,-1.1695151E0,5.7553675E-2,3.1663692E-1,-4.6084955E-1,-1.1529397E0,-2.7065364E-1,-4.6422434E-1,8.49362E-1,1.1456445E0,6.2205297E-1,4.7589105E-1,8.8538706E-1,8.386129E-1,-6.4435494E-1,1.7282515E0,3.064498E0,-2.2208173E-2,-9.4438607E-1,6.4619595E-1,3.807553E-1,2.4999315E-1,5.581509E-1,1.2854947E0,-5.6043863E-1,2.0923678E-2,6.063536E-1,7.6002026E-1,-3.7756894E-2,1.094515E0,2.0002005E0,1.4894705E0,2.171547E0,3.5330483E-1,-7.852777E-2,1.3668313E0,8.773031E-1],"split_indices":[3,3,46,40,3,1,3,0,3,3,0,3,3,0,0,0,64,0,193,153,66,135,3,32,0,0,0,37,0,153,0,42,7,100,56,44,139,0,51,0,0,0,94,0,0,0,0,193,0,0,0,0,128,0,128,0,0,0,0,0,195,37,133,0,85,41,0,0,193,0,0,0,0,0,0,0,0],"split_type":[0,0,0,0,0,0,0,0,0,0,0,0,0,0,0,0,0,0,0,0,0,0,0,0,0,0,0,0,0,0,0,0,0,0,0,0,0,0,0,0,0,0,0,0,0,0,0,0,0,0,0,0,0,0,0,0,0,0,0,0,0,0,0,0,0,0,0,0,0,0,0,0,0,0,0,0,0],"sum_hessian":[6.69E2,3.34E2,3.35E2,1.69E2,1.65E2,2.84E2,5.1E1,4.1E1,1.28E2,9.9E1,6.6E1,1.68E2,1.16E2,2.6E1,2.5E1,3.4E1,9.4E1,4E1,5.9E1,3E1,3.6E1,7.4E1,9.4E1,7.8E1,3.8E1,7E0,8.7E1,5.4E1,5E0,2.5E1,5E0,1.7E1,1.9E1,5.5E1,1.9E1,5.4E1,4E1,9E0,6.9E1,4.3E1,1.1E1,1.5E1,1E1,8E0,9E0,1.2E1,7E0,4.5E1,1E1,9E0,1E1,6E0,4.8E1,5E0,3.5E1,6E0,6.3E1,5E0,5E0,1E1,3.5E1,3.7E1,1.1E1,1.2E1,2.3E1,3E1,5E0,1.6E1,2.1E1,5E0,6E0,1.1E1,1.2E1,6E0,2.4E1,1.2E1,9E0],"tree_param":{"num_deleted":"0","num_feature":"235","num_nodes":"77","size_leaf_vector":"1"}},{"base_weights":[-2.4518642E-1,-7.0324216E0,6.404052E0,-1.1000772E1,-4.801739E0,4.379645E0,1.8338095E1,-4.2885027E0,-9.405418E0,-6.3223133E0,-2.186571E0,2.131972E0,7.655687E0,3.690334E0,5.9838557E0,-9.687257E0,-1.3146579E0,-6.538546E0,-4.0627365E0,-1.8523093E0,-1.9162986E0,1.4964256E0,3.3828695E0,5.7512636E0,8.496718E0,-3.6252937E0,-9.036242E0,-6.6788716E0,-1.2458721E0,-8.379549E-1,-1.4363155E0,-1.1106608E0,-2.620859E0,2.1322224E0,9.531488E-1,3.8842158E0,2.1710246E0,6.201844E0,1.188688E0,7.7396207E0,9.724432E0,-1.8290529E0,-2.800813E0,-6.878588E0,-1.347888E0,-1.5507584E0,5.1016974E-1,-1.7428373E0,-4.016229E0,1.1042668E0,1.9217722E0,2.0491567E0,3.1490958E-1,6.320705E-1,4.149862E0,2.1204726E-1,9.622015E-1,1.2747477E0,1.9942901E0,2.440171E0,1.5613815E0,3.0774088E0,1.8479208E0,-7.6551876E0,-6.1335387E0,-9.529005E-1,-1.0598199E0,-2.2190838E0,-1.6481787E-1,-1.3994465E0,-7.546374E-1,3.0921876E-1,2.1325378E0,8.140181E-1,1.1845407E-1,-4.0791813E-1,9.359878E-1,1.3426464E0,8.276602E-1,-7.9810433E0,-1.6581577E0,-1.667995E0,-2.1611357E0,-6.7263013E-1,-5.8297265E-1,-9.115083E-1,-5.0450283E-1,2.3179317E0,2.3123401E-1,-1.0026367E0,1.7969424E-1,1.1519059E-1,4.5631188E-1,-1.6190478E0,-2.4858868E0,3.5832368E-2,-4.182007E-1,4.49806E-1,7.9665756E-1,-5.8677304E-1,-5.9983227E-2],"categories":[],"categories_nodes":[],"categories_segments":[],"categories_sizes":[],"default_left":[0,0,0,0,0,0,0,0,0,0,0,0,0,0,0,0,0,0,0,0,0,0,0,0,0,0,0,0,0,0,0,0,0,0,0,0,0,0,0,0,0,0,0,0,0,0,0,0,0,0,0,0,0,0,0,0,0,0,0,0,0,0,0,0,0,0,0,0,0,0,0,0,0,0,0,0,0,0,0,0,0,0,0,0,0,0,0,0,0,0,0,0,0,0,0,0,0,0,0,0,0],"id":3,"left_children":[1,3,5,7,9,11,13,-1,15,17,19,21,23,-1,-1,25,-1,27,29,31,-1,33,35,37,39,-1,41,43,-1,-1,-1,45,47,49,51,53,55,57,-1,59,61,-1,-1,63,-1,65,-1,67,69,-1,71,73,75,-1,77,-1,-1,-1,-1,-1,-1,-1,-1,79,81,-1,83,85,-1,-1,-1,-1,87,-1,-1,89,91,-1,-1,93,-1,-1,-1,-1,95,-1,-1,97,-1,99,-1,-1,-1,-1,-1,-1,-1,-1,-1,-1,-1],"loss_changes":[3.0700436E4,2.9454102E3,8.249579E3,5.5915137E2,8.5213916E2,2.1585435E3,3.4493164E2,0E0,8.998926E1,4.9226562E1,1.0592966E2,1.3610242E2,1.5970703E2,0E0,0E0,5.456543E1,0E0,2.2695312E1,3.7424774E0,4.102243E1,0E0,3.9142975E1,2.9882751E1,1.4520752E1,2.7025879E1,0E0,2.688379E1,2.959375E1,0E0,0E0,0E0,5.083781E1,4.0069946E1,1.27957E1,4.4649372E1,1.31067505E1,2.689862E1,8.469971E0,0E0,3.0073486E1,1.7206787E1,0E0,0E0,2.9875488E1,0E0,2.5461418E1,0E0,1.2448357E1,5.62027E0,0E0,7.4800415E0,2.5528816E1,1.8967299E1,0E0,8.134094E0,0E0,0E0,0E0,0E0,0E0,0E0,0E0,0E0,4.35791E0,7.8012695E0,0E0,1.4694521E1,3.763771E0,0E0,0E0,0E0,0E0,8.389694E0,0E0,0E0,1.219716E1,6.873768E0,0E0,0E0,6.1154785E0,0E0,0E0,0E0,0E0,1.2044212E1,0E0,0E0,6.7246246E0,0E0,9.354146E0,0E0,0E0,0E0,0E0,0E0,0E0,0E0,0E0,0E0,0E0,0E0],"parents":[2147483647,0,0,1,1,2,2,3,3,4,4,5,5,6,6,8,8,9,9,10,10,11,11,12,12,15,15,17,17,18,18,19,19,21,21,22,22,23,23,24,24,26,26,27,27,31,31,32,32,33,33,34,34,35,35,36,36,37,37,39,39,40,40,43,43,45,45,47,47,48,48,50,50,51,51,52,52,54,54,63,63,64,64,66,66,67,67,72,72,75,75,76,76,79,79,84,84,87,87,89,89],"right_children":[2,4,6,8,10,12,14,-1,16,18,20,22,24,-1,-1,26,-1,28,30,32,-1,34,36,38,40,-1,42,44,-1,-1,-1,46,48,50,52,54,56,58,-1,60,62,-1,-1,64,-1,66,-1,68,70,-1,72,74,76,-1,78,-1,-1,-1,-1,-1,-1,-1,-1,80,82,-1,84,86,-1,-1,-1,-1,88,-1,-1,90,92,-1,-1,94,-1,-1,-1,-1,96,-1,-1,98,-1,100,-1,-1,-1,-1,-1,-1,-1,-1,-1,-1,-1],"split_conditions":[-1.35875475E-2,-6.4544624E-1,8.690477E-1,-1.0225894E0,-3.7094936E-1,4.0894976E-1,1.3617761E0,-4.2885027E0,-3.3597055E-1,6.9303125E-2,1.4572262E0,2.3819499E-1,5.7331413E-1,3.690334E0,5.9838557E0,-9.231153E-1,-1.3146579E0,1.3488833E0,-4.8843484E-2,1.344362E-1,-1.9162986E0,-1.4299007E-1,2.3053578E-1,-7.8508876E-2,7.908013E-1,-3.6252937E0,-4.849996E-1,1.0572786E0,-1.2458721E0,-8.379549E-1,-1.4363155E0,1.0555557E0,1.8789132E-1,-5.065493E-2,-2.4790086E-2,2.0599358E-1,6.797361E-1,-8.484649E-1,1.188688E0,8.724241E-1,8.5447943E-1,-1.8290529E0,-2.800813E0,-2.647037E-1,-1.347888E0,-3.8984978E-1,5.1016974E-1,1.267072E0,1.6566958E-1,1.1042668E0,8.5982315E-2,3.2695526E-1,1.6436046E-1,6.320705E-1,8.6072505E-1,2.1204726E-1,9.622015E-1,1.2747477E0,1.9942901E0,2.440171E0,1.5613815E0,3.0774088E0,1.8479208E0,1.9304792E0,4.5831212E-1,-9.529005E-1,-5.469556E-1,-1.0734695E0,-1.6481787E-1,-1.3994465E0,-7.546374E-1,3.0921876E-1,2.9065454E-1,8.140181E-1,1.1845407E-1,2.883196E-1,-2.535346E-1,1.3426464E0,8.276602E-1,-3.620652E-1,-1.6581577E0,-1.667995E0,-2.1611357E0,-6.7263013E-1,4.5130378E-1,-9.115083E-1,-5.0450283E-1,-5.712225E-1,2.3123401E-1,-2.8880513E-1,1.7969424E-1,1.1519059E-1,4.5631188E-1,-1.6190478E0,-2.4858868E0,3.5832368E-2,-4.182007E-1,4.49806E-1,7.9665756E-1,-5.8677304E-1,-5.9983227E-2],"split_indices":[3,3,1,1,15,3,1,0,89,37,216,3,2,0,0,226,0,203,153,66,0,163,92,123,3,0,221,12,0,0,0,43,149,77,117,119,71,216,0,170,54,0,0,37,0,76,0,215,112,0,39,52,149,0,207,0,0,0,0,0,0,0,0,222,138,0,224,20,0,0,0,0,7,0,0,12,128,0,0,203,0,0,0,0,78,0,0,178,0,73,0,0,0,0,0,0,0,0,0,0,0],"split_type":[0,0,0,0,0,0,0,0,0,0,0,0,0,0,0,0,0,0,0,0,0,0,0,0,0,0,0,0,0,0,0,0,0,0,0,0,0,0,0,0,0,0,0,0,0,0,0,0,0,0,0,0,0,0,0,0,0,0,0,0,0,0,0,0,0,0,0,0,0,0,0,0,0,0,0,0,0,0,0,0,0,0,0,0,0,0,0,0,0,0,0,0,0,0,0,0,0,0,0,0,0],"sum_hessian":[6.79E2,3.36E2,3.43E2,1.2E2,2.16E2,2.94E2,4.9E1,3.7E1,8.3E1,1.36E2,8E1,1.75E2,1.19E2,1.2E1,3.7E1,7.8E1,5E0,1.23E2,1.3E1,7.5E1,5E0,1.17E2,5.8E1,3.8E1,8.1E1,1.4E1,6.4E1,1.15E2,8E0,6E0,7E0,3.9E1,3.6E1,5.3E1,6.4E1,4E1,1.8E1,2.9E1,9E0,5.3E1,2.8E1,8E0,5.6E1,1.04E2,1.1E1,3.4E1,5E0,2.3E1,1.3E1,5E0,4.8E1,2.3E1,4.1E1,6E0,3.4E1,8E0,1E1,7E0,2.2E1,4.4E1,9E0,2.3E1,5E0,4.8E1,5.6E1,7E0,2.7E1,1.6E1,7E0,8E0,5E0,1E1,3.8E1,1.6E1,7E0,1.9E1,2.2E1,2.6E1,8E0,4E1,8E0,4E1,1.6E1,7E0,2E1,5E0,1.1E1,3.3E1,5E0,1.2E1,7E0,1.2E1,1E1,6E0,3.4E1,1.1E1,9E0,1.1E1,2.2E1,5E0,7E0],"tree_param":{"num_deleted":"0","num_feature":"235","num_nodes":"101","size_leaf_vector":"1"}},{"base_weights":[5.862085E-2,-4.779319E0,4.9553523E0,-7.4080963E0,-3.1198401E0,3.2580385E0,1.3459779E1,-3.368631E0,-6.5858016E0,-4.118596E0,-1.2930741E0,1.7590947E0,5.696434E0,1.1539162E1,5.009816E0,-7.726176E0,-5.8379774E0,-3.7159045E0,-5.0707884E0,-1.8587737E0,-5.4424614E-1,8.9245063E-1,2.335585E0,4.591066E0,6.257141E0,2.3511617E0,3.699535E0,-8.275917E0,-1.2268921E0,-6.299515E0,-4.0432425E0,-4.1299305E0,-2.3410501E0,-7.521016E-1,-5.410958E0,-6.0419965E-1,-2.3516777E0,-8.152208E-1,2.492429E-1,-6.3644595E-2,1.0391982E0,1.4869465E0,2.688769E0,4.8527956E0,8.644594E-1,1.6040466E0,7.0499687E0,-2.802421E0,-2.0510063E0,-5.286511E0,-7.092323E0,-1.4529325E0,-7.3289347E-1,-3.1470487E0,-4.572602E0,-8.6059374E-1,-2.0037605E-1,-1.7254764E0,-1.1118274E0,-4.2697108E-1,1.7043376E-1,-1.730746E-1,-2.7832825E0,-3.827398E-1,-4.7526434E-1,1.220103E0,2.7692791E-2,4.128268E-1,1.9683347E0,2.2133865E0,3.5921295E0,8.3561516E-1,5.1695232E0,1.3303672E0,2.2107797E0,-1.6864043E0,-1.0039446E0,-2.2582743E0,-1.456058E0,-1.2732108E0,-1.8679639E0,-1.0570657E0,-5.1571627E0,-1.1226324E0,-2.2255464E0,1.04154155E-1,-2.006969E-1,3.0712283E-1,1.4331492E0,-1.4666806E-1,3.8283747E-1,2.3947825E0,2.2860214E-1,2.1237637E-1,2.4127064E0,1.59525E0,2.6485276E0,1.6753504E0,9.8471624E-1,-7.164503E-1,-2.7680874E-1,-1.6437675E0,-9.108321E-1,-1.7280944E-1,-8.649916E-1,3.21835E-1,-1.4525253E-1,5.421467E-1,8.9625835E-1,8.4021115E-1,3.9539292E-1,2.4738815E-1,2.6560879E0,4.3295E-1,9.196344E-1,8.03022E-2,4.3541917E-1,1.2165232E0,7.0137703E-1],"categories":[],"categories_nodes":[],"categories_segments":[],"categories_sizes":[],"default_left":[0,0,0,0,0,0,0,0,0,0,0,0,0,0,0,0,0,0,0,0,0,0,0,0,0,0,0,0,0,0,0,0,0,0,0,0,0,0,0,0,0,0,0,0,0,0,0,0,0,0,0,0,0,0,0,0,0,0,0,0,0,0,0,0,0,0,0,0,0,0,0,0,0,0,0,0,0,0,0,0,0,0,0,0,0,0,0,0,0,0,0,0,0,0,0,0,0,0,0,0,0,0,0,0,0,0,0,0,0,0,0,0,0,0,0,0,0,0,0],"id":4,"left_children":[1,3,5,7,9,11,13,-1,15,17,19,21,23,25,-1,27,29,31,33,35,37,39,41,43,45,-1,-1,47,-1,49,51,53,55,-1,57,59,61,63,-1,-1,65,67,69,71,-1,-1,73,-1,-1,75,77,-1,-1,79,81,-1,-1,-1,-1,-1,-1,-1,83,85,-1,87,-1,89,91,93,95,-1,97,-1,-1,-1,-1,-1,-1,-1,99,-1,101,-1,103,-1,-1,105,107,-1,-1,109,-1,-1,111,-1,113,-1,-1,-1,-1,-1,-1,-1,-1,-1,-1,-1,115,-1,-1,-1,117,-1,-1,-1,-1,-1,-1],"loss_changes":[1.5712886E4,1.4401069E3,4.729271E3,3.6119873E2,3.7144897E2,1.00060864E3,2.2323145E2,0E0,6.2311035E1,3.8338867E1,3.0394333E1,8.421863E1,4.5931885E1,5.0756836E1,0E0,5.8463867E1,3.9202393E1,4.7886353E1,2.35224E1,2.4652481E1,1.2622578E1,1.149139E1,2.7955444E1,7.302185E0,2.2714355E1,0E0,0E0,1.2111816E1,0E0,1.7694824E1,1.2368851E1,2.1976685E1,1.9875763E1,0E0,5.9332275E0,1.282493E1,2.142485E1,8.76053E0,0E0,0E0,1.0395859E1,1.5686691E1,2.5343872E1,1.0900391E1,0E0,0E0,9.081177E0,0E0,0E0,5.146118E0,4.5528564E0,0E0,0E0,2.971643E1,1.7236694E1,0E0,0E0,0E0,0E0,0E0,0E0,0E0,7.166504E0,4.1121716E0,0E0,9.650764E0,0E0,8.803745E0,9.729858E0,1.3271637E1,2.952005E1,0E0,9.637573E0,0E0,0E0,0E0,0E0,0E0,0E0,0E0,4.686455E0,0E0,1.044873E1,0E0,1.7084625E1,0E0,0E0,6.871769E0,7.333145E0,0E0,0E0,4.3756027E0,0E0,0E0,1.4818298E1,0E0,5.463516E0,0E0,0E0,0E0,0E0,0E0,0E0,0E0,0E0,0E0,0E0,0E0,6.205016E0,0E0,0E0,0E0,9.491272E0,0E0,0E0,0E0,0E0,0E0,0E0],"parents":[2147483647,0,0,1,1,2,2,3,3,4,4,5,5,6,6,8,8,9,9,10,10,11,11,12,12,13,13,15,15,16,16,17,17,18,18,19,19,20,20,21,21,22,22,23,23,24,24,27,27,29,29,30,30,31,31,32,32,34,34,35,35,36,36,37,37,40,40,41,41,42,42,43,43,46,46,49,49,50,50,53,53,54,54,62,62,63,63,65,65,67,67,68,68,69,69,70,70,72,72,80,80,82,82,84,84,87,87,88,88,91,91,94,94,96,96,108,108,112,112],"right_children":[2,4,6,8,10,12,14,-1,16,18,20,22,24,26,-1,28,30,32,34,36,38,40,42,44,46,-1,-1,48,-1,50,52,54,56,-1,58,60,62,64,-1,-1,66,68,70,72,-1,-1,74,-1,-1,76,78,-1,-1,80,82,-1,-1,-1,-1,-1,-1,-1,84,86,-1,88,-1,90,92,94,96,-1,98,-1,-1,-1,-1,-1,-1,-1,100,-1,102,-1,104,-1,-1,106,108,-1,-1,110,-1,-1,112,-1,114,-1,-1,-1,-1,-1,-1,-1,-1,-1,-1,-1,116,-1,-1,-1,118,-1,-1,-1,-1,-1,-1],"split_conditions":[4.4522185E-2,-6.11718E-1,8.876289E-1,-1.0401075E0,-3.1716615E-1,4.9474284E-1,3.985413E-1,-3.368631E0,-1.1743275E0,5.8283526E-1,-1.0643768E-1,1.9644204E-1,-5.8825225E-1,1.3293644E0,5.009816E0,1.6935315E0,9.5100945E-1,-3.4236893E-1,-8.149128E-1,-3.0236846E-1,3.538052E-1,-6.002839E-1,1.6331254E-1,6.92731E-1,6.0302943E-1,2.3511617E0,3.699535E0,3.751478E-1,-1.2268921E0,5.579748E-2,3.37157E-1,-7.4698645E-1,7.364482E-1,-7.521016E-1,5.310032E-1,-4.1560778E-1,-4.5437324E-1,4.7484088E-1,2.492429E-1,-6.3644595E-2,4.4062564E-1,-4.6981198E-1,2.1215367E-1,2.9340905E-1,8.644594E-1,1.6040466E0,-5.843811E-1,-2.802421E0,-2.0510063E0,-4.5376438E-1,5.36335E-1,-1.4529325E0,-7.3289347E-1,-6.2542886E-1,-1.947862E-1,-8.6059374E-1,-2.0037605E-1,-1.7254764E0,-1.1118274E0,-4.2697108E-1,1.7043376E-1,-1.730746E-1,-2.5122693E-1,-1.29798E-1,-4.7526434E-1,-8.369442E-1,2.7692791E-2,1.6770135E-1,1.382747E-1,6.9303125E-2,-6.7850864E-1,8.3561516E-1,7.1414614E-1,1.3303672E0,2.2107797E0,-1.6864043E0,-1.0039446E0,-2.2582743E0,-1.456058E0,-1.2732108E0,-4.4778126E-1,-1.0570657E0,-4.8709354E-1,-1.1226324E0,6.392939E-2,1.04154155E-1,-2.006969E-1,-8.286398E-1,2.551962E-1,-1.4666806E-1,3.8283747E-1,8.414547E-1,2.2860214E-1,2.1237637E-1,2.8523627E-1,1.59525E0,-6.1802554E-1,1.6753504E0,9.8471624E-1,-7.164503E-1,-2.7680874E-1,-1.6437675E0,-9.108321E-1,-1.7280944E-1,-8.649916E-1,3.21835E-1,-1.4525253E-1,5.421467E-1,5.0606734E-1,8.4021115E-1,3.9539292E-1,2.4738815E-1,2.098077E-1,4.3295E-1,9.196344E-1,8.03022E-2,4.3541917E-1,1.2165232E0,7.0137703E-1],"split_indices":[3,3,38,26,2,3,35,0,33,99,2,3,178,3,0,57,50,11,90,55,44,224,54,41,124,0,0,71,0,57,71,145,44,0,212,9,119,173,0,0,66,71,16,10,0,0,218,0,0,194,34,0,0,75,85,0,0,0,0,0,0,0,76,168,0,86,0,37,55,37,153,0,119,0,0,0,0,0,0,0,40,0,150,0,66,0,0,8,179,0,0,213,0,0,47,0,168,0,0,0,0,0,0,0,0,0,0,0,169,0,0,0,105,0,0,0,0,0,0],"split_type":[0,0,0,0,0,0,0,0,0,0,0,0,0,0,0,0,0,0,0,0,0,0,0,0,0,0,0,0,0,0,0,0,0,0,0,0,0,0,0,0,0,0,0,0,0,0,0,0,0,0,0,0,0,0,0,0,0,0,0,0,0,0,0,0,0,0,0,0,0,0,0,0,0,0,0,0,0,0,0,0,0,0,0,0,0,0,0,0,0,0,0,0,0,0,0,0,0,0,0,0,0,0,0,0,0,0,0,0,0,0,0,0,0,0,0,0,0,0,0],"sum_hessian":[6.62E2,3.33E2,3.29E2,1.28E2,2.05E2,2.75E2,5.4E1,2.1E1,1.07E2,1.32E2,7.3E1,1.71E2,1.04E2,3.6E1,1.8E1,4E1,6.7E1,9.5E1,3.7E1,4.1E1,3.2E1,6.9E1,1.02E2,3.7E1,6.7E1,8E0,2.8E1,3.4E1,6E0,5.2E1,1.5E1,7.2E1,2.3E1,5E0,3.2E1,1.2E1,2.9E1,2.7E1,5E0,8E0,6.1E1,3.1E1,7.1E1,3.1E1,6E0,3.4E1,3.3E1,1.7E1,1.7E1,2.5E1,2.7E1,9E0,6E0,2.4E1,4.8E1,1.7E1,6E0,2.5E1,7E0,7E0,5E0,6E0,2.3E1,1.8E1,9E0,5.1E1,1E1,1E1,2.1E1,4.8E1,2.3E1,5E0,2.6E1,5E0,2.8E1,2E1,5E0,2.1E1,6E0,1.2E1,1.2E1,1.9E1,2.9E1,7E0,1.6E1,5E0,1.3E1,1E1,4.1E1,5E0,5E0,1.5E1,6E0,6E0,4.2E1,7E0,1.6E1,2E1,6E0,7E0,5E0,2.4E1,5E0,5E0,1.1E1,5E0,5E0,2.3E1,1.8E1,1E1,5E0,6E0,3.6E1,5E0,1.1E1,9E0,9E0,5E0,3.1E1],"tree_param":{"num_deleted":"0","num_feature":"235","num_nodes":"119","size_leaf_vector":"1"}},{"base_weights":[-8.723954E-2,-3.835484E0,3.1531053E0,-6.754486E0,-3.1250196E0,2.0346897E0,9.152361E0,-2.4898465E0,-5.8440547E0,-3.8126283E0,-1.8247273E0,1.048006E0,3.8959007E0,7.905065E0,3.6989872E0,-4.8893895E0,-2.1873734E0,-3.8982456E0,-2.8257847E-1,-2.126937E0,-5.27774E-1,9.23643E-2,1.3902398E0,2.9694498E0,4.4089108E0,1.01038E0,8.447136E0,-1.6311728E0,-8.9690894E-1,-4.6877856E0,-3.4885871E0,-2.283998E0,-5.510469E-3,-5.410293E-1,6.602387E-2,-1.0397105E-1,5.341109E-1,1.2838392E0,9.6359396E-1,1.5983571E0,3.395733E0,2.7553606E0,4.854185E0,7.0570917E0,2.8733873E0,-3.4356387E0,-5.513796E0,-3.6948957E0,-1.579245E0,-2.4488754E0,-1.6394848E-1,-2.1785675E-1,1.9596328E-1,-3.6253822E-1,2.4953006E-1,8.283167E-1,1.5444267E0,8.310549E-2,8.1445974E-1,5.726191E-1,1.1100892E0,1.028939E0,3.380102E-1,1.6603016E0,4.2950172E0,2.3394527E0,1.265039E0,-1.4924352E0,-8.391047E-1,-4.692028E0,-2.1669822E0,-3.4061856E0,-4.5405254E0,-7.896522E-1,-1.5359408E-1,-1.465959E0,-2.750169E0,-1.3826326E-1,-3.7429973E-1,-4.870237E-3,1.1072586E0,1.4079715E0,9.21885E-1,7.9851186E-1,1.353925E0,-1.6174725E0,-8.3974963E-1,-3.5391366E0,-5.0634074E-1,-9.859032E-1,-1.7132007E0,-2.3179522E-1,-6.319357E-1,-1.8589314E0,-3.2358642E0,-2.6243374E-1,1.6198693E-2,6.4899784E-1,1.71225E0,6.73185E-1,1.2136271E0,-9.582501E-1,-1.3280271E0,-2.651527E-1,-6.886515E-1,-1.0804724E0,-4.8203716E-1,3.1591517E-1,-8.573327E-2,6.577443E-1,2.8165987E-1,3.2241002E-1,7.03053E-1],"categories":[],"categories_nodes":[],"categories_segments":[],"categories_sizes":[],"default_left":[0,0,0,0,0,0,0,0,0,0,0,0,0,0,0,0,0,0,0,0,0,0,0,0,0,0,0,0,0,0,0,0,0,0,0,0,0,0,0,0,0,0,0,0,0,0,0,0,0,0,0,0,0,0,0,0,0,0,0,0,0,0,0,0,0,0,0,0,0,0,0,0,0,0,0,0,0,0,0,0,0,0,0,0,0,0,0,0,0,0,0,0,0,0,0,0,0,0,0,0,0,0,0,0,0,0,0,0,0,0,0,0,0],"id":5,"left_children":[1,3,5,7,9,11,13,-1,15,17,19,21,23,25,-1,27,-1,29,-1,31,33,35,37,39,41,-1,43,-1,-1,45,47,49,-1,-1,51,53,-1,55,-1,57,59,61,63,65,-1,67,69,71,73,75,-1,-1,-1,77,-1,79,81,-1,-1,-1,-1,-1,-1,-1,83,-1,-1,-1,-1,85,-1,87,89,-1,-1,91,93,95,-1,-1,97,99,-1,-1,-1,-1,-1,101,-1,-1,-1,-1,-1,103,105,-1,-1,107,109,-1,111,-1,-1,-1,-1,-1,-1,-1,-1,-1,-1,-1,-1],"loss_changes":[8.1894033E3,6.343296E2,2.4139065E3,5.5531494E1,2.2110059E2,5.583635E2,1.649751E2,0E0,3.3908936E1,3.775049E1,3.3855682E1,6.543991E1,4.142505E1,8.561963E1,0E0,1.7798523E1,0E0,4.0731445E1,0E0,2.3545685E1,1.3631582E1,1.8086731E1,2.5922913E1,1.9398773E1,4.0086426E1,0E0,1.7271973E1,0E0,0E0,4.184619E1,3.8355713E1,1.8014557E1,0E0,0E0,6.2292686E0,1.1975153E1,0E0,1.5728149E1,0E0,1.5167419E1,9.185394E0,1.4739716E1,4.574585E0,2.116803E1,0E0,1.2717651E1,2.1488342E1,1.3269775E1,1.212405E1,1.5125946E1,0E0,0E0,0E0,7.517272E0,0E0,1.2483112E1,1.5605362E1,0E0,0E0,0E0,0E0,0E0,0E0,0E0,4.0688477E0,0E0,0E0,0E0,0E0,2.0610748E1,0E0,1.2830933E1,2.0951447E1,0E0,0E0,5.7800903E0,1.5608185E1,4.592855E0,0E0,0E0,1.0129978E1,1.162677E1,0E0,0E0,0E0,0E0,0E0,1.1050476E1,0E0,0E0,0E0,0E0,0E0,6.1466255E0,1.369104E1,0E0,0E0,9.28587E0,4.7484207E0,0E0,8.661995E0,0E0,0E0,0E0,0E0,0E0,0E0,0E0,0E0,0E0,0E0,0E0,0E0],"parents":[2147483647,0,0,1,1,2,2,3,3,4,4,5,5,6,6,8,8,9,9,10,10,11,11,12,12,13,13,15,15,17,17,19,19,20,20,21,21,22,22,23,23,24,24,26,26,29,29,30,30,31,31,34,34,35,35,37,37,39,39,40,40,41,41,42,42,43,43,45,45,46,46,47,47,48,48,49,49,53,53,55,55,56,56,64,64,69,69,71,71,72,72,75,75,76,76,77,77,80,80,81,81,87,87,93,93,94,94,97,97,98,98,100,100],"right_children":[2,4,6,8,10,12,14,-1,16,18,20,22,24,26,-1,28,-1,30,-1,32,34,36,38,40,42,-1,44,-1,-1,46,48,50,-1,-1,52,54,-1,56,-1,58,60,62,64,66,-1,68,70,72,74,76,-1,-1,-1,78,-1,80,82,-1,-1,-1,-1,-1,-1,-1,84,-1,-1,-1,-1,86,-1,88,90,-1,-1,92,94,96,-1,-1,98,100,-1,-1,-1,-1,-1,102,-1,-1,-1,-1,-1,104,106,-1,-1,108,110,-1,112,-1,-1,-1,-1,-1,-1,-1,-1,-1,-1,-1,-1],"split_conditions":[-9.644715E-2,-8.3114284E-1,8.9047056E-1,-1.050018E0,-4.572299E-1,4.7693253E-1,-1.523464E-1,-2.4898465E0,-5.962315E-1,1.8953918E0,-1.7951362E-1,1.0642014E-1,-1.0003013E-1,8.0105275E-1,3.6989872E0,6.8579763E-1,-2.1873734E0,-5.2958524E-1,-2.8257847E-1,2.9067424E-1,-1.0171576E0,6.8715316E-1,9.104871E-1,-6.4311284E-1,4.7366747E-1,1.01038E0,-5.876599E-4,-1.6311728E0,-8.9690894E-1,2.225164E-1,-4.6994475E-1,1.4032968E0,-5.510469E-3,-5.410293E-1,2.6835462E-2,2.6191562E-1,5.341109E-1,-4E-1,9.6359396E-1,-5.4724014E-1,5.2078414E-1,1.1705853E0,-5.391627E-1,-2.7596155E-1,2.8733873E0,-3.993314E-1,-6.147371E-1,3.0841723E-1,-6.320835E-2,-3.5097656E-1,-1.6394848E-1,-2.1785675E-1,1.9596328E-1,9.194408E-1,2.4953006E-1,-4.4598192E-1,5.918699E-1,8.310549E-2,8.1445974E-1,5.726191E-1,1.1100892E0,1.028939E0,3.380102E-1,1.6603016E0,-7.432166E-1,2.3394527E0,1.265039E0,-1.4924352E0,-8.391047E-1,-7.02037E-1,-2.1669822E0,1.1533885E0,3.6504686E-1,-7.896522E-1,-1.5359408E-1,-2.4439079E-1,-5.17398E-1,-2.998756E-1,-3.7429973E-1,-4.870237E-3,2.3953332E-1,-5.733658E-1,9.21885E-1,7.9851186E-1,1.353925E0,-1.6174725E0,-8.3974963E-1,-5.707114E-1,-5.0634074E-1,-9.859032E-1,-1.7132007E0,-2.3179522E-1,-6.319357E-1,2.7128106E-1,1.1413721E0,-2.6243374E-1,1.6198693E-2,6.8232226E-1,8.528777E-1,6.73185E-1,9.957359E-1,-9.582501E-1,-1.3280271E0,-2.651527E-1,-6.886515E-1,-1.0804724E0,-4.8203716E-1,3.1591517E-1,-8.573327E-2,6.577443E-1,2.8165987E-1,3.2241002E-1,7.03053E-1],"split_indices":[2,3,42,26,2,3,143,0,150,163,2,3,58,137,0,138,0,29,0,207,209,224,171,133,70,0,212,0,0,198,151,193,0,0,128,199,0,228,0,198,10,86,128,99,0,183,0,101,212,143,0,0,0,153,0,71,203,0,0,0,0,0,0,0,57,0,0,0,0,0,0,198,158,0,0,113,139,193,0,0,86,12,0,0,0,0,0,162,0,0,0,0,0,34,224,0,0,99,71,0,66,0,0,0,0,0,0,0,0,0,0,0,0],"split_type":[0,0,0,0,0,0,0,0,0,0,0,0,0,0,0,0,0,0,0,0,0,0,0,0,0,0,0,0,0,0,0,0,0,0,0,0,0,0,0,0,0,0,0,0,0,0,0,0,0,0,0,0,0,0,0,0,0,0,0,0,0,0,0,0,0,0,0,0,0,0,0,0,0,0,0,0,0,0,0,0,0,0,0,0,0,0,0,0,0,0,0,0,0,0,0,0,0,0,0,0,0,0,0,0,0,0,0,0,0,0,0,0,0],"sum_hessian":[6.73E2,3.12E2,3.61E2,6E1,2.52E2,3.05E2,5.6E1,2E1,4E1,1.64E2,8.8E1,2E2,1.05E2,4.2E1,1.4E1,2.6E1,1.4E1,1.59E2,5E0,7.1E1,1.7E1,5.3E1,1.47E2,3.9E1,6.6E1,5E0,3.7E1,1.9E1,7E0,5.2E1,1.07E2,6.6E1,5E0,5E0,1.2E1,4.8E1,5E0,1.4E2,7E0,1E1,2.9E1,1.5E1,5.1E1,1.9E1,1.8E1,2.2E1,3E1,9.6E1,1.1E1,6E1,6E0,5E0,7E0,3.8E1,1E1,5.2E1,8.8E1,5E0,5E0,6E0,2.3E1,1E1,5E0,2E1,3.1E1,1.4E1,5E0,5E0,1.7E1,2.2E1,8E0,7.4E1,2.2E1,5E0,6E0,1.5E1,4.5E1,3.1E1,7E0,1.3E1,3.9E1,8.2E1,6E0,5E0,2.6E1,1.5E1,7E0,6.8E1,6E0,1.2E1,1E1,8E0,7E0,1.7E1,2.8E1,6E0,2.5E1,2.3E1,1.6E1,1.4E1,6.8E1,5.2E1,1.6E1,6E0,1.1E1,2.2E1,6E0,1.6E1,7E0,9E0,7E0,6.2E1,6E0],"tree_param":{"num_deleted":"0","num_feature":"235","num_nodes":"113","size_leaf_vector":"1"}},{"base_weights":[-9.250796E-2,-2.622752E0,2.4613163E0,-3.8987927E0,-1.7239014E0,1.4881941E0,6.1009727E0,-1.7631137E0,-3.4476347E0,-2.1922386E0,-5.8182216E-1,7.705591E-1,2.528483E0,3.6133673E0,7.0959806E0,-3.6110084E0,-2.2150025E0,-2.2858694E0,6.387923E-2,-1.0807493E-2,-9.7016025E-1,6.592863E-1,7.049953E-1,2.7242584E0,6.477774E-1,6.7475414E-1,1.2540085E0,4.1317143E0,7.8123045E0,-2.7934322E0,-3.9873788E0,-8.803432E-1,-3.106102E-1,-1.3004553E0,-2.4881747E0,-1.4270364E-1,2.4731214E-1,-1.3101661E0,3.0761762E-2,1.0458713E0,4.0099332E-1,3.5464718E0,2.3910582E0,4.2373365E-1,-5.511906E-2,1.6277195E0,6.9793737E-1,8.214734E0,1.3710433E0,-9.2685276E-1,-4.51643E-1,-4.423452E0,-2.9879951E0,-5.054542E-1,-3.718973E-2,-2.1569664E0,-3.3116095E0,-1.5681757E0,-1.22909404E-1,6.401521E-1,1.5181475E0,4.8837267E-2,8.5695237E-1,7.5113654E-1,1.1960741E0,2.7618902E0,1.8096027E0,2.7213137E0,1.8912483E0,-7.524591E-1,-4.741891E0,-2.1733105E0,-1.2088386E0,-2.2964485E0,-2.3805711E-2,-5.403399E-1,-1.1118276E0,-6.567497E-1,-3.2947472E-1,2.54448E-1,-6.8586774E-2,5.270712E-1,1.2916714E-1,3.9643472E-1,-1.1178177E-1,1.1561909E0,-2.4511961E-2,1.8959715E0,3.2191598E0,6.4563555E-1,1.9496457E-1,-1.6274487E0,-3.5667531E0,-8.476552E-1,-2.6828393E-1,-2.4619317E0,-3.071273E-1,-7.5086325E-2,2.6028088E-1,6.6868015E-2,4.325448E-1,1.555567E-1,8.097778E-1,1.0906171E0,6.247556E-1,-6.911111E-1,-1.2507656E0,-5.7564664E-1,-9.3511665E-1],"categories":[],"categories_nodes":[],"categories_segments":[],"categories_sizes":[],"default_left":[0,0,0,0,0,0,0,0,0,0,0,0,0,0,0,0,0,0,0,0,0,0,0,0,0,0,0,0,0,0,0,0,0,0,0,0,0,0,0,0,0,0,0,0,0,0,0,0,0,0,0,0,0,0,0,0,0,0,0,0,0,0,0,0,0,0,0,0,0,0,0,0,0,0,0,0,0,0,0,0,0,0,0,0,0,0,0,0,0,0,0,0,0,0,0,0,0,0,0,0,0,0,0,0,0,0,0,0,0],"id":6,"left_children":[1,3,5,7,9,11,13,-1,15,17,19,21,23,25,27,29,31,33,-1,35,37,39,-1,41,43,-1,-1,45,47,49,51,-1,-1,53,55,-1,-1,57,-1,59,61,63,65,-1,-1,-1,-1,67,-1,-1,-1,69,71,-1,-1,73,75,77,-1,79,81,83,85,-1,-1,87,89,-1,-1,-1,91,93,-1,95,-1,-1,-1,-1,-1,-1,-1,-1,-1,-1,97,99,-1,101,103,-1,-1,-1,105,-1,-1,107,-1,-1,-1,-1,-1,-1,-1,-1,-1,-1,-1,-1,-1],"loss_changes":[4.1760596E3,3.6771802E2,1.1329226E3,1.0734497E2,1.015116E2,1.886463E2,1.5045361E2,0E0,1.6829102E1,3.1001465E1,1.2487858E1,2.5643616E1,3.6819214E1,9.921753E0,7.990332E1,2.2232178E1,1.0394196E1,2.3744324E1,0E0,9.486829E0,1.243656E1,1.3882183E1,0E0,1.9889343E1,7.0704937E0,0E0,0E0,1.6580383E1,2.4050537E1,9.682388E0,1.9305664E1,0E0,0E0,1.0640953E1,2.4470093E1,0E0,0E0,5.4052963E0,0E0,1.0095024E1,1.3825179E1,5.307892E0,1.1332703E1,0E0,0E0,0E0,0E0,1.751294E1,0E0,0E0,0E0,1.8408752E1,1.2692047E1,0E0,0E0,2.2512634E1,1.3672546E1,4.006134E0,0E0,5.9925537E0,6.236706E0,1.036593E1,1.07049885E1,0E0,0E0,1.188678E1,1.0587036E1,0E0,0E0,0E0,1.7538147E1,9.698181E0,0E0,1.361969E1,0E0,0E0,0E0,0E0,0E0,0E0,0E0,0E0,0E0,0E0,6.2264214E0,7.482914E0,0E0,1.6423904E1,7.281891E0,0E0,0E0,0E0,5.5979767E0,0E0,0E0,1.8960114E1,0E0,0E0,0E0,0E0,0E0,0E0,0E0,0E0,0E0,0E0,0E0,0E0,0E0],"parents":[2147483647,0,0,1,1,2,2,3,3,4,4,5,5,6,6,8,8,9,9,10,10,11,11,12,12,13,13,14,14,15,15,16,16,17,17,19,19,20,20,21,21,23,23,24,24,27,27,28,28,29,29,30,30,33,33,34,34,37,37,39,39,40,40,41,41,42,42,47,47,51,51,52,52,55,55,56,56,57,57,59,59,60,60,61,61,62,62,65,65,66,66,70,70,71,71,73,73,84,84,85,85,87,87,88,88,92,92,95,95],"right_children":[2,4,6,8,10,12,14,-1,16,18,20,22,24,26,28,30,32,34,-1,36,38,40,-1,42,44,-1,-1,46,48,50,52,-1,-1,54,56,-1,-1,58,-1,60,62,64,66,-1,-1,-1,-1,68,-1,-1,-1,70,72,-1,-1,74,76,78,-1,80,82,84,86,-1,-1,88,90,-1,-1,-1,92,94,-1,96,-1,-1,-1,-1,-1,-1,-1,-1,-1,-1,98,100,-1,102,104,-1,-1,-1,106,-1,-1,108,-1,-1,-1,-1,-1,-1,-1,-1,-1,-1,-1,-1,-1],"split_conditions":[-2.0351404E-2,-6.11718E-1,8.1772E-1,-1.1452805E0,-2.0969091E-1,3.9767605E-1,8.143824E-1,-1.7631137E0,1.4474633E0,2.5860983E-1,1.7199455E-1,1.5046829E0,1.2717398E0,-7.1635586E-1,-1.160471E0,7.425767E-2,-7.9154E-1,-2.9318145E-1,6.387923E-2,-1.5454933E-1,9.190413E-1,-3.7366685E-1,7.049953E-1,-6.367955E-1,5.3296095E-1,6.7475414E-1,1.2540085E0,-7.5055903E-1,8.6780643E-1,-5.317846E-1,6.810945E-1,-8.803432E-1,-3.106102E-1,5E-1,-4.0658394E-1,-1.4270364E-1,2.4731214E-1,9.064903E-1,3.0761762E-2,-4.2226022E-1,2.8415224E-1,6.100799E-1,-4.695227E-1,4.2373365E-1,-5.511906E-2,1.6277195E0,6.9793737E-1,1.645498E0,1.3710433E0,-9.2685276E-1,-4.51643E-1,-1.666999E-1,-3.9939928E-1,-5.054542E-1,-3.718973E-2,3.2775942E-2,-9.945622E-1,-5.1294994E-1,-1.22909404E-1,3.958901E-1,2.3305134E-1,-6.0550725E-1,6.920215E-1,7.5113654E-1,1.1960741E0,-1.86645E-1,-7.323474E-2,2.7213137E0,1.8912483E0,-7.524591E-1,-8.295854E-2,-8.5985225E-1,-1.2088386E0,-3.6377022E-1,-2.3805711E-2,-5.403399E-1,-1.1118276E0,-6.567497E-1,-3.2947472E-1,2.54448E-1,-6.8586774E-2,5.270712E-1,1.2916714E-1,3.9643472E-1,4.6958238E-1,-7.356001E-1,-2.4511961E-2,-4.7706604E-1,7.476337E-1,6.4563555E-1,1.9496457E-1,-1.6274487E0,4.0605485E-2,-8.476552E-1,-2.6828393E-1,-6.448389E-1,-3.071273E-1,-7.5086325E-2,2.6028088E-1,6.6868015E-2,4.325448E-1,1.555567E-1,8.097778E-1,1.0906171E0,6.247556E-1,-6.911111E-1,-1.2507656E0,-5.7564664E-1,-9.3511665E-1],"split_indices":[3,3,3,2,40,3,119,0,106,165,173,215,108,128,7,57,2,143,0,89,87,208,0,92,39,0,0,85,12,112,153,0,0,227,119,0,0,158,0,178,57,53,183,0,0,0,0,120,0,0,0,193,174,0,0,30,107,37,0,118,73,64,231,0,0,52,94,0,0,0,210,0,0,11,0,0,0,0,0,0,0,0,0,0,200,17,0,78,11,0,0,0,106,0,0,149,0,0,0,0,0,0,0,0,0,0,0,0,0],"split_type":[0,0,0,0,0,0,0,0,0,0,0,0,0,0,0,0,0,0,0,0,0,0,0,0,0,0,0,0,0,0,0,0,0,0,0,0,0,0,0,0,0,0,0,0,0,0,0,0,0,0,0,0,0,0,0,0,0,0,0,0,0,0,0,0,0,0,0,0,0,0,0,0,0,0,0,0,0,0,0,0,0,0,0,0,0,0,0,0,0,0,0,0,0,0,0,0,0,0,0,0,0,0,0,0,0,0,0,0,0],"sum_hessian":[6.45E2,3.24E2,3.21E2,1.33E2,1.91E2,2.54E2,6.7E1,2.3E1,1.1E2,1.35E2,5.6E1,1.51E2,1.03E2,2E1,4.7E1,9.6E1,1.4E1,1.3E2,5E0,2.3E1,3.3E1,1.42E2,9E0,9.3E1,1E1,7E0,1.3E1,1E1,3.7E1,3.2E1,6.4E1,8E0,6E0,2.3E1,1.07E2,1.5E1,8E0,2.5E1,8E0,5.6E1,8.6E1,2.5E1,6.8E1,5E0,5E0,5E0,5E0,3.2E1,5E0,2.5E1,7E0,4.3E1,2.1E1,1.7E1,6E0,7.8E1,2.9E1,1.9E1,6E0,3.1E1,2.5E1,4.9E1,3.7E1,9E0,1.6E1,4E1,2.8E1,2E1,1.2E1,7E0,3.6E1,1.3E1,8E0,7.3E1,5E0,7E0,2.2E1,7E0,1.2E1,2.5E1,6E0,2E1,5E0,5E0,4.4E1,2.8E1,9E0,1.5E1,2.5E1,2.1E1,7E0,2.1E1,1.5E1,8E0,5E0,6.4E1,9E0,3.9E1,5E0,7E0,2.1E1,6E0,9E0,1.7E1,8E0,6E0,9E0,3.7E1,2.7E1],"tree_param":{"num_deleted":"0","num_feature":"235","num_nodes":"109","size_leaf_vector":"1"}},{"base_weights":[2.039483E-2,-1.7503679E0,1.9395077E0,-2.427224E0,-8.864514E-1,1.292266E0,5.39895E0,-3.0709288E0,-1.9548322E0,-1.2895753E0,-2.9609108E-1,8.7294585E-1,2.2324696E0,4.6744156E0,2.2601035E0,-4.378728E-1,-3.2317767E0,-1.3588877E0,-2.3702164E0,9.764178E-2,-1.4689322E0,-4.816391E-1,3.2747805E-1,3.680375E-1,1.0717647E0,2.3644922E0,2.1301198E-1,3.5800908E0,5.245986E0,-2.5375009E0,-3.754424E0,-2.139608E0,-8.537439E-1,-1.5749707E0,-2.9190402E0,-1.9543906E0,-9.0933925E-1,-8.3689433E-1,-2.8778546E-2,8.0968004E-1,3.1527104E-3,1.5362617E0,7.8842E-1,1.9209226E0,8.8252133E-1,5.7769823E-1,1.2640802E0,1.6807313E0,9.898799E-1,-2.943197E0,-3.402158E-1,-4.7062974E0,-2.940737E0,-7.6490885E-1,-2.590085E-1,-1.532124E0,-1.3657725E-1,-6.9184697E-1,-8.602757E-1,-8.5159235E-2,-3.303283E0,-1.3750919E0,-2.6147895E0,-1.2575175E0,-0E0,-1.7982643E-2,-1.0954273E0,-2.1622981E-1,3.7105533E-1,1.6049902E-1,4.441986E-1,-1.0067122E-1,1.1773013E-1,9.913038E-1,2.179773E0,4.8185956E-1,1.1517717E0,1.3897189E0,7.3664397E-1,-3.2437015E0,-4.4795394E-1,-1.613549E0,-9.966273E-1,-4.166197E-1,-3.5341582E0,-1.8610662E-1,-5.7230884E-1,-3.2022887E-1,1.5229674E-1,-4.556632E-1,5.3292524E-2,-1.140162E0,-7.0680076E-1,-7.618347E-1,-2.706563E-1,-4.9550158E-1,-1.1059543E0,-2.65314E-1,-6.092418E-1,1.9937468E-1,-1.7080697E-1,-4.024121E-1,-9.2939146E-2,-1.0443581E-2,2.9754168E-1,1.2910943E0,-1.09392464E-1,2.666398E0,2.2145306E-1,6.5178996E-1,-9.737511E-2,1.4032201E-1,1.6708578E0,5.3291434E-1,4.1407604E-2,-5.887603E-1,-1.0977376E0,-1.2325685E0,-5.6768227E-1,9.2672855E-1,6.350807E-1,1.1137234E0,5.975878E-1,1.3789285E-2,2.5474948E-1,3.2977104E-1,6.526061E-1,1.2159536E-1,5.1953846E-1],"categories":[],"categories_nodes":[],"categories_segments":[],"categories_sizes":[],"default_left":[0,0,0,0,0,0,0,0,0,0,0,0,0,0,0,0,0,0,0,0,0,0,0,0,0,0,0,0,0,0,0,0,0,0,0,0,0,0,0,0,0,0,0,0,0,0,0,0,0,0,0,0,0,0,0,0,0,0,0,0,0,0,0,0,0,0,0,0,0,0,0,0,0,0,0,0,0,0,0,0,0,0,0,0,0,0,0,0,0,0,0,0,0,0,0,0,0,0,0,0,0,0,0,0,0,0,0,0,0,0,0,0,0,0,0,0,0,0,0,0,0,0,0,0,0,0,0,0,0],"id":7,"left_children":[1,3,5,7,9,11,13,15,17,19,21,23,25,27,-1,-1,29,31,33,-1,35,37,-1,39,41,43,-1,45,47,49,51,53,55,57,59,61,63,65,67,69,71,73,75,77,-1,-1,-1,-1,-1,79,-1,81,83,-1,-1,85,87,-1,89,-1,91,93,95,97,99,-1,101,-1,103,-1,-1,-1,-1,105,107,109,111,113,-1,115,-1,-1,-1,-1,117,-1,-1,-1,-1,-1,-1,-1,-1,-1,-1,-1,-1,-1,-1,-1,-1,-1,-1,-1,-1,119,-1,121,-1,123,-1,-1,125,-1,-1,-1,-1,-1,-1,127,-1,-1,-1,-1,-1,-1,-1,-1,-1],"loss_changes":[2.2845742E3,2.0286755E2,7.175491E2,5.5355225E1,3.6455734E1,1.0604709E2,5.6330322E1,1.776239E1,2.6092377E1,2.6946411E1,1.6737143E1,1.8692612E1,1.550531E1,1.2308716E1,0E0,0E0,2.0269287E1,1.7827034E1,2.5875E1,0E0,2.113504E1,9.039684E0,0E0,8.749632E0,1.6931854E1,1.6154083E1,0E0,1.1194443E1,5.748596E0,1.6689499E1,2.219989E1,8.362488E0,1.4662437E1,1.3704613E1,3.8268982E1,1.4153595E1,1.2507095E1,6.2349644E0,7.3188233E0,3.906517E0,4.1635814E0,1.6180214E1,9.080452E0,1.080072E1,0E0,0E0,0E0,0E0,0E0,7.724762E0,0E0,4.814514E0,1.8232864E1,0E0,0E0,4.5363884E0,9.840201E0,0E0,1.106608E1,0E0,1.0072632E1,1.1888973E1,1.6176239E1,6.9309998E0,4.6805506E0,0E0,4.296139E0,0E0,4.3071327E0,0E0,0E0,0E0,0E0,1.2013771E1,1.436628E1,6.695442E0,1.3038654E1,1.1879822E1,0E0,6.375763E0,0E0,0E0,0E0,0E0,1.0741119E1,0E0,0E0,0E0,0E0,0E0,0E0,0E0,0E0,0E0,0E0,0E0,0E0,0E0,0E0,0E0,0E0,0E0,0E0,0E0,0E0,5.745182E0,0E0,6.66008E0,0E0,4.7454414E0,0E0,0E0,4.560734E0,0E0,0E0,0E0,0E0,0E0,0E0,6.8587275E0,0E0,0E0,0E0,0E0,0E0,0E0,0E0,0E0,0E0],"parents":[2147483647,0,0,1,1,2,2,3,3,4,4,5,5,6,6,7,7,8,8,9,9,10,10,11,11,12,12,13,13,16,16,17,17,18,18,20,20,21,21,23,23,24,24,25,25,27,27,28,28,29,29,30,30,31,31,32,32,33,33,34,34,35,35,36,36,37,37,38,38,39,39,40,40,41,41,42,42,43,43,49,49,51,51,52,52,55,55,56,56,58,58,60,60,61,61,62,62,63,63,64,64,66,66,68,68,73,73,74,74,75,75,76,76,77,77,79,79,84,84,105,105,107,107,109,109,112,112,119,119],"right_children":[2,4,6,8,10,12,14,16,18,20,22,24,26,28,-1,-1,30,32,34,-1,36,38,-1,40,42,44,-1,46,48,50,52,54,56,58,60,62,64,66,68,70,72,74,76,78,-1,-1,-1,-1,-1,80,-1,82,84,-1,-1,86,88,-1,90,-1,92,94,96,98,100,-1,102,-1,104,-1,-1,-1,-1,106,108,110,112,114,-1,116,-1,-1,-1,-1,118,-1,-1,-1,-1,-1,-1,-1,-1,-1,-1,-1,-1,-1,-1,-1,-1,-1,-1,-1,-1,120,-1,122,-1,124,-1,-1,126,-1,-1,-1,-1,-1,-1,128,-1,-1,-1,-1,-1,-1,-1,-1,-1],"split_conditions":[2.4530882E-2,-5.136171E-1,8.891064E-1,-7.434736E-1,-2.6320592E-1,5.583255E-1,1.7979001E0,-9.210353E-1,1.0017035E-1,-6.5303206E-1,9.276469E-1,-4.0838218E-1,8.3298874E-1,-7.7036566E-1,2.2601035E0,-4.378728E-1,2.9656002E-1,-1.5422496E-1,-6.237564E-1,9.764178E-2,-1.12634555E-1,4.1363433E-1,3.2747805E-1,-4.1402522E-1,-4.5648727E-1,6.387503E-1,2.1301198E-1,5.50908E-2,5.545716E-1,8.015801E-1,-7.342022E-1,-6.0646796E-1,-6.17439E-1,4.072936E-1,-6.908671E-1,-5.943331E-1,6.4681065E-1,-3.9016232E-1,-1.0171576E0,-8.284108E-2,2.356409E-1,-3.8666025E-1,2.370941E-1,-2.281915E-1,8.8252133E-1,5.7769823E-1,1.2640802E0,1.6807313E0,9.898799E-1,5.101026E-1,-3.402158E-1,-6.089022E-1,-1.955009E-1,-7.6490885E-1,-2.590085E-1,-6.901892E-1,3.2945726E-2,-6.9184697E-1,-1.0993691E-1,-8.5159235E-2,-2.4261566E-1,-1.2187451E0,1.689739E-1,4.1058192E-1,-1.0508808E-1,-1.7982643E-2,3.376653E-1,-2.1622981E-1,3.3776367E-1,1.6049902E-1,4.441986E-1,-1.0067122E-1,1.1773013E-1,1.6976579E-1,6.7371005E-1,1.8995154E-1,-3.6680388E-1,-9.253301E-2,7.3664397E-1,-4.810884E-1,-4.4795394E-1,-1.613549E0,-9.966273E-1,-4.166197E-1,5.8964747E-3,-1.8610662E-1,-5.7230884E-1,-3.2022887E-1,1.5229674E-1,-4.556632E-1,5.3292524E-2,-1.140162E0,-7.0680076E-1,-7.618347E-1,-2.706563E-1,-4.9550158E-1,-1.1059543E0,-2.65314E-1,-6.092418E-1,1.9937468E-1,-1.7080697E-1,-4.024121E-1,-9.2939146E-2,-1.0443581E-2,2.9754168E-1,3.6865834E-3,-1.09392464E-1,-3.953072E-1,2.2145306E-1,-4.7206992E-1,-9.737511E-2,1.4032201E-1,3.1917918E-1,5.3291434E-1,4.1407604E-2,-5.887603E-1,-1.0977376E0,-1.2325685E0,-5.6768227E-1,-1.3009773E-1,6.350807E-1,1.1137234E0,5.975878E-1,1.3789285E-2,2.5474948E-1,3.2977104E-1,6.526061E-1,1.2159536E-1,5.1953846E-1],"split_indices":[42,47,53,1,41,1,42,35,57,10,143,210,115,215,0,0,118,78,42,0,16,213,0,128,153,126,0,219,85,216,107,157,14,64,45,58,43,128,209,92,216,133,41,36,0,0,0,0,0,59,0,120,209,0,0,19,99,0,45,0,37,210,208,57,73,0,16,0,106,0,0,0,0,92,213,40,143,108,0,213,0,0,0,0,108,0,0,0,0,0,0,0,0,0,0,0,0,0,0,0,0,0,0,0,0,211,0,71,0,34,0,0,46,0,0,0,0,0,0,178,0,0,0,0,0,0,0,0,0],"split_type":[0,0,0,0,0,0,0,0,0,0,0,0,0,0,0,0,0,0,0,0,0,0,0,0,0,0,0,0,0,0,0,0,0,0,0,0,0,0,0,0,0,0,0,0,0,0,0,0,0,0,0,0,0,0,0,0,0,0,0,0,0,0,0,0,0,0,0,0,0,0,0,0,0,0,0,0,0,0,0,0,0,0,0,0,0,0,0,0,0,0,0,0,0,0,0,0,0,0,0,0,0,0,0,0,0,0,0,0,0,0,0,0,0,0,0,0,0,0,0,0,0,0,0,0,0,0,0,0,0],"sum_hessian":[6.71E2,3.49E2,3.22E2,1.95E2,1.54E2,2.72E2,5E1,8.1E1,1.14E2,9.1E1,6.3E1,1.89E2,8.3E1,3.9E1,1.1E1,8E0,7.3E1,4.8E1,6.6E1,9E0,8.2E1,5.6E1,7E0,5.4E1,1.35E2,7.6E1,7E0,1.5E1,2.4E1,3.3E1,4E1,1.8E1,3E1,2.8E1,3.8E1,4.3E1,3.9E1,3.1E1,2.5E1,2.4E1,3E1,5E1,8.5E1,4.5E1,3.1E1,5E0,1E1,1.9E1,5E0,2.5E1,8E0,1.7E1,2.3E1,1.3E1,5E0,1.5E1,1.5E1,1.3E1,1.5E1,5E0,3.3E1,2.4E1,1.9E1,2.8E1,1.1E1,8E0,2.3E1,9E0,1.6E1,1.8E1,6E0,1.6E1,1.4E1,2.8E1,2.2E1,4.7E1,3.8E1,2.4E1,2.1E1,2E1,5E0,1E1,7E0,7E0,1.6E1,5E0,1E1,6E0,9E0,9E0,6E0,2E1,1.3E1,6E0,1.8E1,1.1E1,8E0,2E1,8E0,5E0,6E0,1.7E1,6E0,1E1,6E0,2.3E1,5E0,1.6E1,6E0,3.9E1,8E0,1.7E1,2.1E1,1.8E1,6E0,6E0,1.4E1,1.1E1,5E0,1.7E1,6E0,5E0,1.1E1,1E1,2.9E1,1.1E1,1E1,1.1E1,6E0],"tree_param":{"num_deleted":"0","num_feature":"235","num_nodes":"129","size_leaf_vector":"1"}},{"base_weights":[-1.2804719E-2,-1.2873062E0,1.2391462E0,-1.9841493E0,-8.347445E-1,8.065785E-1,3.4525037E0,-1.1166058E0,-1.7878003E0,-1.0984013E0,-3.7498787E-1,4.8978668E-1,1.5841023E0,3.0028827E0,1.9343433E0,-1.644192E0,-9.893306E-1,-1.2141122E0,1.8063757E-1,-5.094322E-1,3.867698E-1,4.0723404E-1,1.6225628E0,8.8451546E-1,1.8276129E0,1.4617413E0,3.4160092E0,-2.6613667E0,-1.4408005E0,-1.4773884E0,-7.983344E-1,-2.5592843E-1,-9.697919E-1,3.113411E-1,-1.2461882E-1,-2.0089892E-1,5.2579314E-1,1.8562776E-1,6.418486E-1,1.1697024E0,6.525143E-2,2.0569592E0,9.365687E-1,8.9774705E-2,6.8642884E-1,5.833978E-1,3.8162313E0,-4.1517004E-1,-9.227347E-1,-1.5492591E0,-7.518544E-2,-9.608131E-1,-1.7290667E0,-4.707376E-1,-1.3536221E0,-6.267803E-1,1.5557598E-1,-1.3603462E-1,-4.5303646E-1,1.20961025E-1,-6.961632E-1,3.090698E-1,7.429556E-1,1.1084036E-1,4.5305017E-1,1.5666306E0,7.621195E-1,8.031919E-2,4.27217E-1,7.802051E-1,4.257916E0,-2.0222335E-1,-1.6711789E0,-1.289413E0,-2.1025952E-2,-1.9237063E0,-2.4125242E-1,1.2437431E-1,-3.0345392E-1,-1.4170155E-1,-4.995397E-1,-2.960538E-1,-4.4873007E-2,1.2807968E-1,-1.8178882E-1,-5.6778863E-2,2.2654265E-1,-0E0,-3.4647763E-1,4.6140236E-1,-3.7010778E-2,-5.054162E-2,8.8517916E-1,1.8934976E0,1.8819737E-1,9.174159E-1,1.4484205E0,-1.8133068E0,-1.7506345E-1,-4.7122732E-1,-1.2988138E-1,-2.142483E0,-2.4495673E-1,2.3806968E-1,-1.0163608E-1,6.182032E-1,-1.6071547E-2,-2.0764348E-1,2.4405234E-1,3.6350667E-1,5.035312E-1,7.032064E-1,3.0616346E-1,-3.112728E-1,-5.943253E-1,-6.95714E-1,-2.905459E-1,2.9523998E-1,8.5961014E-2,2.0345607E-1,-7.412153E-2],"categories":[],"categories_nodes":[],"categories_segments":[],"categories_sizes":[],"default_left":[0,0,0,0,0,0,0,0,0,0,0,0,0,0,0,0,0,0,0,0,0,0,0,0,0,0,0,0,0,0,0,0,0,0,0,0,0,0,0,0,0,0,0,0,0,0,0,0,0,0,0,0,0,0,0,0,0,0,0,0,0,0,0,0,0,0,0,0,0,0,0,0,0,0,0,0,0,0,0,0,0,0,0,0,0,0,0,0,0,0,0,0,0,0,0,0,0,0,0,0,0,0,0,0,0,0,0,0,0,0,0,0,0,0,0,0,0,0,0,0,0],"id":8,"left_children":[1,3,5,7,9,11,13,-1,15,17,19,21,23,25,-1,27,-1,29,-1,31,33,35,37,39,41,43,45,47,49,51,53,55,57,-1,-1,59,61,-1,-1,63,-1,65,67,-1,-1,-1,69,-1,-1,71,-1,73,75,77,79,81,83,-1,-1,85,87,89,91,-1,-1,93,-1,-1,-1,-1,95,-1,97,99,-1,101,-1,103,-1,-1,-1,-1,-1,-1,-1,-1,-1,-1,-1,105,-1,107,109,111,-1,-1,-1,113,-1,-1,-1,115,-1,-1,-1,117,-1,-1,-1,-1,119,-1,-1,-1,-1,-1,-1,-1,-1,-1,-1],"loss_changes":[1.0806605E3,1.046134E2,3.250467E2,4.07511E1,2.4448227E1,6.997473E1,6.2700623E1,0E0,2.2420074E1,2.605371E1,7.8788815E0,1.858496E1,1.2875748E1,2.811789E1,0E0,2.0190277E1,0E0,1.2418625E1,0E0,7.305786E0,6.449794E0,1.3904882E1,6.1587067E0,4.04677E0,1.0974701E1,1.069434E1,1.7513702E1,6.5845795E0,1.1710815E1,8.344788E0,8.324236E0,6.598761E0,5.802225E0,0E0,0E0,5.1334887E0,7.3460007E0,0E0,0E0,3.8553123E0,0E0,8.754608E0,4.1409216E0,0E0,0E0,0E0,8.258301E0,0E0,0E0,8.235443E0,0E0,7.3541126E0,7.5579224E0,1.0404053E1,4.3021584E0,3.7625475E0,4.4631343E0,0E0,0E0,4.022433E0,4.151116E0,5.4427085E0,9.0697365E0,0E0,0E0,6.9259796E0,0E0,0E0,0E0,0E0,4.5238037E0,0E0,1.06792755E1,4.0259743E0,0E0,8.261642E0,0E0,5.0891066E0,0E0,0E0,0E0,0E0,0E0,0E0,0E0,0E0,0E0,0E0,0E0,4.956229E0,0E0,7.4197907E0,8.067566E0,5.7097473E0,0E0,0E0,0E0,7.4281006E0,0E0,0E0,0E0,5.4845276E0,0E0,0E0,0E0,5.4423447E0,0E0,0E0,0E0,0E0,4.4944897E0,0E0,0E0,0E0,0E0,0E0,0E0,0E0,0E0,0E0,0E0],"parents":[2147483647,0,0,1,1,2,2,3,3,4,4,5,5,6,6,8,8,9,9,10,10,11,11,12,12,13,13,15,15,17,17,19,19,20,20,21,21,22,22,23,23,24,24,25,25,26,26,27,27,28,28,29,29,30,30,31,31,32,32,35,35,36,36,39,39,41,41,42,42,46,46,49,49,51,51,52,52,53,53,54,54,55,55,56,56,59,59,60,60,61,61,62,62,65,65,70,70,72,72,73,73,75,75,77,77,89,89,91,91,92,92,93,93,97,97,101,101,105,105,110,110],"right_children":[2,4,6,8,10,12,14,-1,16,18,20,22,24,26,-1,28,-1,30,-1,32,34,36,38,40,42,44,46,48,50,52,54,56,58,-1,-1,60,62,-1,-1,64,-1,66,68,-1,-1,-1,70,-1,-1,72,-1,74,76,78,80,82,84,-1,-1,86,88,90,92,-1,-1,94,-1,-1,-1,-1,96,-1,98,100,-1,102,-1,104,-1,-1,-1,-1,-1,-1,-1,-1,-1,-1,-1,106,-1,108,110,112,-1,-1,-1,114,-1,-1,-1,116,-1,-1,-1,118,-1,-1,-1,-1,120,-1,-1,-1,-1,-1,-1,-1,-1,-1,-1],"split_conditions":[-2.9529914E-2,-6.18209E-1,8.5447943E-1,-1.1912923E0,-3.2662067E-1,5.7331413E-1,1.2052573E0,-1.1166058E0,-6.0268646E-1,1.64679E0,2.4379335E-1,8.851248E-1,-3.249081E-1,-4.653107E-1,1.9343433E0,-1.3238093E-1,-9.893306E-1,1.4865287E-1,1.8063757E-1,4.6727479E-1,4.7136033E-1,-7.427447E-1,8.209011E-1,-3.1642252E-1,7.783906E-1,-5.6487906E-1,-8.326271E-1,-9.608981E-2,-3.110449E-1,-6.1770433E-1,6.0870916E-1,-5.365964E-1,-3.4961602E-1,3.113411E-1,-1.2461882E-1,5.40063E-1,2.0766464E-1,1.8562776E-1,6.418486E-1,1.7832613E-1,6.525143E-2,5.4692304E-1,-6.8582577E-1,8.9774705E-2,6.8642884E-1,5.833978E-1,4.6474218E-1,-4.1517004E-1,-9.227347E-1,-1.1797389E-1,-7.518544E-2,3.486958E-1,8.3781356E-1,3.9057925E-2,-1.3052048E-1,1.276916E-1,3.207526E-1,-1.3603462E-1,-4.5303646E-1,3.1977013E-1,-6.63452E-1,3.0548465E-1,-9.520171E-1,1.1084036E-1,4.5305017E-1,5.5416375E-1,7.621195E-1,8.031919E-2,4.27217E-1,7.802051E-1,-5.336302E-1,-2.0222335E-1,1.9304792E0,-6.572577E-1,-2.1025952E-2,7.568388E-1,-2.4125242E-1,1.719463E-1,-3.0345392E-1,-1.4170155E-1,-4.995397E-1,-2.960538E-1,-4.4873007E-2,1.2807968E-1,-1.8178882E-1,-5.6778863E-2,2.2654265E-1,-0E0,-3.4647763E-1,5.001419E-1,-3.7010778E-2,5.414756E-1,1.10195585E-1,3.4492666E-1,1.8819737E-1,9.174159E-1,1.4484205E0,-2.8106374E-1,-1.7506345E-1,-4.7122732E-1,-1.2988138E-1,-3.3370525E-1,-2.4495673E-1,2.3806968E-1,-1.0163608E-1,1.540092E-1,-1.6071547E-2,-2.0764348E-1,2.4405234E-1,3.6350667E-1,3.790162E-1,7.032064E-1,3.0616346E-1,-3.112728E-1,-5.943253E-1,-6.95714E-1,-2.905459E-1,2.9523998E-1,8.5961014E-2,2.0345607E-1,-7.412153E-2],"split_indices":[2,63,54,2,42,2,33,0,54,163,206,170,87,17,0,188,0,210,0,212,113,210,194,148,110,128,163,57,167,145,224,210,196,0,0,45,0,0,0,149,0,149,222,0,0,0,223,0,0,50,0,163,66,148,188,106,99,0,0,81,203,167,94,0,0,137,0,0,0,0,80,0,222,151,0,183,0,17,0,0,0,0,0,0,0,0,0,0,0,8,0,5,215,197,0,0,0,222,0,0,0,76,0,0,0,63,0,0,0,0,153,0,0,0,0,0,0,0,0,0,0],"split_type":[0,0,0,0,0,0,0,0,0,0,0,0,0,0,0,0,0,0,0,0,0,0,0,0,0,0,0,0,0,0,0,0,0,0,0,0,0,0,0,0,0,0,0,0,0,0,0,0,0,0,0,0,0,0,0,0,0,0,0,0,0,0,0,0,0,0,0,0,0,0,0,0,0,0,0,0,0,0,0,0,0,0,0,0,0,0,0,0,0,0,0,0,0,0,0,0,0,0,0,0,0,0,0,0,0,0,0,0,0,0,0,0,0,0,0,0,0,0,0,0,0],"sum_hessian":[6.76E2,3.35E2,3.41E2,1.31E2,2.04E2,2.86E2,5.5E1,1.2E1,1.19E2,1.29E2,7.5E1,2.04E2,8.2E1,4.9E1,6E0,1.1E2,9E0,1.21E2,8E0,6.4E1,1.1E1,1.91E2,1.3E1,2.2E1,6E1,1.1E1,3.8E1,1.7E1,9.3E1,7.3E1,4.8E1,4.2E1,2.2E1,6E0,5E0,3.1E1,1.6E2,5E0,8E0,1.5E1,7E0,4.7E1,1.3E1,5E0,6E0,9E0,2.9E1,5E0,1.2E1,8.5E1,8E0,2.5E1,4.8E1,3.1E1,1.7E1,2.2E1,2E1,1.2E1,1E1,1.9E1,1.2E1,8.1E1,7.9E1,5E0,1E1,2.5E1,2.2E1,6E0,7E0,9E0,2E1,1.1E1,7.4E1,1.8E1,7E0,3.9E1,9E0,1.5E1,1.6E1,5E0,1.2E1,1.2E1,1E1,1.5E1,5E0,1.3E1,6E0,5E0,7E0,6E1,2.1E1,1.2E1,6.7E1,1.8E1,7E0,8E0,1.2E1,6.5E1,9E0,1.3E1,5E0,3.2E1,7E0,6E0,9E0,4.6E1,1.4E1,7E0,5E0,3.5E1,3.2E1,1.1E1,7E0,1.3E1,5.2E1,2.7E1,5E0,2.1E1,2.5E1,2.6E1,6E0],"tree_param":{"num_deleted":"0","num_feature":"235","num_nodes":"121","size_leaf_vector":"1"}},{"base_weights":[-2.08814E-2,-8.4654206E-1,9.846722E-1,-1.3808863E0,-4.5009416E-1,6.5139085E-1,2.0146766E0,-2.7949262E0,-1.2508649E0,3.2026416E-1,-4.9034336E-1,4.340571E-1,1.019719E0,1.7285912E0,3.0887535E0,-1.0346208E0,-5.52148E-1,-1.1449255E0,-9.961498E-1,-7.2066015E-1,-1.6900644E-1,8.6134815E-1,2.6078507E-1,8.847053E-1,5.6757206E-1,1.4032292E0,7.955886E-1,1.2125089E0,4.5394918E-1,-1.2384387E0,-1.4500642E-1,-5.213517E-1,-6.472086E-1,-1.390897E-1,1.49561E-1,5.912245E-1,5.972209E-1,3.5339203E-1,-1.9977482E-1,9.7745913E-1,-1.044397E-1,8.5297936E-1,1.9856508E0,-1.0720236E0,-2.011705E0,2.373374E-1,-3.2274657E-1,-5.1130444E-1,-1.122413E0,-1.2971875E-1,3.633607E-1,8.347158E-1,1.5905574E-3,2.1288505E-1,7.2927564E-1,1.0601336E0,-2.0735204E-2,1.2986621E0,-2.3433363E-1,7.227942E-1,2.2763902E-1,-1.5025988E0,-8.442596E-1,-1.562706E0,-9.2567503E-1,1.543875E-1,-6.808534E-1,-4.5485523E-1,-7.787047E-2,9.04444E-2,2.660473E-1,1.6035603E-1,4.3149424E-1,1.516494E-1,6.435752E-3,3.722265E-1,6.315777E-2,5.577581E-2,3.524995E-1,9.252698E-2,5.121002E-1,-6.5079105E-1,-3.531034E-1,-2.583048E-1,-1.1409107E0,-5.7323575E-1,-1.9079651E-1,2.0688145E-1,-8.534458E-2,-5.298413E-1,-4.5079812E-1,2.1354832E-1,-5.199188E-2,-2.6404515E-1,3.9909746E-2,-7.978328E-2,-4.0129313E-1,-2.819454E-1,-9.8465845E-2],"categories":[],"categories_nodes":[],"categories_segments":[],"categories_sizes":[],"default_left":[0,0,0,0,0,0,0,0,0,0,0,0,0,0,0,0,0,0,0,0,0,0,0,0,0,0,0,0,0,0,0,0,0,0,0,0,0,0,0,0,0,0,0,0,0,0,0,0,0,0,0,0,0,0,0,0,0,0,0,0,0,0,0,0,0,0,0,0,0,0,0,0,0,0,0,0,0,0,0,0,0,0,0,0,0,0,0,0,0,0,0,0,0,0,0,0,0,0,0],"id":9,"left_children":[1,3,5,7,9,11,13,15,17,-1,19,21,23,25,27,-1,-1,29,-1,31,33,35,37,39,-1,41,-1,-1,-1,43,45,-1,47,-1,49,-1,51,53,-1,55,-1,57,59,61,63,-1,-1,65,67,-1,69,71,-1,73,75,77,-1,79,-1,-1,-1,81,83,85,-1,87,89,-1,-1,91,-1,-1,-1,-1,-1,-1,-1,-1,-1,-1,-1,-1,-1,93,95,-1,-1,-1,-1,97,-1,-1,-1,-1,-1,-1,-1,-1,-1],"loss_changes":[5.573107E2,7.757803E1,1.02882904E2,2.6318085E1,1.3324898E1,1.8006943E1,1.8927368E1,3.5941772E0,2.9227066E1,0E0,1.5231674E1,1.0566893E1,8.815865E0,1.5511749E1,1.801796E1,0E0,0E0,1.27591095E1,0E0,8.209888E0,8.347933E0,1.1379492E1,9.137816E0,8.8028145E0,0E0,1.3366005E1,0E0,0E0,0E0,1.472757E1,1.16708145E1,0E0,6.8684883E0,0E0,5.4177113E0,0E0,4.811039E0,4.8910484E0,0E0,6.1380615E0,0E0,1.8658497E1,1.0122688E1,9.402359E0,7.191292E0,0E0,0E0,1.0217682E1,8.134768E0,0E0,4.4386144E0,3.8544312E0,0E0,3.9438293E0,6.6008644E0,6.552643E0,0E0,7.6078835E0,0E0,0E0,0E0,5.868538E0,1.1999924E1,4.536785E0,0E0,4.5670085E0,8.323002E0,0E0,0E0,3.688445E0,0E0,0E0,0E0,0E0,0E0,0E0,0E0,0E0,0E0,0E0,0E0,0E0,0E0,6.165714E0,7.9282303E0,0E0,0E0,0E0,0E0,4.829191E0,0E0,0E0,0E0,0E0,0E0,0E0,0E0,0E0,0E0],"parents":[2147483647,0,0,1,1,2,2,3,3,4,4,5,5,6,6,7,7,8,8,10,10,11,11,12,12,13,13,14,14,17,17,19,19,20,20,21,21,22,22,23,23,25,25,29,29,30,30,32,32,34,34,36,36,37,37,39,39,41,41,42,42,43,43,44,44,47,47,48,48,50,50,51,51,53,53,54,54,55,55,57,57,61,61,62,62,63,63,65,65,66,66,69,69,83,83,84,84,89,89],"right_children":[2,4,6,8,10,12,14,16,18,-1,20,22,24,26,28,-1,-1,30,-1,32,34,36,38,40,-1,42,-1,-1,-1,44,46,-1,48,-1,50,-1,52,54,-1,56,-1,58,60,62,64,-1,-1,66,68,-1,70,72,-1,74,76,78,-1,80,-1,-1,-1,82,84,86,-1,88,90,-1,-1,92,-1,-1,-1,-1,-1,-1,-1,-1,-1,-1,-1,-1,-1,94,96,-1,-1,-1,-1,98,-1,-1,-1,-1,-1,-1,-1,-1,-1],"split_conditions":[1.0642014E-1,-5.812554E-1,8.1772E-1,-1.1913681E0,-8.294417E-1,5.0982493E-1,4.621228E-2,4.758898E-1,-4.4929343E-1,3.2026416E-1,-2.3777448E-1,-5.906479E-1,9.0308034E-1,1.7466005E0,3.4432343E-1,-1.0346208E0,-5.52148E-1,1.9131742E0,-9.961498E-1,-4.5027733E-1,1.1572783E-1,1.2994403E-1,7.986293E-1,7.62626E-1,5.6757206E-1,2.1014439E-1,7.955886E-1,1.2125089E0,4.5394918E-1,1.1229707E0,-8.968927E-2,-5.213517E-1,9.428022E-1,-1.390897E-1,-7.4650395E-1,5.912245E-1,-5.010251E-1,3.1917918E-1,-1.9977482E-1,3.7262896E-1,-1.044397E-1,1.1112717E-1,4.338803E-1,-8.6449254E-1,9.0839034E-1,2.373374E-1,-3.2274657E-1,-7.5850755E-1,3.970309E-1,-1.2971875E-1,-1.2387857E-1,8.311822E-1,1.5905574E-3,1.2865646E-1,2.1113575E-1,4.7632253E-1,-2.0735204E-2,-8.19469E-1,-2.3433363E-1,7.227942E-1,2.2763902E-1,4.383431E-2,-7.340723E-1,-5.0297135E-1,-9.2567503E-1,9.6835846E-1,8.3597463E-1,-4.5485523E-1,-7.787047E-2,1.208659E-1,2.660473E-1,1.6035603E-1,4.3149424E-1,1.516494E-1,6.435752E-3,3.722265E-1,6.315777E-2,5.577581E-2,3.524995E-1,9.252698E-2,5.121002E-1,-6.5079105E-1,-3.531034E-1,1.1358883E-1,-6.947761E-1,-5.7323575E-1,-1.9079651E-1,2.0688145E-1,-8.534458E-2,-1.2630096E-1,-4.5079812E-1,2.1354832E-1,-5.199188E-2,-2.6404515E-1,3.9909746E-2,-7.978328E-2,-4.0129313E-1,-2.819454E-1,-9.8465845E-2],"split_indices":[3,55,3,1,104,77,153,183,77,0,41,168,116,189,158,0,0,216,0,178,73,83,202,9,0,20,0,0,0,92,80,0,208,0,212,0,173,46,0,123,0,72,215,68,153,0,0,220,13,0,189,204,0,62,104,39,0,99,0,0,0,118,96,196,0,224,213,0,0,66,0,0,0,0,0,0,0,0,0,0,0,0,0,211,161,0,0,0,0,208,0,0,0,0,0,0,0,0,0],"split_type":[0,0,0,0,0,0,0,0,0,0,0,0,0,0,0,0,0,0,0,0,0,0,0,0,0,0,0,0,0,0,0,0,0,0,0,0,0,0,0,0,0,0,0,0,0,0,0,0,0,0,0,0,0,0,0,0,0,0,0,0,0,0,0,0,0,0,0,0,0,0,0,0,0,0,0,0,0,0,0,0,0,0,0,0,0,0,0,0,0,0,0,0,0,0,0,0,0,0,0],"sum_hessian":[6.7E2,3.68E2,3.02E2,1.56E2,2.12E2,2.29E2,7.3E1,1.2E1,1.44E2,5E0,2.07E2,1.45E2,8.4E1,5.9E1,1.4E1,6E0,6E0,1.38E2,6E0,1.2E2,8.7E1,4.1E1,1.04E2,7.4E1,1E1,4.5E1,1.4E1,8E0,6E0,1.26E2,1.2E1,7E0,1.13E2,4.5E1,4.2E1,7E0,3.4E1,9.5E1,9E0,6.9E1,5E0,2.4E1,2.1E1,1.05E2,2.1E1,6E0,6E0,8.9E1,2.4E1,1.1E1,3.1E1,2.4E1,1E1,7E1,2.5E1,6.4E1,5E0,1.9E1,5E0,1.5E1,6E0,3.5E1,7E1,1.6E1,5E0,1.8E1,7.1E1,1.6E1,8E0,2.1E1,1E1,1.7E1,7E0,2.7E1,4.3E1,1.2E1,1.3E1,8E0,5.6E1,6E0,1.3E1,1E1,2.5E1,2.4E1,4.6E1,1.1E1,5E0,8E0,1E1,6.1E1,1E1,6E0,1.5E1,9E0,1.5E1,9E0,3.7E1,1.9E1,4.2E1],"tree_param":{"num_deleted":"0","num_feature":"235","num_nodes":"99","size_leaf_vector":"1"}},{"base_weights":[-1.9376151E-2,-7.843753E-1,6.6038966E-1,-1.3097106E0,-6.1109006E-1,4.5308927E-1,2.2352846E0,-1.1735572E0,-8.751512E-1,-6.543026E-1,2.904091E-1,2.2746062E-1,8.7539554E-1,1.8364596E0,1.1500002E0,-1.9289875E-2,-1.2703685E0,-1.4132391E0,-5.908952E-1,4.4631028E-1,1.9138084E-1,-9.8383226E-2,9.47101E-1,1.5398838E-1,2.099545E0,-1.5095112E-1,-1.4121351E0,-2.78287E-1,-6.935815E-1,-6.905843E-1,-2.2246516E-1,3.4125158E-1,-9.176437E-4,8.079446E-1,1.7023513E0,9.4962114E-1,1.7830025E0,-5.9590954E-2,-1.5258473E0,-5.955226E-1,-1.6801996E0,3.5579774E-1,-6.163223E-1,1.16594076E-1,-1.9167252E-1,-2.9923955E-2,1.5165047E-1,9.23377E-1,-6.1106905E-2,7.299491E-1,2.1311466E-1,6.0891104E-1,2.7561837E-1,-5.5474496E-1,-3.562707E-1,-8.3884335E-1,-4.2283458E-1,-2.0852162E-1,-7.508778E-1,2.211763E-2,3.094163E-1,-4.2009774E-1,-1.2204587E-1,8.161261E-1,5.5928993E-1,-7.005707E-1,-4.2558822E-1,-3.4264526E-1,-4.2765275E-1,1.1205062E0,5.498452E-1,-7.997987E-2,-2.672984E-1,-2.6188514E-1,-7.456847E-2,5.214802E-1,2.6268935E-1,2.871212E-1,7.621142E-2],"categories":[],"categories_nodes":[],"categories_segments":[],"categories_sizes":[],"default_left":[0,0,0,0,0,0,0,0,0,0,0,0,0,0,0,0,0,0,0,0,0,0,0,0,0,0,0,0,0,0,0,0,0,0,0,0,0,0,0,0,0,0,0,0,0,0,0,0,0,0,0,0,0,0,0,0,0,0,0,0,0,0,0,0,0,0,0,0,0,0,0,0,0,0,0,0,0,0,0],"id":10,"left_children":[1,3,5,7,9,11,13,15,-1,17,-1,19,21,23,-1,-1,25,27,29,-1,31,-1,33,-1,35,-1,37,-1,-1,39,41,43,45,47,49,-1,51,-1,53,55,57,59,61,-1,-1,-1,-1,63,-1,-1,-1,-1,-1,-1,-1,65,67,-1,-1,-1,-1,-1,-1,69,-1,71,-1,73,-1,75,77,-1,-1,-1,-1,-1,-1,-1,-1],"loss_changes":[3.532399E2,2.8464676E1,1.1659477E2,1.4902496E1,1.6916527E1,3.0162773E1,2.1966919E1,7.7664337E0,0E0,1.06792755E1,0E0,9.245507E0,9.795853E0,1.1178688E1,0E0,0E0,6.7570724E0,6.1341553E0,7.8732147E0,0E0,5.891079E0,0E0,9.961334E0,0E0,5.872017E0,0E0,7.5037766E0,0E0,0E0,1.53638E1,1.100477E1,5.6796465E0,4.53224E0,1.0643078E1,1.0154633E1,0E0,3.8143845E0,0E0,4.097252E0,6.316513E0,1.0662334E1,3.6418E0,4.2169037E0,0E0,0E0,0E0,0E0,7.0653687E0,0E0,0E0,0E0,0E0,0E0,0E0,0E0,4.4670753E0,7.149868E0,0E0,0E0,0E0,0E0,0E0,0E0,5.468685E0,0E0,4.28504E0,0E0,4.1402597E0,0E0,3.9249E0,4.6925383E0,0E0,0E0,0E0,0E0,0E0,0E0,0E0,0E0],"parents":[2147483647,0,0,1,1,2,2,3,3,4,4,5,5,6,6,7,7,9,9,11,11,12,12,13,13,16,16,17,17,18,18,20,20,22,22,24,24,26,26,29,29,30,30,31,31,32,32,33,33,34,34,36,36,38,38,39,39,40,40,41,41,42,42,47,47,55,55,56,56,63,63,65,65,67,67,69,69,70,70],"right_children":[2,4,6,8,10,12,14,16,-1,18,-1,20,22,24,-1,-1,26,28,30,-1,32,-1,34,-1,36,-1,38,-1,-1,40,42,44,46,48,50,-1,52,-1,54,56,58,60,62,-1,-1,-1,-1,64,-1,-1,-1,-1,-1,-1,-1,66,68,-1,-1,-1,-1,-1,-1,70,-1,72,-1,74,-1,76,78,-1,-1,-1,-1,-1,-1,-1,-1],"split_conditions":[-7.254349E-2,-7.434736E-1,1.3916208E0,2.045193E0,2.1714532E0,5.26115E-1,3.5937533E-1,-2.563477E-1,-8.751512E-1,-8.561268E-1,2.904091E-1,-9.3574554E-1,-9.803341E-1,-9.1534704E-1,1.1500002E0,-1.9289875E-2,-1.2026293E0,3.722371E-1,7.7136964E-1,4.4631028E-1,6.339746E-1,-9.8383226E-2,4.0222988E-1,1.5398838E-1,8.527084E-1,-1.5095112E-1,-9.210353E-1,-2.78287E-1,-6.935815E-1,1.2518984E0,1.1241417E0,1.602443E0,8.979891E-1,9.050313E-1,-5.8305657E-1,9.4962114E-1,1.9441579E-2,-5.9590954E-2,-3.8653296E-1,-1.22451484E-1,-6.0234976E-1,-2.3284268E-1,-6.152934E-1,1.16594076E-1,-1.9167252E-1,-2.9923955E-2,1.5165047E-1,2.8465754E-1,-6.1106905E-2,7.299491E-1,2.1311466E-1,6.0891104E-1,2.7561837E-1,-5.5474496E-1,-3.562707E-1,1.52627E0,1.1299204E0,-2.0852162E-1,-7.508778E-1,2.211763E-2,3.094163E-1,-4.2009774E-1,-1.2204587E-1,-4.8029196E-1,5.5928993E-1,-6.518325E-1,-4.2558822E-1,-3.0579865E-1,-4.2765275E-1,-7.647866E-1,-5.6448376E-1,-7.997987E-2,-2.672984E-1,-2.6188514E-1,-7.456847E-2,5.214802E-1,2.6268935E-1,2.871212E-1,7.621142E-2],"split_indices":[3,1,40,158,163,68,163,208,0,59,0,148,57,64,0,0,167,173,94,0,233,0,211,0,36,0,35,0,0,45,94,211,85,48,168,0,173,0,72,13,171,47,70,0,0,0,0,158,0,0,0,0,0,0,0,219,107,0,0,0,0,0,0,138,0,29,0,178,0,208,211,0,0,0,0,0,0,0,0],"split_type":[0,0,0,0,0,0,0,0,0,0,0,0,0,0,0,0,0,0,0,0,0,0,0,0,0,0,0,0,0,0,0,0,0,0,0,0,0,0,0,0,0,0,0,0,0,0,0,0,0,0,0,0,0,0,0,0,0,0,0,0,0,0,0,0,0,0,0,0,0,0,0,0,0,0,0,0,0,0,0],"sum_hessian":[6.78E2,3.19E2,3.59E2,7.8E1,2.41E2,3.18E2,4.1E1,7.3E1,5E0,2.35E2,6E0,2.08E2,1.1E2,3.4E1,7E0,6E0,6.7E1,1.7E1,2.18E2,5E0,2.03E2,6E0,1.04E2,6E0,2.8E1,1.1E1,5.6E1,1.2E1,5E0,1.71E2,4.7E1,1.14E2,8.9E1,8.9E1,1.5E1,5E0,2.3E1,5E0,5.1E1,1.57E2,1.4E1,1.9E1,2.8E1,1.09E2,5E0,7.5E1,1.4E1,8E1,9E0,8E0,7E0,1.7E1,6E0,2.4E1,2.7E1,6.4E1,9.3E1,7E0,7E0,1.4E1,5E0,5E0,2.3E1,7.3E1,7E0,5.3E1,1.1E1,8.7E1,6E0,3.3E1,4E1,1.7E1,3.6E1,1.2E1,7.5E1,8E0,2.5E1,1.6E1,2.4E1],"tree_param":{"num_deleted":"0","num_feature":"235","num_nodes":"79","size_leaf_vector":"1"}},{"base_weights":[-6.3141454E-3,-4.572211E-1,5.198751E-1,-7.6791096E-1,-2.252249E-1,3.3738428E-1,1.7185584E0,-9.892041E-1,-3.3804175E-1,3.1101298E-1,-2.5921854E-1,1.7066406E-1,6.1671937E-1,1.2154456E0,1.3254634E0,-1.2605804E0,-5.8065045E-1,5.5809397E-2,-5.234112E-1,-4.9224007E-1,-1.1020709E-1,1.2352849E-1,7.132969E-1,-1.1047238E-1,7.147515E-1,1.785284E0,6.3125783E-1,-6.6773707E-1,-9.151166E-1,1.5236664E-1,-7.358996E-1,-3.698445E-1,-4.2536435E-1,-5.3559445E-2,-7.4061316E-1,-4.930214E-1,-0E0,1.7770366E-1,-9.512122E-2,3.686603E-2,4.5558408E-1,4.0706742E-1,1.0599183E0,1.7257082E-1,6.338486E-1,-4.6876412E-2,3.402478E-1,-9.767782E-2,-1.2133657E0,-1.4113773E-1,-3.667888E-1,-1.9809306E-1,5.74805E-2,-8.4964E-1,2.931337E-2,-3.789077E-1,-6.0285985E-2,2.552039E-2,-5.3922737E-1,-2.378416E-2,2.8518623E-1,-6.0855255E-2,1.6240513E-1,2.0304984E-1,4.251343E-1,-4.5007873E-1,-2.1332139E-1,-1.1066664E-2,-2.880265E-1,3.020308E-2,-3.686664E-1,4.9411766E-3,1.3696466E-1,-5.6641832E-2,1.8819916E-1],"categories":[],"categories_nodes":[],"categories_segments":[],"categories_sizes":[],"default_left":[0,0,0,0,0,0,0,0,0,0,0,0,0,0,0,0,0,0,0,0,0,0,0,0,0,0,0,0,0,0,0,0,0,0,0,0,0,0,0,0,0,0,0,0,0,0,0,0,0,0,0,0,0,0,0,0,0,0,0,0,0,0,0,0,0,0,0,0,0,0,0,0,0,0,0],"id":11,"left_children":[1,3,5,7,9,11,13,15,17,-1,19,21,23,-1,25,27,29,-1,31,33,35,37,39,-1,41,43,45,-1,47,-1,49,51,-1,-1,53,55,57,59,-1,-1,-1,61,63,-1,-1,-1,-1,-1,65,-1,-1,-1,-1,67,-1,-1,-1,-1,69,-1,71,-1,-1,-1,-1,-1,-1,-1,-1,-1,-1,73,-1,-1,-1],"loss_changes":[1.628218E2,2.6468468E1,6.876177E1,1.46968155E1,9.275307E0,1.2718485E1,3.4706963E1,1.0906113E1,5.399906E0,0E0,7.136017E0,4.330724E0,1.0116783E1,0E0,1.0822052E1,1.9261642E1,7.472705E0,0E0,5.170374E0,6.122593E0,5.409873E0,3.8733382E0,6.304433E0,0E0,9.575066E0,7.8503113E0,6.437191E0,0E0,7.827202E0,0E0,4.3992043E0,5.9910054E0,0E0,0E0,4.183485E0,6.2088056E0,4.5968637E0,4.0006313E0,0E0,0E0,0E0,4.320627E0,5.2782364E0,0E0,0E0,0E0,0E0,0E0,3.6622925E0,0E0,0E0,0E0,0E0,3.607811E0,0E0,0E0,0E0,0E0,6.222189E0,0E0,4.9074793E0,0E0,0E0,0E0,0E0,0E0,0E0,0E0,0E0,0E0,0E0,4.92633E0,0E0,0E0,0E0],"parents":[2147483647,0,0,1,1,2,2,3,3,4,4,5,5,6,6,7,7,8,8,10,10,11,11,12,12,14,14,15,15,16,16,18,18,19,19,20,20,21,21,22,22,24,24,25,25,26,26,28,28,30,30,31,31,34,34,35,35,36,36,37,37,41,41,42,42,48,48,53,53,58,58,60,60,71,71],"right_children":[2,4,6,8,10,12,14,16,18,-1,20,22,24,-1,26,28,30,-1,32,34,36,38,40,-1,42,44,46,-1,48,-1,50,52,-1,-1,54,56,58,60,-1,-1,-1,62,64,-1,-1,-1,-1,-1,66,-1,-1,-1,-1,68,-1,-1,-1,-1,70,-1,72,-1,-1,-1,-1,-1,-1,-1,-1,-1,-1,74,-1,-1,-1],"split_conditions":[6.924263E-2,-5.7224214E-1,9.875627E-1,3.7872943E-1,-6.589726E-1,5.6462395E-1,8.6586267E-1,-6.160766E-1,-3.1784812E-1,3.1101298E-1,-3.1620106E-1,1.5303384E0,-8.8671374E-1,1.2154456E0,-5.9502256E-1,-5.1531774E-1,-7.7749836E-1,5.5809397E-2,-5.360064E-1,6.812362E-2,-5.804127E-1,1.2464631E0,-6E-1,-1.1047238E-1,7.644882E-1,-4.4140345E-1,0E0,-6.6773707E-1,9.026001E-2,1.5236664E-1,1.221845E0,-2.3428111E-1,-4.2536435E-1,-5.3559445E-2,2.641301E-1,-2.0632228E-1,1.2033881E-1,-4.160463E-1,-9.512122E-2,3.686603E-2,4.5558408E-1,-6.709626E-1,7.6489645E-1,1.7257082E-1,6.338486E-1,-4.6876412E-2,3.402478E-1,-9.767782E-2,5E-1,-1.4113773E-1,-3.667888E-1,-1.9809306E-1,5.74805E-2,-5.660906E-1,2.931337E-2,-3.789077E-1,-6.0285985E-2,2.552039E-2,-2.1509752E-1,-2.378416E-2,-5.914364E-1,-6.0855255E-2,1.6240513E-1,2.0304984E-1,4.251343E-1,-4.5007873E-1,-2.1332139E-1,-1.1066664E-2,-2.880265E-1,3.020308E-2,-3.686664E-1,5.975975E-1,1.3696466E-1,-5.6641832E-2,1.8819916E-1],"split_indices":[40,55,165,17,60,1,205,122,66,0,44,143,73,0,50,51,212,0,136,158,136,92,228,0,105,211,227,0,85,0,99,216,0,0,176,168,30,210,0,0,0,106,140,0,0,0,0,0,227,0,0,0,0,15,0,0,0,0,37,0,198,0,0,0,0,0,0,0,0,0,0,69,0,0,0],"split_type":[0,0,0,0,0,0,0,0,0,0,0,0,0,0,0,0,0,0,0,0,0,0,0,0,0,0,0,0,0,0,0,0,0,0,0,0,0,0,0,0,0,0,0,0,0,0,0,0,0,0,0,0,0,0,0,0,0,0,0,0,0,0,0,0,0,0,0,0,0,0,0,0,0,0,0],"sum_hessian":[6.85E2,3.69E2,3.16E2,1.57E2,2.12E2,2.75E2,4.1E1,1.03E2,5.4E1,5E0,2.07E2,1.73E2,1.02E2,5E0,3.6E1,6.1E1,4.2E1,1.4E1,4E1,8E1,1.27E2,1.6E2,1.3E1,9E0,9.3E1,2.1E1,1.5E1,1.5E1,4.6E1,5E0,3.7E1,3.5E1,5E0,3.6E1,4.4E1,2.8E1,9.9E1,1.43E2,1.7E1,8E0,5E0,5E1,4.3E1,5E0,1.6E1,6E0,9E0,1.6E1,3E1,2.5E1,1.2E1,2.3E1,1.2E1,3.9E1,5E0,7E0,2.1E1,8.6E1,1.3E1,4.2E1,1.01E2,9E0,4.1E1,2.2E1,2.1E1,1.8E1,1.2E1,5E0,3.4E1,7E0,6E0,3.9E1,6.2E1,3E1,9E0],"tree_param":{"num_deleted":"0","num_feature":"235","num_nodes":"75","size_leaf_vector":"1"}},{"base_weights":[-9.687952E-3,-3.3429906E-1,3.4822613E-1,-5.457925E-1,-1.6423087E-1,2.8672916E-1,7.0641345E-1,-4.8820537E-1,-6.193737E-1,-2.0269197E-1,1.8303409E-1,1.8101889E-1,6.8698317E-1,-4.295296E-1,-5.2685344E-1,-2.4232706E-1,1.9616613E-1,2.0702353E-1,-1.9981371E-1,9.140155E-1,-3.2410607E-1,-5.0393856E-1,1.8518527E-1,-1.7488409E-2,-3.8994625E-1,1.6213132E-1,6.6822934E-1,1.0238473E0,-4.326655E-2,1.3473208E-1,-4.030789E-1,-1.0845569E0,-4.0787864E-1,-1.2273937E-1,2.3154661E-1,-5.241404E-1,2.8721584E-2,2.4890944E-1,3.9316986E-2,4.5289245E-1,5.7452727E-2,1.0864406E-1,3.6629662E-1,-4.7393236E-1,-1.8097228E-1,-1.0424426E0,-3.3492655E-1,-3.9187196E-1,-1.305306E-1,-4.8908323E-1,-6.355568E-2,-3.7878618E-1,1.4175089E-1,-3.2596073E-1,-8.9757636E-2],"categories":[],"categories_nodes":[],"categories_segments":[],"categories_sizes":[],"default_left":[0,0,0,0,0,0,0,0,0,0,0,0,0,0,0,0,0,0,0,0,0,0,0,0,0,0,0,0,0,0,0,0,0,0,0,0,0,0,0,0,0,0,0,0,0,0,0,0,0,0,0,0,0,0,0],"id":12,"left_children":[1,3,5,7,9,11,-1,13,-1,15,-1,17,19,21,-1,23,-1,25,-1,27,29,31,33,-1,35,37,39,41,-1,-1,-1,43,45,-1,-1,47,-1,-1,-1,-1,-1,-1,-1,-1,-1,49,51,-1,-1,-1,-1,53,-1,-1,-1],"loss_changes":[8.054511E1,1.2976227E1,4.028571E1,1.3414303E1,6.108226E0,1.3430958E1,0E0,1.1102554E1,0E0,6.670391E0,0E0,5.6864624E0,1.5522055E1,6.969967E0,0E0,4.992216E0,0E0,5.0043793E0,0E0,6.5051727E0,1.0488575E1,7.1314354E0,6.0773234E0,0E0,6.755019E0,4.505806E0,8.435584E0,6.251667E0,0E0,0E0,0E0,3.7272987E0,5.088251E0,0E0,0E0,5.055746E0,0E0,0E0,0E0,0E0,0E0,0E0,0E0,0E0,0E0,5.402876E0,3.8584204E0,0E0,0E0,0E0,0E0,5.3132095E0,0E0,0E0,0E0],"parents":[2147483647,0,0,1,1,2,2,3,3,4,4,5,5,7,7,9,9,11,11,12,12,13,13,15,15,17,17,19,19,20,20,21,21,22,22,24,24,25,25,26,26,27,27,31,31,32,32,35,35,45,45,46,46,51,51],"right_children":[2,4,6,8,10,12,-1,14,-1,16,-1,18,20,22,-1,24,-1,26,-1,28,30,32,34,-1,36,38,40,42,-1,-1,-1,44,46,-1,-1,48,-1,-1,-1,-1,-1,-1,-1,-1,-1,50,52,-1,-1,-1,-1,54,-1,-1,-1],"split_conditions":[6.924263E-2,-5.7224214E-1,1.7991323E0,2.1756172E0,3.0933362E-1,8.1670463E-1,7.0641345E-1,1.9233489E0,-6.193737E-1,1.5567005E0,1.8303409E-1,8.511352E-1,-2.5587127E-1,1.3175476E0,-5.2685344E-1,5.2346066E-3,1.9616613E-1,9.244087E-1,-1.9981371E-1,2.3433173E0,-4.7494775E-1,-6.66734E-1,-6.513604E-1,-1.7488409E-2,3.3597618E-1,-8.397258E-1,-2.1409689E-1,7.829326E-1,-4.326655E-2,1.3473208E-1,-4.030789E-1,-7.3148984E-1,-7.7442044E-1,-1.2273937E-1,2.3154661E-1,4.5123287E-2,2.8721584E-2,2.4890944E-1,3.9316986E-2,4.5289245E-1,5.7452727E-2,1.0864406E-1,3.6629662E-1,-4.7393236E-1,-1.8097228E-1,-7.2068185E-1,1.8690052E0,-3.9187196E-1,-1.305306E-1,-4.8908323E-1,-6.355568E-2,-1.1942033E0,1.4175089E-1,-3.2596073E-1,-8.9757636E-2],"split_indices":[40,55,1,153,172,15,0,133,0,153,0,55,148,153,0,138,0,203,0,101,133,51,75,0,58,50,43,134,0,0,0,117,101,0,0,138,0,0,0,0,0,0,0,0,0,62,208,0,0,0,0,91,0,0,0],"split_type":[0,0,0,0,0,0,0,0,0,0,0,0,0,0,0,0,0,0,0,0,0,0,0,0,0,0,0,0,0,0,0,0,0,0,0,0,0,0,0,0,0,0,0,0,0,0,0,0,0,0,0,0,0,0,0],"sum_hessian":[6.92E2,3.63E2,3.29E2,1.61E2,2.02E2,3.2E2,9E0,1.56E2,5E0,1.93E2,9E0,2.54E2,6.6E1,1.5E2,6E0,1.85E2,8E0,2.47E2,7E0,5.4E1,1.2E1,1.34E2,1.6E1,8.3E1,1.02E2,2.26E2,2.1E1,4.9E1,5E0,7E0,5E0,1.8E1,1.16E2,8E0,8E0,8E1,2.2E1,9E0,2.17E2,7E0,1.4E1,1.2E1,3.7E1,8E0,1E1,1.1E1,1.05E2,7E0,7.3E1,6E0,5E0,1E2,5E0,9E0,9.1E1],"tree_param":{"num_deleted":"0","num_feature":"235","num_nodes":"55","size_leaf_vector":"1"}},{"base_weights":[-2.248998E-3,-1.4023559E-1,5.2265656E-1,-3.2565033E-1,2.1160357E-2,3.378162E-1,9.2292655E-1,-2.9560387E-1,-4.6932614E-1,-3.8526438E-3,6.7201155E-1,4.0322092E-1,-2.2471687E-1,7.374981E-1,6.209328E-1,1.9742568E-1,-3.481002E-1,-8.251295E-3,1.9268969E-1,4.3076685E-1,-4.84911E-2,2.26235E-1,7.488365E-1,1.5048905E-1,3.931785E-1,3.8545617E-1,-6.488127E-2,-1.7864451E-1,-5.78496E-1,-1.7113733E-1,3.3648068E-1,2.8405255E-1,-1.909066E-2,-2.5927138E-1,7.295266E-2,-4.7595215E-1,-3.7658477E-1,1.5341138E-2,1.8263695E-1,1.5739542E-1,-9.003627E-2,-3.993347E-1,-4.339526E-1,1.0862084E-1,-4.6833646E-1,-1.1379743E-1,-4.2446485E-1],"categories":[],"categories_nodes":[],"categories_segments":[],"categories_sizes":[],"default_left":[0,0,0,0,0,0,0,0,0,0,0,0,0,0,0,0,0,0,0,0,0,0,0,0,0,0,0,0,0,0,0,0,0,0,0,0,0,0,0,0,0,0,0,0,0,0,0],"id":13,"left_children":[1,3,5,7,9,11,13,15,-1,17,19,21,-1,23,-1,25,27,-1,-1,-1,-1,29,31,-1,-1,-1,-1,33,35,-1,37,-1,-1,39,-1,41,-1,-1,-1,-1,-1,43,-1,-1,45,-1,-1],"loss_changes":[4.859553E1,1.5933447E1,1.0051186E1,8.853176E0,4.6789274E0,7.060198E0,8.198677E0,6.333294E0,0E0,4.2088637E0,7.0665984E0,5.4342537E0,0E0,4.686487E0,0E0,1.0961121E1,8.460089E0,0E0,0E0,0E0,0E0,5.5376344E0,5.1319237E0,0E0,0E0,0E0,0E0,4.393179E0,5.988676E0,0E0,4.2211556E0,0E0,0E0,3.6569657E0,0E0,5.6224823E0,0E0,0E0,0E0,0E0,0E0,4.1495943E0,0E0,0E0,5.4159136E0,0E0,0E0],"parents":[2147483647,0,0,1,1,2,2,3,3,4,4,5,5,6,6,7,7,9,9,10,10,11,11,13,13,15,15,16,16,21,21,22,22,27,27,28,28,30,30,33,33,35,35,41,41,44,44],"right_children":[2,4,6,8,10,12,14,16,-1,18,20,22,-1,24,-1,26,28,-1,-1,-1,-1,30,32,-1,-1,-1,-1,34,36,-1,38,-1,-1,40,-1,42,-1,-1,-1,-1,-1,44,-1,-1,46,-1,-1],"split_conditions":[5.6462395E-1,-3.6035046E-1,8.1356233E-1,2.3471975E0,1.5255646E0,1.9816566E0,1.6305287E0,-1.4448882E0,-4.6932614E-1,9.211622E-1,1.1939694E0,8.036316E-1,-2.2471687E-1,7.032141E-1,6.209328E-1,-6.0391414E-1,4.3141988E-1,-8.251295E-3,1.9268969E-1,4.3076685E-1,-4.84911E-2,-7.605623E-1,1.843691E0,1.5048905E-1,3.931785E-1,3.8545617E-1,-6.488127E-2,-4.557396E-1,3.7353224E-1,-1.7113733E-1,-6.0392755E-1,2.8405255E-1,-1.909066E-2,-4.6256024E-1,7.295266E-2,2.048419E0,-3.7658477E-1,1.5341138E-2,1.8263695E-1,1.5739542E-1,-9.003627E-2,-2.3684722E-1,-4.339526E-1,1.0862084E-1,-4.5705017E-1,-1.1379743E-1,-4.2446485E-1],"split_indices":[1,3,6,158,209,124,140,44,0,151,44,144,0,225,0,155,92,0,0,0,0,133,81,0,0,0,0,169,101,0,50,0,0,163,0,153,0,0,0,0,0,57,0,0,3,0,0],"split_type":[0,0,0,0,0,0,0,0,0,0,0,0,0,0,0,0,0,0,0,0,0,0,0,0,0,0,0,0,0,0,0,0,0,0,0,0,0,0,0,0,0,0,0,0,0,0,0],"sum_hessian":[6.7E2,5.31E2,1.39E2,2.47E2,2.84E2,9.6E1,4.3E1,2.42E2,5E0,2.74E2,1E1,9.1E1,5E0,3.8E1,5E0,2.3E1,2.19E2,2.65E2,9E0,5E0,5E0,6.1E1,3E1,2.8E1,1E1,6E0,1.7E1,1.27E2,9.2E1,7E0,5.4E1,2.4E1,6E0,1.07E2,2E1,8.1E1,1.1E1,2.7E1,2.7E1,5E0,1.02E2,7.6E1,5E0,6E0,7E1,6.5E1,5E0],"tree_param":{"num_deleted":"0","num_feature":"235","num_nodes":"47","size_leaf_vector":"1"}},{"base_weights":[2.703667E-3,-2.1745712E-1,1.7815039E-1,-7.252389E-1,-1.7412463E-1,1.543304E-1,4.4908214E-1,-1.5787195E-1,-4.5772278E-1,-1.5158832E-1,-3.23756E-1,1.3192837E-1,8.4437567E-1,-2.4160102E-1,6.7648746E-2,1.9723515E-1,-2.2784574E-1,4.40712E-1,2.7437693E-2,-6.772321E-3,4.5093486E-1,-6.3843936E-2,6.3724107E-1,-1.281065E-1,-1.2813002E-1,3.184333E-1,7.332186E-2,1.0525898E-1,-1.226608E-1,3.185522E-1,1.6154265E-2,-7.6361716E-2,-2.2264504E-1,-2.5467396E-1,-1.1215421E-2],"categories":[],"categories_nodes":[],"categories_segments":[],"categories_sizes":[],"default_left":[0,0,0,0,0,0,0,0,0,0,0,0,0,0,0,0,0,0,0,0,0,0,0,0,0,0,0,0,0,0,0,0,0,0,0],"id":14,"left_children":[1,3,5,7,9,11,-1,13,-1,15,-1,17,19,-1,-1,21,23,25,-1,-1,-1,27,29,31,-1,-1,-1,-1,-1,-1,-1,33,-1,-1,-1],"loss_changes":[2.654426E1,6.5643597E0,1.1825934E1,1.0562269E1,5.5904675E0,5.687953E0,0E0,3.8163857E0,0E0,7.362453E0,0E0,4.462427E0,6.831414E0,0E0,0E0,5.764909E0,4.4761477E0,4.832217E0,0E0,0E0,0E0,4.663191E0,4.5560374E0,4.7863784E0,0E0,0E0,0E0,0E0,0E0,0E0,0E0,4.1891365E0,0E0,0E0,0E0],"parents":[2147483647,0,0,1,1,2,2,3,3,4,4,5,5,7,7,9,9,11,11,12,12,15,15,16,16,17,17,21,21,22,22,23,23,31,31],"right_children":[2,4,6,8,10,12,-1,14,-1,16,-1,18,20,-1,-1,22,24,26,-1,-1,-1,28,30,32,-1,-1,-1,-1,-1,-1,-1,34,-1,-1,-1],"split_conditions":[-1.7951362E-1,-8.8689524E-1,1.8653774E0,5.934572E-1,2.3471975E0,2.758465E0,4.4908214E-1,9.2308775E-2,-4.5772278E-1,-8.358323E-1,-3.23756E-1,-7.8107035E-1,2.2528341E-1,-2.4160102E-1,6.7648746E-2,-7.0432484E-1,5.122386E-1,-7.5596374E-1,2.7437693E-2,-6.772321E-3,4.5093486E-1,2.907345E-1,1.8314572E-1,1.6924986E0,-1.2813002E-1,3.184333E-1,7.332186E-2,1.0525898E-1,-1.226608E-1,3.185522E-1,1.6154265E-2,-5.27341E-1,-2.2264504E-1,-2.5467396E-1,-1.1215421E-2],"split_indices":[2,101,55,158,158,108,0,208,0,223,0,4,199,0,0,0,208,106,0,0,0,168,209,64,0,0,0,0,0,0,0,123,0,0,0],"split_type":[0,0,0,0,0,0,0,0,0,0,0,0,0,0,0,0,0,0,0,0,0,0,0,0,0,0,0,0,0,0,0,0,0,0,0],"sum_hessian":[6.86E2,3.04E2,3.82E2,2.3E1,2.81E2,3.76E2,6E0,1.4E1,9E0,2.75E2,6E0,3.65E2,1.1E1,5E0,9E0,4.9E1,2.26E2,4.1E1,3.24E2,5E0,6E0,3.1E1,1.8E1,1.52E2,7.4E1,9E0,3.2E1,1.4E1,1.7E1,1E1,8E0,1.41E2,1.1E1,6E0,1.35E2],"tree_param":{"num_deleted":"0","num_feature":"235","num_nodes":"35","size_leaf_vector":"1"}},{"base_weights":[4.5693386E-3,-9.478085E-2,2.356365E-1,-3.0646315E-1,-7.7391975E-2,1.7789312E-1,1.1832318E0,-3.708424E-2,9.211072E-2,-1.7936921E-1,2.1365108E-1,6.337123E-1,7.861143E-2,3.0695615E-2,3.35569E-1,-1.1055091E-1,2.893748E-1,2.5959334E-1,-2.035951E-2,7.425627E-2,-4.898199E-1,3.2437325E-1,2.5137553E-1,-3.7488427E-2,1.2596527E-1,-3.357584E-2,-3.791336E-1,3.369009E-1,-7.453295E-2,-1.1902539E-1,1.1350561E-1,-5.472832E-1,8.6601965E-2,-2.0420657E-2,-3.608004E-1],"categories":[],"categories_nodes":[],"categories_segments":[],"categories_sizes":[],"default_left":[0,0,0,0,0,0,0,0,0,0,0,0,0,0,0,0,0,0,0,0,0,0,0,0,0,0,0,0,0,0,0,0,0,0,0],"id":15,"left_children":[1,3,5,-1,7,9,11,-1,13,-1,15,-1,-1,17,-1,19,21,-1,23,-1,25,-1,27,-1,-1,-1,-1,29,31,-1,-1,33,-1,-1,-1],"loss_changes":[1.5694264E1,7.613053E0,1.102965E1,0E0,3.7329233E0,5.4740763E0,9.536985E0,0E0,6.3412237E0,0E0,4.6137524E0,0E0,0E0,4.2033496E0,0E0,4.947203E0,4.3304625E0,0E0,4.2747746E0,0E0,5.007946E0,0E0,4.092327E0,0E0,0E0,0E0,0E0,3.7640705E0,5.3961377E0,0E0,0E0,4.1789885E0,0E0,0E0,0E0],"parents":[2147483647,0,0,1,1,2,2,4,4,5,5,6,6,8,8,10,10,13,13,15,15,16,16,18,18,20,20,22,22,27,27,28,28,31,31],"right_children":[2,4,6,-1,8,10,12,-1,14,-1,16,-1,-1,18,-1,20,22,-1,24,-1,26,-1,28,-1,-1,-1,-1,30,32,-1,-1,34,-1,-1,-1],"split_conditions":[3.3027378E-1,-1.9166899E0,1.2660142E0,-3.0646315E-1,6.0922325E-1,-1.3961542E0,1.1994176E0,-3.708424E-2,1.7262101E0,-1.7936921E-1,-5.902343E-1,6.337123E-1,7.861143E-2,-5.373055E-1,3.35569E-1,-3.4545588E-1,-9.227704E-1,2.5959334E-1,1.0688382E0,7.425627E-2,9.2830086E-1,3.2437325E-1,8.1709605E-1,-3.7488427E-2,1.2596527E-1,-3.357584E-2,-3.791336E-1,1.9819301E-1,2.155103E-1,-1.1902539E-1,1.1350561E-1,-5.933402E-1,8.6601965E-2,-2.0420657E-2,-3.608004E-1],"split_indices":[2,51,28,0,94,44,93,0,163,0,80,0,0,43,0,148,44,0,64,0,111,0,52,0,0,0,0,115,34,0,0,173,0,0,0],"split_type":[0,0,0,0,0,0,0,0,0,0,0,0,0,0,0,0,0,0,0,0,0,0,0,0,0,0,0,0,0,0,0,0,0,0,0],"sum_hessian":[6.82E2,4.77E2,2.05E2,8E0,4.69E2,1.94E2,1.1E1,3.68E2,1.01E2,8E0,1.86E2,5E0,6E0,9.6E1,5E0,3.5E1,1.51E2,5E0,9.1E1,1.8E1,1.7E1,6E0,1.45E2,7.4E1,1.7E1,1.2E1,5E0,1.15E2,3E1,6E0,1.09E2,1.3E1,1.7E1,8E0,5E0],"tree_param":{"num_deleted":"0","num_feature":"235","num_nodes":"35","size_leaf_vector":"1"}},{"base_weights":[-1.2981295E-2,-1.2907135E-1,1.1728126E-1,-3.4844038E-1,-7.2987154E-2,8.854246E-2,3.1101897E-1,-2.2183727E-1,-5.716398E-2,1.3509709E-1,-1.08961515E-1,-1.0847524E-1,1.5076332E-1,-6.954809E-1,-8.4702484E-2,-1.6779257E-1,-0E0,1.4865512E-1,1.03058405E-1,-3.8897443E-1,-0E0,2.5904864E-1,-1.1317875E-1,4.281482E-2,-6.6105026E-1,-8.293044E-2,-1.9157511E-1,-3.9874735E-1,2.265063E-2,-1.09438285E-1,-8.610973E-3],"categories":[],"categories_nodes":[],"categories_segments":[],"categories_sizes":[],"default_left":[0,0,0,0,0,0,0,0,0,0,0,0,0,0,0,0,0,0,0,0,0,0,0,0,0,0,0,0,0,0,0],"id":16,"left_children":[1,3,5,7,9,11,-1,-1,-1,-1,13,15,17,19,21,-1,-1,-1,23,-1,-1,-1,25,-1,27,29,-1,-1,-1,-1,-1],"loss_changes":[1.0393773E1,4.430266E0,8.462822E0,4.408862E0,5.5013943E0,3.8700976E0,0E0,0E0,0E0,0E0,3.7909808E0,3.7290437E0,3.8948646E0,4.412921E0,7.1334767E0,0E0,0E0,0E0,6.5428963E0,0E0,0E0,0E0,4.0039196E0,0E0,5.428242E0,3.688805E0,0E0,0E0,0E0,0E0,0E0],"parents":[2147483647,0,0,1,1,2,2,3,3,4,4,5,5,10,10,11,11,12,12,13,13,14,14,18,18,22,22,24,24,25,25],"right_children":[2,4,6,8,10,12,-1,-1,-1,-1,14,16,18,20,22,-1,-1,-1,24,-1,-1,-1,26,-1,28,30,-1,-1,-1,-1,-1],"split_conditions":[7.358331E-2,-8.1499803E-1,1.3971003E0,6.609714E-2,-7.397863E-1,-5.243755E-1,3.1101897E-1,-2.2183727E-1,-5.716398E-2,1.3509709E-1,-6.339746E-1,-6.0989034E-1,-7.5596374E-1,-1.4102371E-1,-1.0897977E0,-1.6779257E-1,-0E0,1.4865512E-1,1.5657029E0,-3.8897443E-1,-0E0,2.5904864E-1,1.771681E0,4.281482E-2,1.8119447E0,-6.228625E-1,-1.9157511E-1,-3.9874735E-1,2.265063E-2,-1.09438285E-1,-8.610973E-3],"split_indices":[49,60,209,188,68,16,0,0,0,0,234,128,106,194,223,0,0,0,74,0,0,0,92,0,88,63,0,0,0,0,0],"split_type":[0,0,0,0,0,0,0,0,0,0,0,0,0,0,0,0,0,0,0,0,0,0,0,0,0,0,0,0,0,0,0],"sum_hessian":[6.86E2,3.63E2,3.23E2,7.3E1,2.9E2,3.14E2,9E0,2E1,5.3E1,1.8E1,2.72E2,7.5E1,2.39E2,1E1,2.62E2,1.4E1,6.1E1,2.8E1,2.11E2,5E0,5E0,7E0,2.55E2,2.01E2,1E1,2.42E2,1.3E1,5E0,5E0,3.8E1,2.04E2],"tree_param":{"num_deleted":"0","num_feature":"235","num_nodes":"31","size_leaf_vector":"1"}},{"base_weights":[-9.901252E-3,-3.937941E-2,2.3088703E-1,-2.8140591E-2,-2.4331705E-1,9.389027E-2,-1.2627922E-1,-1.6272632E-2,-2.039433E-1,-6.561204E-2,1.20045975E-1,-3.8096573E-2,-1.205129E-1,-5.3476267E-2,2.037448E-1,2.6907153E-2,-1.8310696E-1,3.3676368E-1,4.7258317E-2,-1.025994E-1,6.761724E-2,1.9751154E-1,-8.071538E-2,9.637155E-2,-7.4102227E-3,-1.565305E-2,2.546925E-1,-8.1534564E-2,2.9037599E-2],"categories":[],"categories_nodes":[],"categories_segments":[],"categories_sizes":[],"default_left":[0,0,0,0,0,0,0,0,0,0,0,0,0,0,0,0,0,0,0,0,0,0,0,0,0,0,0,0,0],"id":17,"left_children":[1,3,5,7,-1,-1,-1,9,-1,11,13,15,-1,-1,17,19,21,-1,-1,-1,23,25,-1,-1,27,-1,-1,-1,-1],"loss_changes":[4.859917E0,5.2601023E0,4.150236E0,4.6377516E0,0E0,0E0,0E0,3.9941585E0,0E0,4.0210624E0,3.9709845E0,3.827464E0,0E0,0E0,5.0012717E0,4.2137938E0,4.205983E0,0E0,0E0,0E0,4.8566027E0,3.9509132E0,0E0,0E0,5.464998E0,0E0,0E0,0E0,0E0],"parents":[2147483647,0,0,1,1,2,2,3,3,7,7,9,9,10,10,11,11,14,14,15,15,16,16,20,20,21,21,24,24],"right_children":[2,4,6,8,-1,-1,-1,10,-1,12,14,16,-1,-1,18,20,22,-1,-1,-1,24,26,-1,-1,28,-1,-1,-1,-1],"split_conditions":[8.379813E-1,2.8175302E0,3.9200684E-1,7.885567E-1,-2.4331705E-1,9.389027E-2,-1.2627922E-1,4.710511E-1,-2.039433E-1,7.008715E-1,-6.691291E-1,4.6308038E-1,-1.205129E-1,-5.3476267E-2,-7.1593505E-1,-6.356981E-1,-6.976074E-1,3.3676368E-1,4.7258317E-2,-1.025994E-1,-4.8910487E-1,-8.697037E-1,-8.071538E-2,9.637155E-2,-5.2270263E-1,-1.565305E-2,2.546925E-1,-8.1534564E-2,2.9037599E-2],"split_indices":[98,158,85,82,0,0,0,45,0,52,63,198,0,0,74,50,58,0,0,0,108,58,0,0,52,0,0,0,0],"split_type":[0,0,0,0,0,0,0,0,0,0,0,0,0,0,0,0,0,0,0,0,0,0,0,0,0,0,0,0,0],"sum_hessian":[6.85E2,6.11E2,7.4E1,6.03E2,8E0,6.6E1,8E0,5.93E2,1E1,4.36E2,1.57E2,4.04E2,3.2E1,3.4E1,1.23E2,2.79E2,1.25E2,5E0,1.18E2,2.7E1,2.52E2,2.3E1,1.02E2,5.7E1,1.95E2,1.7E1,6E0,5.5E1,1.4E2],"tree_param":{"num_deleted":"0","num_feature":"235","num_nodes":"29","size_leaf_vector":"1"}},{"base_weights":[-0E0,-1.7090017E-2,8.7802255E-1,-3.6378507E-2,1.0378008E-1,-3.0610126E-2,5.32945E-1,-2.1534826E-1,-7.935249E-3],"categories":[],"categories_nodes":[],"categories_segments":[],"categories_sizes":[],"default_left":[0,0,0,0,0,0,0,0,0],"id":18,"left_children":[1,3,5,7,-1,-1,-1,-1,-1],"loss_changes":[9.930154E0,4.570096E0,1.1454079E1,4.1006064E0,0E0,0E0,0E0,0E0,0E0],"parents":[2147483647,0,0,1,1,2,2,3,3],"right_children":[2,4,6,8,-1,-1,-1,-1,-1],"split_conditions":[2.3464727E0,1.3516303E0,-1.8193105E-1,-2.1407855E0,1.0378008E-1,-3.0610126E-2,5.32945E-1,-2.1534826E-1,-7.935249E-3],"split_indices":[163,209,107,44,0,0,0,0,0],"split_type":[0,0,0,0,0,0,0,0,0],"sum_hessian":[6.63E2,6.51E2,1.2E1,6.19E2,3.2E1,6E0,6E0,8E0,6.11E2],"tree_param":{"num_deleted":"0","num_feature":"235","num_nodes":"9","size_leaf_vector":"1"}},{"base_weights":[-8.582023E-3,-2.4564667E-2,7.8673095E-2,-8.961288E-3,5.8641825E-2],"categories":[],"categories_nodes":[],"categories_segments":[],"categories_sizes":[],"default_left":[0,0,0,0,0],"id":19,"left_children":[1,-1,3,-1,-1],"loss_changes":[4.282925E0,0E0,3.9104617E0,0E0,0E0],"parents":[2147483647,0,0,2,2],"right_children":[2,-1,4,-1,-1],"split_conditions":[6.924263E-2,-2.4564667E-2,-3.858085E-1,-8.961288E-3,5.8641825E-2],"split_indices":[40,0,198,0,0],"split_type":[0,0,0,0,0],"sum_hessian":[6.65E2,3.61E2,3.04E2,1.58E2,1.46E2],"tree_param":{"num_deleted":"0","num_feature":"235","num_nodes":"5","size_leaf_vector":"1"}},{"base_weights":[-8.245479E-3,1.05105795E-1,-2.1342618E-2,2.3417037E-2,3.5649306E-1],"categories":[],"categories_nodes":[],"categories_segments":[],"categories_sizes":[],"default_left":[0,0,0,0,0],"id":20,"left_children":[1,3,-1,-1,-1],"loss_changes":[4.8008676E0,6.822258E0,0E0,0E0,0E0],"parents":[2147483647,0,0,1,1],"right_children":[2,4,-1,-1,-1],"split_conditions":[-2.5142366E-1,1.7965707E0,-2.1342618E-2,2.3417037E-2,3.5649306E-1],"split_indices":[85,209,0,0,0],"split_type":[0,0,0,0,0],"sum_hessian":[6.69E2,2.39E2,4.3E2,2.34E2,5E0],"tree_param":{"num_deleted":"0","num_feature":"235","num_nodes":"5","size_leaf_vector":"1"}},{"base_weights":[4.5124525E-3,-2.1425886E-2,2.3386502E-1,-3.7537068E-3,-2.7955243E-1,1.2616283E-1,3.590869E-1,2.4788845E-1,-1.6139983E-1,-4.7351878E-2,1.2373105E-1],"categories":[],"categories_nodes":[],"categories_segments":[],"categories_sizes":[],"default_left":[0,0,0,0,0,0,0,0,0,0,0],"id":21,"left_children":[1,3,5,-1,-1,7,-1,9,-1,-1,-1],"loss_changes":[3.9590392E0,4.75596E0,6.8718596E0,0E0,0E0,5.066801E0,0E0,3.6179159E0,0E0,0E0,0E0],"parents":[2147483647,0,0,1,1,2,2,5,5,7,7],"right_children":[2,4,6,-1,-1,8,-1,10,-1,-1,-1],"split_conditions":[8.66666E-1,2.8175302E0,1.5646003E0,-3.7537068E-3,-2.7955243E-1,9.08333E-1,3.590869E-1,-4.8109162E-1,-1.6139983E-1,-4.7351878E-2,1.2373105E-1],"split_indices":[6,158,140,0,0,174,0,204,0,0,0],"split_type":[0,0,0,0,0,0,0,0,0,0,0],"sum_hessian":[6.62E2,5.95E2,6.7E1,5.9E2,5E0,6.1E1,6E0,5.2E1,9E0,1.5E1,3.7E1],"tree_param":{"num_deleted":"0","num_feature":"235","num_nodes":"11","size_leaf_vector":"1"}},{"base_weights":[-1.4351488E-2,-2.4743143E-1,-1.7768661E-3],"categories":[],"categories_nodes":[],"categories_segments":[],"categories_sizes":[],"default_left":[0,0,0],"id":22,"left_children":[1,-1,-1],"loss_changes":[4.44091E0,0E0,0E0],"parents":[2147483647,0,0],"right_children":[2,-1,-1],"split_conditions":[-1.0199037E0,-2.4743143E-1,-1.7768661E-3],"split_indices":[34,0,0],"split_type":[0,0,0],"sum_hessian":[6.57E2,6E0,6.51E2],"tree_param":{"num_deleted":"0","num_feature":"235","num_nodes":"3","size_leaf_vector":"1"}},{"base_weights":[8.183785E-3],"categories":[],"categories_nodes":[],"categories_segments":[],"categories_sizes":[],"default_left":[0],"id":23,"left_children":[-1],"loss_changes":[0E0],"parents":[2147483647],"right_children":[-1],"split_conditions":[2.4441802E-3],"split_indices":[0],"split_type":[0],"sum_hessian":[6.84E2],"tree_param":{"num_deleted":"0","num_feature":"235","num_nodes":"1","size_leaf_vector":"1"}},{"base_weights":[3.231087E-3,-4.14244E-3,4.124865E-1,3.585153E-1,6.0308192E-2],"categories":[],"categories_nodes":[],"categories_segments":[],"categories_sizes":[],"default_left":[0,0,0,0,0],"id":24,"left_children":[1,-1,3,-1,-1],"loss_changes":[4.821153E0,0E0,4.3395534E0,0E0,0E0],"parents":[2147483647,0,0,2,2],"right_children":[2,-1,4,-1,-1],"split_conditions":[1.5646003E0,-4.14244E-3,1.456043E0,3.585153E-1,6.0308192E-2],"split_indices":[140,0,175,0,0],"split_type":[0,0,0,0,0],"sum_hessian":[6.84E2,6.57E2,2.7E1,5E0,2.2E1],"tree_param":{"num_deleted":"0","num_feature":"235","num_nodes":"5","size_leaf_vector":"1"}},{"base_weights":[2.046598E-3],"categories":[],"categories_nodes":[],"categories_segments":[],"categories_sizes":[],"default_left":[0],"id":25,"left_children":[-1],"loss_changes":[0E0],"parents":[2147483647],"right_children":[-1],"split_conditions":[6.112397E-4],"split_indices":[0],"split_type":[0],"sum_hessian":[6.71E2],"tree_param":{"num_deleted":"0","num_feature":"235","num_nodes":"1","size_leaf_vector":"1"}},{"base_weights":[2.000443E-4,3.7031057E-3,-1.4193931E-1],"categories":[],"categories_nodes":[],"categories_segments":[],"categories_sizes":[],"default_left":[0,0,0],"id":26,"left_children":[1,-1,-1],"loss_changes":[3.85748E0,0E0,0E0],"parents":[2147483647,0,0],"right_children":[2,-1,-1],"split_conditions":[2.1262774E0,3.7031057E-3,-1.4193931E-1],"split_indices":[94,0,0],"split_type":[0,0,0],"sum_hessian":[6.69E2,6.53E2,1.6E1],"tree_param":{"num_deleted":"0","num_feature":"235","num_nodes":"3","size_leaf_vector":"1"}},{"base_weights":[1.3180557E-3],"categories":[],"categories_nodes":[],"categories_segments":[],"categories_sizes":[],"default_left":[0],"id":27,"left_children":[-1],"loss_changes":[0E0],"parents":[2147483647],"right_children":[-1],"split_conditions":[3.936523E-4],"split_indices":[0],"split_type":[0],"sum_hessian":[6.78E2],"tree_param":{"num_deleted":"0","num_feature":"235","num_nodes":"1","size_leaf_vector":"1"}},{"base_weights":[1.1744879E-3,-5.2142292E-2,3.2452557E-2,2.540382E-2,-3.3832587E-2],"categories":[],"categories_nodes":[],"categories_segments":[],"categories_sizes":[],"default_left":[0,0,0,0,0],"id":28,"left_children":[1,3,-1,-1,-1],"loss_changes":[3.861993E0,3.779601E0,0E0,0E0,0E0],"parents":[2147483647,0,0,1,1],"right_children":[2,4,-1,-1,-1],"split_conditions":[3.2451087E-1,-4.567398E-1,3.2452557E-2,2.540382E-2,-3.3832587E-2],"split_indices":[133,118,0,0,0],"split_type":[0,0,0,0,0],"sum_hessian":[6.72E2,4.49E2,2.23E2,1.38E2,3.11E2],"tree_param":{"num_deleted":"0","num_feature":"235","num_nodes":"5","size_leaf_vector":"1"}},{"base_weights":[1.1413936E-2],"categories":[],"categories_nodes":[],"categories_segments":[],"categories_sizes":[],"default_left":[0],"id":29,"left_children":[-1],"loss_changes":[0E0],"parents":[2147483647],"right_children":[-1],"split_conditions":[3.4089014E-3],"split_indices":[0],"split_type":[0],"sum_hessian":[6.65E2],"tree_param":{"num_deleted":"0","num_feature":"235","num_nodes":"1","size_leaf_vector":"1"}},{"base_weights":[6.6427765E-3,-3.226943E-4,2.358199E-1],"categories":[],"categories_nodes":[],"categories_segments":[],"categories_sizes":[],"default_left":[0,0,0],"id":30,"left_children":[1,-1,-1],"loss_changes":[4.1071496E0,0E0,0E0],"parents":[2147483647,0,0],"right_children":[2,-1,-1],"split_conditions":[3.5720723E0,-3.226943E-4,2.358199E-1],"split_indices":[52,0,0],"split_type":[0,0,0],"sum_hessian":[6.7E2,6.64E2,6E0],"tree_param":{"num_deleted":"0","num_feature":"235","num_nodes":"3","size_leaf_vector":"1"}},{"base_weights":[-2.8408457E-2],"categories":[],"categories_nodes":[],"categories_segments":[],"categories_sizes":[],"default_left":[0],"id":31,"left_children":[-1],"loss_changes":[0E0],"parents":[2147483647],"right_children":[-1],"split_conditions":[-8.484508E-3],"split_indices":[0],"split_type":[0],"sum_hessian":[6.64E2],"tree_param":{"num_deleted":"0","num_feature":"235","num_nodes":"1","size_leaf_vector":"1"}},{"base_weights":[-1.9977966E-3],"categories":[],"categories_nodes":[],"categories_segments":[],"categories_sizes":[],"default_left":[0],"id":32,"left_children":[-1],"loss_changes":[0E0],"parents":[2147483647],"right_children":[-1],"split_conditions":[-5.966646E-4],"split_indices":[0],"split_type":[0],"sum_hessian":[6.91E2],"tree_param":{"num_deleted":"0","num_feature":"235","num_nodes":"1","size_leaf_vector":"1"}},{"base_weights":[-2.8404386E-3,-2.6155487E-1,1.3563929E-3],"categories":[],"categories_nodes":[],"categories_segments":[],"categories_sizes":[],"default_left":[0,0,0],"id":33,"left_children":[1,-1,-1],"loss_changes":[4.3292027E0,0E0,0E0],"parents":[2147483647,0,0],"right_children":[2,-1,-1],"split_conditions":[-9.863744E-1,-2.6155487E-1,1.3563929E-3],"split_indices":[178,0,0],"split_type":[0,0,0],"sum_hessian":[6.62E2,5E0,6.57E2],"tree_param":{"num_deleted":"0","num_feature":"235","num_nodes":"3","size_leaf_vector":"1"}},{"base_weights":[5.7907077E-3],"categories":[],"categories_nodes":[],"categories_segments":[],"categories_sizes":[],"default_left":[0],"id":34,"left_children":[-1],"loss_changes":[0E0],"parents":[2147483647],"right_children":[-1],"split_conditions":[1.7294605E-3],"split_indices":[0],"split_type":[0],"sum_hessian":[6.7E2],"tree_param":{"num_deleted":"0","num_feature":"235","num_nodes":"1","size_leaf_vector":"1"}},{"base_weights":[2.4597824E-3],"categories":[],"categories_nodes":[],"categories_segments":[],"categories_sizes":[],"default_left":[0],"id":35,"left_children":[-1],"loss_changes":[0E0],"parents":[2147483647],"right_children":[-1],"split_conditions":[7.346419E-4],"split_indices":[0],"split_type":[0],"sum_hessian":[6.67E2],"tree_param":{"num_deleted":"0","num_feature":"235","num_nodes":"1","size_leaf_vector":"1"}},{"base_weights":[-9.50287E-4],"categories":[],"categories_nodes":[],"categories_segments":[],"categories_sizes":[],"default_left":[0],"id":36,"left_children":[-1],"loss_changes":[0E0],"parents":[2147483647],"right_children":[-1],"split_conditions":[-2.83814E-4],"split_indices":[0],"split_type":[0],"sum_hessian":[6.69E2],"tree_param":{"num_deleted":"0","num_feature":"235","num_nodes":"1","size_leaf_vector":"1"}},{"base_weights":[-1.4819653E-2],